16.404937744140625	-2.145024061203003	15.420307159423828	-18.41543960571289	7.49639368057251	21.926998138427734	-14.064884185791016	8.140381813049316	15.150948524475098	-10.45324420928955	-10.669913291931152	-19.218921661376953	-37.02384948730469	36.65031051635742	4.279489994049072	1.6444144248962402
43.587623596191406	-6.720162868499756	18.685617446899414	-8.073859214782715	-35.55851364135742	-8.111454963684082	16.394882202148438	-4.404693126678467	53.87703323364258	10.861234664916992	-4.285489559173584	-42.58548355102539	13.968228340148926	-12.169708251953125	-19.6506404876709	-21.83710479736328
9.274657249450684	-50.96582794189453	5.250087738037109	-21.93488121032715	23.69876480102539	-1.6251369714736938	-18.54177474975586	20.79388427734375	-0.8610857129096985	0.534347414970398	26.414342880249023	8.778397560119629	-11.106295585632324	17.731985092163086	-7.765710353851318	1.789618968963623
20.585281372070312	-27.684986114501953	12.507309913635254	-4.540414333343506	-15.732707977294922	-29.16466522216797	8.703092575073242	2.325596570968628	53.57832717895508	18.97409439086914	7.166748046875	-23.649667739868164	38.454803466796875	-34.79150390625	-17.133872985839844	-22.258403778076172
17.29808235168457	-40.07835006713867	2.4407472610473633	-20.732614517211914	22.99609375	22.044754028320312	1.7931616306304932	16.76032066345215	11.2666654586792	-13.452589988708496	10.797120094299316	-4.681488990783691	-2.96553373336792	-12.994977951049805	-16.02472686767578	2.0759239196777344
-6.226089000701904	-10.05956745147705	-26.882122039794922	-7.857510566711426	1.4721919298171997	27.796382904052734	-18.979928970336914	-30.567394256591797	-3.654904365539551	13.262630462646484	29.79035186767578	-1.1270450353622437	5.650800704956055	21.038246154785156	48.01156234741211	-27.72859001159668
9.361021041870117	19.844778060913086	18.31172752380371	-6.80790901184082	13.591819763183594	10.864869117736816	-0.42229610681533813	2.6204326152801514	27.263917922973633	2.7045798301696777	-15.558646202087402	-23.12822914123535	-36.81147003173828	29.16364288330078	-2.4010260105133057	-32.91057586669922
39.880653381347656	-2.702571392059326	7.219316005706787	-26.839942932128906	-4.352060794830322	16.671586990356445	1.8295491933822632	2.4758291244506836	21.604394912719727	-5.028723239898682	4.341991424560547	-34.876953125	-18.233396530151367	16.668495178222656	-4.2942585945129395	-3.6178433895111084
19.4105281829834	9.326139450073242	8.775726318359375	-16.054412841796875	20.192733764648438	3.3557698726654053	-23.6416015625	-0.7945303916931152	25.61974334716797	16.994611740112305	3.2194197177886963	-17.77911376953125	-43.75035858154297	29.97722816467285	3.98721981048584	-15.838522911071777
20.97136116027832	-9.446992874145508	-4.860076427459717	-12.664568901062012	-0.8539202213287354	23.41383171081543	23.84710693359375	13.755646705627441	23.648273468017578	-16.16887092590332	-14.094012260437012	-23.021448135375977	3.919168472290039	2.0602574348449707	-15.79244327545166	-9.901703834533691
29.265640258789062	4.81679105758667	-11.982711791992188	-20.914936065673828	22.194978713989258	39.49346160888672	11.794048309326172	5.003390312194824	9.491540908813477	-26.670419692993164	-9.418834686279297	-10.175972938537598	-36.239707946777344	20.523414611816406	-9.913429260253906	6.363439559936523
52.660614013671875	-21.175039291381836	-8.345037460327148	-29.510726928710938	-3.0608532428741455	31.78527069091797	9.721099853515625	-11.34576416015625	35.32960891723633	-13.612334251403809	-6.61237096786499	4.703039646148682	-25.496074676513672	3.8855631351470947	-6.066923141479492	6.762209892272949
29.13772201538086	-19.038578033447266	12.709653854370117	-18.242938995361328	-8.169692039489746	-40.869136810302734	12.693488121032715	-1.9113396406173706	63.936851501464844	46.715187072753906	9.061429977416992	-22.103525161743164	39.64202117919922	-39.94476318359375	-21.00424575805664	-49.5684928894043
31.44887924194336	-12.86097526550293	4.754795551300049	-18.66376304626465	0.9326920509338379	21.36379623413086	15.26667308807373	4.576959133148193	44.5114631652832	-5.1330246925354	-7.405981540679932	-21.714677810668945	-13.022420883178711	-4.565723896026611	-11.418611526489258	-22.384387969970703
9.814799308776855	-8.375349044799805	6.044952392578125	-9.469285011291504	-4.704822540283203	-2.9055957794189453	-25.05735969543457	6.455420017242432	-21.247995376586914	-3.4971864223480225	10.567147254943848	-4.336478233337402	-26.09931182861328	35.15328598022461	14.460801124572754	31.282987594604492
-15.758190155029297	-17.024147033691406	-27.996623992919922	3.5050160884857178	-11.074996948242188	20.993019104003906	-22.373987197875977	-29.003498077392578	-5.585387706756592	17.817312240600586	41.950172424316406	-9.110233306884766	11.608616828918457	23.828582763671875	59.5653076171875	-23.647554397583008
11.892339706420898	-1.2158445119857788	0.6917734146118164	-4.364635467529297	15.1116361618042	20.16330909729004	-26.914209365844727	2.0264363288879395	8.655203819274902	-11.919443130493164	-4.971964359283447	-8.54196834564209	-37.12946319580078	28.62714958190918	5.469587326049805	17.224163055419922
-9.174219131469727	-25.355079650878906	2.816093921661377	-7.830161094665527	-27.085304260253906	-31.354965209960938	1.7627124786376953	-6.028053283691406	-13.016325950622559	22.498416900634766	19.03548812866211	14.46865463256836	19.78265953063965	26.093862533569336	25.76738929748535	-9.00841999053955
-1.8748250007629395	-13.615509986877441	-47.280601501464844	2.319401979446411	-17.059621810913086	-15.839909553527832	13.522013664245605	-47.59062576293945	-3.2694461345672607	54.5923957824707	20.45077896118164	-11.968716621398926	7.393587112426758	-2.5115439891815186	85.69924926757812	-11.79296588897705
-7.010980129241943	4.471235275268555	-8.633255958557129	-8.927312850952148	-57.26201248168945	-63.61189270019531	32.22145462036133	-9.629820823669434	-31.37494659423828	43.78996658325195	-24.231666564941406	28.12022590637207	70.38591003417969	-20.189233779907227	11.220233917236328	14.497142791748047
-4.687996864318848	11.015405654907227	-27.666282653808594	-19.27993392944336	-44.03166961669922	-51.33911895751953	37.892635345458984	-24.80019760131836	-34.007354736328125	55.82879638671875	-2.194763660430908	-2.9098286628723145	32.99504089355469	6.24323844909668	59.30625534057617	1.9233767986297607
-11.810468673706055	3.963953971862793	-16.265409469604492	-2.56296443939209	-44.90174865722656	-32.714744567871094	8.508138656616211	-20.814098358154297	-36.05181121826172	31.005720138549805	-2.916130542755127	19.791763305664062	24.247234344482422	28.651594161987305	44.68476104736328	5.923637866973877
3.1355557441711426	-11.743419647216797	2.7171761989593506	-10.134373664855957	-41.386474609375	-26.938505172729492	-11.797067642211914	-4.214267730712891	-26.421371459960938	16.85154914855957	5.450756072998047	14.06342887878418	18.332021713256836	25.73047637939453	18.225788116455078	23.290386199951172
0.7335162162780762	-19.88276481628418	-39.29151153564453	-10.090261459350586	-14.36214542388916	-21.641401290893555	15.957671165466309	-35.73739242553711	-0.8060864210128784	50.72309112548828	18.562198638916016	-10.674560546875	16.36560821533203	-7.198613166809082	60.467044830322266	-0.36685168743133545
14.357440948486328	-15.070789337158203	-29.862388610839844	-31.012372970581055	-27.88456153869629	-3.49884295463562	7.855579376220703	-19.4504451751709	-19.80959129333496	25.337129592895508	10.458586692810059	10.900469779968262	29.304485321044922	13.717124938964844	46.48558044433594	-9.737691879272461
10.457806587219238	-13.240958213806152	14.426861763000488	-16.66500473022461	-45.069007873535156	-32.46320343017578	-4.8996405601501465	0.2308659553527832	-19.380775451660156	21.976768493652344	4.64532470703125	4.122518539428711	29.602401733398438	17.685928344726562	6.864660263061523	13.647337913513184
-13.886161804199219	8.710718154907227	13.400094985961914	3.0546388626098633	15.387654304504395	-11.664278030395508	-28.29897689819336	17.633756637573242	-21.458044052124023	-6.937836647033691	6.612060546875	-16.306486129760742	-20.284778594970703	31.78518295288086	15.756348609924316	18.037626266479492
-12.019401550292969	-19.69738006591797	-0.9291051626205444	-32.53124237060547	-19.140592575073242	-34.870155334472656	5.56422758102417	-17.689773559570312	-20.407649993896484	43.15521240234375	21.283105850219727	16.041357040405273	12.892784118652344	26.33894157409668	42.60398864746094	-2.3620119094848633
3.77181339263916	-16.107995986938477	-11.199734687805176	-23.898548126220703	-37.96868896484375	-28.993114471435547	15.56229019165039	-13.606457710266113	-9.57590103149414	36.89935302734375	-3.6894350051879883	17.977922439575195	49.937442779541016	-14.579442977905273	14.319616317749023	8.659557342529297
-18.97425079345703	12.885986328125	-36.57951354980469	25.11653709411621	-6.351234436035156	-13.035662651062012	15.324997901916504	-37.5661735534668	-11.314739227294922	42.171485900878906	9.64301586151123	-17.861223220825195	-13.320340156555176	11.287708282470703	74.16116333007812	-22.928518295288086
-11.266738891601562	-0.13007235527038574	-19.41438102722168	-0.5254506468772888	-19.19183349609375	9.33765983581543	-9.006644248962402	-27.26042366027832	-23.03835105895996	15.848106384277344	16.568620681762695	3.80501389503479	1.8864381313323975	34.700374603271484	55.72550582885742	-16.163484573364258
0.0064544677734375	-10.853418350219727	0.8813768625259399	-18.570209503173828	-36.58579635620117	-29.38671875	8.839122772216797	-3.847370147705078	-10.03496265411377	25.26622200012207	-3.3179874420166016	14.530458450317383	46.70436096191406	-6.550659656524658	4.568865776062012	5.021848678588867
-0.102813720703125	17.257448196411133	-8.477546691894531	-22.10344696044922	-43.214595794677734	-36.920257568359375	25.081239700317383	-27.342111587524414	-27.636547088623047	51.39164352416992	-0.5961565971374512	-0.9452816247940063	17.58108139038086	18.165090560913086	56.153106689453125	-5.669828414916992
-6.628155708312988	29.77105712890625	-33.74365234375	11.28196907043457	-30.283945083618164	0.1180112361907959	6.627021789550781	-44.659996032714844	-22.52080726623535	33.870208740234375	9.856610298156738	-7.0432353019714355	-1.1872570514678955	24.079471588134766	75.67535400390625	-29.132822036743164
-10.840455055236816	22.40196990966797	-27.5516357421875	6.027620792388916	-23.190387725830078	-3.694340229034424	11.335142135620117	-29.05232048034668	-25.671234130859375	28.60486602783203	7.558597087860107	-7.286168098449707	-10.982550621032715	35.762481689453125	69.07085418701172	-27.03761863708496
-2.3890492916107178	-22.377172470092773	-35.888702392578125	-7.255077362060547	-29.582706451416016	-30.613216400146484	27.24995231628418	-35.67588424682617	-8.200416564941406	51.56740188598633	20.126916885375977	-11.755303382873535	27.425212860107422	-9.810754776000977	65.76285552978516	3.027108669281006
-8.700020790100098	32.92233657836914	-22.663156509399414	-6.312592029571533	-45.476898193359375	-22.94855308532715	21.575786590576172	-24.76141929626465	-46.143070220947266	31.4984073638916	-7.197075843811035	10.035602569580078	7.9428887367248535	44.283233642578125	60.99254608154297	-18.547178268432617
29.498075485229492	-9.107229232788086	2.2327094078063965	-15.239898681640625	-6.870016098022461	-2.4601521492004395	-3.8040952682495117	-5.580190658569336	30.0618896484375	11.848573684692383	16.775054931640625	-26.95050621032715	-15.177825927734375	15.701425552368164	1.7565407752990723	-8.511478424072266
-6.021823883056641	32.26988983154297	-11.560235023498535	-5.99976921081543	-54.18888473510742	-38.71800231933594	21.4827880859375	-23.299945831298828	-33.83124542236328	37.13818359375	-8.548016548156738	4.620711803436279	8.23630428314209	48.8665771484375	60.22827911376953	-19.472854614257812
6.9836931228637695	-17.47917366027832	-24.337730407714844	-18.878860473632812	-36.06812286376953	-21.90056610107422	11.00152587890625	-21.97764778137207	-9.001218795776367	32.87896728515625	-2.744988441467285	23.91459846496582	61.71411895751953	-21.07073974609375	23.957942962646484	-2.1717467308044434
-4.533347129821777	-27.289777755737305	-5.29754638671875	-16.01980972290039	-48.10725784301758	-31.90841293334961	1.8063688278198242	-6.758336067199707	-24.532873153686523	28.083080291748047	11.41263198852539	20.127838134765625	39.66960144042969	25.293842315673828	28.505828857421875	5.320957183837891
-11.565622329711914	11.579678535461426	-6.7463579177856445	-9.26115894317627	-30.269718170166016	-25.613277435302734	-0.3237483501434326	-16.9088134765625	-31.03339195251465	26.927335739135742	4.617751121520996	11.261642456054688	3.360414981842041	43.47594451904297	45.13518524169922	-6.523460388183594
-9.256681442260742	32.002384185791016	-31.911876678466797	-7.258252143859863	-43.39120864868164	-53.9334831237793	42.44051742553711	-33.68465042114258	-36.508052825927734	60.62104034423828	-10.200023651123047	-4.11422872543335	29.366291046142578	1.8698794841766357	71.2580795288086	-6.178804874420166
-7.826355934143066	-32.158267974853516	-37.0078010559082	0.8385900855064392	4.3809404373168945	45.107479095458984	-27.265769958496094	-29.397014617919922	-15.69465160369873	6.073963165283203	31.296159744262695	15.390850067138672	34.54878616333008	-11.569580078125	45.4234733581543	-15.616849899291992
-20.496673583984375	9.533844947814941	-29.714000701904297	27.597686767578125	0.35883602499961853	-19.66065788269043	19.616718292236328	-33.96366882324219	-5.140983581542969	47.97686004638672	13.90358829498291	-21.95833969116211	-24.351791381835938	9.372325897216797	72.57164001464844	-29.546306610107422
-11.589686393737793	34.821998596191406	-38.192176818847656	15.931083679199219	-23.556447982788086	-1.386129379272461	15.94994831085205	-41.35499954223633	-27.29160499572754	32.55714797973633	-0.5769490003585815	-10.783246994018555	-7.368474006652832	26.326139450073242	86.13402557373047	-32.55887985229492
3.5929856300354004	27.059070587158203	-40.079132080078125	-14.122040748596191	-50.175880432128906	-9.880825996398926	22.136316299438477	-28.9488468170166	-42.874656677246094	30.387861251831055	-8.812823295593262	7.102631092071533	20.588911056518555	31.764514923095703	70.54193878173828	-17.594310760498047
16.102859497070312	-28.966779708862305	-8.573925971984863	-19.16221809387207	-29.38272476196289	-16.698638916015625	-7.644314289093018	-0.3571317195892334	-11.708709716796875	11.093757629394531	12.923040390014648	16.895227432250977	27.416614532470703	3.1614694595336914	1.5784202814102173	28.59358024597168
0.626488447189331	-47.658145904541016	-4.270685195922852	-28.7136173248291	5.025120735168457	1.5367387533187866	-13.460687637329102	19.88285255432129	-15.541801452636719	-3.765221357345581	18.027008056640625	14.34859848022461	-0.8385305404663086	15.181700706481934	1.4896544218063354	34.69131851196289
-19.84882354736328	-9.116368293762207	-2.4031498432159424	-3.045177459716797	-16.194780349731445	-11.60563850402832	-12.431907653808594	-16.378162384033203	-23.006223678588867	19.147563934326172	12.455049514770508	13.88550090789795	1.4991811513900757	39.170875549316406	44.36018753051758	-6.569757461547852
-10.1919584274292	-3.2241604328155518	-14.379509925842285	5.587159633636475	-5.621105670928955	8.630531311035156	-12.765905380249023	-21.71802520751953	-12.963278770446777	16.398714065551758	20.7061767578125	0.35273176431655884	-13.13160228729248	25.454450607299805	49.47467803955078	-16.27469825744629
-2.869291067123413	13.163145065307617	-33.62007141113281	44.56194305419922	9.996838569641113	17.00606918334961	1.7803648710250854	-32.66982650756836	11.432384490966797	20.67877960205078	8.531181335449219	1.804681420326233	-18.664915084838867	-21.487205505371094	50.982086181640625	-53.170928955078125
-26.843597412109375	15.591327667236328	-17.069515228271484	45.2859001159668	10.879849433898926	8.769752502441406	5.099696159362793	-23.16880226135254	-0.1494429111480713	26.02811622619629	6.563681125640869	-10.308357238769531	-27.564693450927734	-10.083085060119629	60.652976989746094	-45.16244125366211
8.443105697631836	-22.126131057739258	-24.807937622070312	17.879196166992188	10.159099578857422	19.568832397460938	-13.472338676452637	-18.242719650268555	21.575424194335938	14.90220832824707	32.00975036621094	9.44345474243164	2.586153507232666	-23.14638900756836	22.746383666992188	-44.91640853881836
-16.41271209716797	17.55110740661621	-16.086570739746094	51.14655303955078	10.129350662231445	8.323582649230957	20.190649032592773	-22.406715393066406	13.568063735961914	27.799640655517578	16.202863693237305	-37.04530715942383	-52.20586013793945	5.072239875793457	58.84459686279297	-67.90386199951172
-17.03575325012207	-10.081501960754395	-40.862220764160156	15.456136703491211	10.647082328796387	42.612308502197266	-15.63814926147461	-33.02661895751953	-10.1499662399292	12.589362144470215	35.82131576538086	-13.379443168640137	-3.7378082275390625	9.842901229858398	67.52896881103516	-34.86526107788086
-10.67448616027832	18.57073211669922	-49.306827545166016	30.09889030456543	-20.25872802734375	4.810090065002441	0.31970885396003723	-55.386131286621094	-4.009357452392578	41.4691162109375	24.546581268310547	-16.681480407714844	-1.0591942071914673	11.028636932373047	75.900634765625	-35.1707878112793
-24.18906593322754	3.376291275024414	-11.182367324829102	34.7448616027832	20.84661293029785	24.414371490478516	-12.507899284362793	-11.953981399536133	0.7538155913352966	15.721217155456543	34.862091064453125	-15.395132064819336	-18.142478942871094	-8.446938514709473	38.495941162109375	-51.501922607421875
-28.144207000732422	10.689567565917969	-20.128334045410156	47.19963836669922	11.266059875488281	-2.672839641571045	27.71083641052246	-27.245040893554688	5.3063483238220215	44.365108489990234	17.6595458984375	-50.22065734863281	-43.58610534667969	2.3027894496917725	73.87395477294922	-52.91346740722656
42.46460723876953	-5.611830234527588	6.0335693359375	-30.767330169677734	-13.145337104797363	-2.585434675216675	-1.348703384399414	-3.1654341220855713	25.185752868652344	14.639594078063965	6.9868364334106445	-26.00387191772461	-17.821674346923828	20.772567749023438	-1.4345080852508545	-3.7803728580474854
-14.025768280029297	13.927276611328125	-33.69906234741211	38.54007339477539	6.557218551635742	17.450197219848633	-3.6830203533172607	-33.56563949584961	-0.2730627655982971	22.666706085205078	8.772550582885742	-1.55849027633667	-14.492132186889648	-6.900842666625977	56.27397155761719	-41.93365478515625
-21.69727897644043	29.801416397094727	-22.15931510925293	56.161842346191406	0.11453521251678467	-5.775118827819824	27.868976593017578	-32.50315475463867	8.587430953979492	45.12416076660156	3.057917356491089	-44.46269607543945	-49.06336212158203	5.93349552154541	72.9203872680664	-57.56023406982422
13.627029418945312	-36.60323715209961	-43.75362014770508	-19.25066375732422	-6.628576278686523	14.612911224365234	-3.463792324066162	-30.908771514892578	5.17744255065918	26.035627365112305	32.411861419677734	4.459517002105713	36.68583297729492	-19.52926254272461	47.060546875	-15.16291332244873
5.865748405456543	-1.2615752220153809	-37.22352981567383	-2.3202247619628906	1.0015225410461426	11.612977981567383	-14.802966117858887	-41.94160461425781	2.7282376289367676	30.92392921447754	25.50478172302246	-1.1207760572433472	-11.703615188598633	14.259393692016602	61.44136428833008	-24.4822998046875
-10.251553535461426	-28.614330291748047	-44.35961151123047	-5.757339000701904	-13.414511680603027	-12.940254211425781	14.021482467651367	-37.21279525756836	-8.20513916015625	46.74378967285156	32.443138122558594	-13.816375732421875	18.837326049804688	-1.9112201929092407	75.21065521240234	-5.3829216957092285
-7.684109687805176	-11.822795867919922	-36.58650588989258	-0.4929930567741394	-19.158620834350586	-0.7590005993843079	6.338509559631348	-41.34566879272461	-11.862809181213379	38.725669860839844	37.581146240234375	-13.621827125549316	11.597957611083984	8.50130844116211	78.7714614868164	-21.132854461669922
-23.071868896484375	19.110464096069336	-24.535335540771484	50.33138656616211	-4.384284496307373	-11.864418029785156	22.921789169311523	-34.13654708862305	4.357382297515869	42.122432708740234	6.701233386993408	-25.29768943786621	-26.998579025268555	-3.353390693664551	69.82447052001953	-47.301029205322266
-18.875587463378906	5.680205821990967	-13.137832641601562	36.780426025390625	17.519405364990234	18.863807678222656	1.803666114807129	-12.290999412536621	1.2862052917480469	19.610645294189453	15.879352569580078	-21.7342529296875	-38.91069030761719	5.1544036865234375	51.22048568725586	-51.83938980102539
-7.259677886962891	-9.495326042175293	-48.16019058227539	10.658324241638184	-9.647764205932617	-12.578819274902344	10.456781387329102	-47.72166442871094	1.3740088939666748	50.527862548828125	19.905988693237305	-15.48801040649414	1.151564359664917	-1.3853678703308105	80.2378921508789	-12.548653602600098
-37.68780517578125	18.828805923461914	-10.343815803527832	53.94002151489258	16.087961196899414	-14.104647636413574	29.06363868713379	-18.340469360351562	7.2871809005737305	50.08533477783203	7.578611373901367	-43.65232467651367	-48.499481201171875	-8.33086109161377	68.85409545898438	-56.65288543701172
15.00761604309082	-23.811107635498047	-4.368546485900879	-12.110121726989746	0.5101971626281738	-0.4520615041255951	-29.52494239807129	-5.745843887329102	5.80430269241333	0.33739644289016724	19.760879516601562	7.418540954589844	-18.765647888183594	27.329051971435547	13.354475021362305	18.027549743652344
12.262409210205078	23.582477569580078	-32.32807159423828	-26.198135375976562	-37.87190246582031	-12.666349411010742	22.441633224487305	-24.865957260131836	-28.27405548095703	30.740596771240234	1.7922827005386353	1.7197922468185425	9.75300407409668	32.12601089477539	58.84462356567383	-23.381561279296875
-22.132286071777344	4.498950004577637	-34.34600067138672	24.429834365844727	-18.490215301513672	-20.079517364501953	15.559855461120605	-53.322410583496094	-7.283475399017334	57.04376220703125	20.8006649017334	-23.368427276611328	-2.781704902648926	8.263752937316895	87.91767883300781	-20.72113037109375
-1.3723506927490234	8.730770111083984	-33.1234245300293	15.347352981567383	-9.03536605834961	-9.448068618774414	21.840511322021484	-24.699445724487305	-3.085155487060547	37.28233337402344	26.51483726501465	-28.601459503173828	-14.60998249053955	3.270019054412842	68.60191345214844	-42.57989501953125
-21.254528045654297	-13.733789443969727	-27.459049224853516	6.138816833496094	-28.42798614501953	-46.0068359375	32.201900482177734	-37.788204193115234	-8.608598709106445	63.90178298950195	16.156841278076172	-21.156404495239258	18.255718231201172	-9.287504196166992	72.41657257080078	6.558730125427246
3.6977579593658447	-31.81864356994629	-11.52854061126709	-30.339599609375	12.991413116455078	-0.9535224437713623	-23.153385162353516	-7.140746593475342	0.6302004456520081	4.974615573883057	29.48004722595215	17.107624053955078	-22.117168426513672	29.01280975341797	15.925289154052734	22.53860855102539
32.96648406982422	-7.3507232666015625	4.684989929199219	-27.787593841552734	-2.529956817626953	12.474306106567383	-4.847054958343506	1.4518907070159912	15.617020606994629	-6.433703899383545	10.30257511138916	-33.938018798828125	-21.27052116394043	32.43278884887695	0.13361740112304688	4.506233215332031
10.539057731628418	-64.22158813476562	-11.754751205444336	-36.82759475708008	16.634531021118164	5.0847625732421875	-15.13891887664795	6.479581832885742	-5.9896769523620605	20.107484817504883	32.760894775390625	15.144135475158691	10.125015258789062	-0.16655659675598145	22.284992218017578	-0.5161237716674805
42.00994110107422	-30.831218719482422	-11.071422576904297	-25.677953720092773	-15.771373748779297	-2.056809186935425	-5.428670406341553	5.544113636016846	22.628063201904297	-4.2448248863220215	22.466737747192383	-19.61276626586914	17.49066162109375	3.034599542617798	-15.65438461303711	14.860577583312988
-20.221914291381836	5.487082481384277	-38.103851318359375	21.24680519104004	-18.75457763671875	-23.80299186706543	18.951507568359375	-51.24081039428711	-10.033333778381348	58.07625198364258	15.996406555175781	-18.785921096801758	-8.253305435180664	9.328435897827148	94.8790054321289	-17.515621185302734
-16.749624252319336	14.837753295898438	-25.095441818237305	25.324970245361328	-11.34301471710205	4.032113552093506	0.8696598410606384	-43.57133102416992	-3.48254656791687	35.1085090637207	25.128437042236328	-25.398143768310547	-13.726234436035156	19.528993606567383	78.6993179321289	-41.30731201171875
15.723028182983398	6.915040969848633	32.37034606933594	-31.478260040283203	1.0128626823425293	-21.998048782348633	5.328304767608643	2.549773931503296	20.955371856689453	35.98043441772461	12.505073547363281	-42.78986740112305	-16.25461196899414	23.380767822265625	4.144008636474609	-36.353546142578125
-3.3384246826171875	-8.513285636901855	8.402632713317871	-4.987339019775391	-3.7067251205444336	-21.00859832763672	-21.56549072265625	13.429824829101562	-31.397109985351562	6.324169158935547	9.782485008239746	-5.770475387573242	-15.422128677368164	31.655349731445312	19.156625747680664	36.544822692871094
-4.986717224121094	9.440601348876953	23.52404022216797	-7.007887363433838	8.404537200927734	-14.815295219421387	-26.722091674804688	12.99744701385498	5.518774032592773	0.49175477027893066	3.2406108379364014	-28.603193283081055	-16.013687133789062	31.135799407958984	9.291513442993164	2.7910921573638916
21.855567932128906	11.398828506469727	30.58834457397461	-16.061145782470703	1.060499906539917	-11.16169548034668	-16.348085403442383	-7.363924026489258	40.35713577270508	21.841217041015625	8.081686973571777	-39.093467712402344	-27.644733428955078	35.25032424926758	1.9974961280822754	-39.66069412231445
-19.29144287109375	-1.6151025295257568	13.777812004089355	-5.002083778381348	46.497066497802734	-15.54071044921875	-26.724088668823242	1.2997097969055176	7.485172271728516	53.05307388305664	3.027416467666626	29.746126174926758	-27.055849075317383	-9.090240478515625	26.519872665405273	-48.62468338012695
-23.972736358642578	18.606735229492188	32.62693786621094	23.58692169189453	32.86319351196289	-15.7176513671875	-13.01437759399414	8.849797248840332	12.072416305541992	35.634315490722656	-35.69825744628906	47.9644660949707	-37.44342041015625	-34.465187072753906	15.689682006835938	-39.83681869506836
-37.49790954589844	-1.7892141342163086	6.4301676750183105	19.456817626953125	34.452606201171875	-17.723644256591797	-21.903703689575195	9.03637409210205	-10.726696968078613	13.799891471862793	-22.739261627197266	30.253326416015625	-17.001182556152344	10.255208969116211	6.2377848625183105	4.201915740966797
4.83823823928833	-46.339778900146484	6.4919867515563965	-35.058223724365234	8.032649993896484	-7.80946159362793	-9.648557662963867	13.98813533782959	-7.634129047393799	11.330769538879395	21.31883430480957	4.290913105010986	1.7815334796905518	24.393131256103516	3.8271734714508057	6.576494216918945
-23.31081199645996	-8.027965545654297	8.876399993896484	-4.743618965148926	8.246877670288086	-22.27992820739746	-15.584244728088379	7.3160295486450195	-19.987646102905273	14.706575393676758	6.483298301696777	1.405399203300476	-16.219017028808594	30.32779312133789	24.397611618041992	15.900507926940918
-13.650897026062012	-2.4295992851257324	26.158292770385742	0.6334655284881592	-9.087233543395996	-21.868566513061523	-16.26303482055664	19.381549835205078	-41.033260345458984	-0.01174306869506836	5.486362457275391	-9.100613594055176	-4.087032318115234	26.781089782714844	14.334327697753906	28.293670654296875
-39.45429992675781	12.188406944274902	-7.788395404815674	25.167787551879883	21.472562789916992	-4.556856155395508	-9.372930526733398	-9.30798053741455	-14.11782169342041	29.424701690673828	2.504094362258911	5.986227512359619	-32.95092010498047	10.119461059570312	42.79953384399414	-20.163305282592773
-12.146881103515625	8.88798999786377	-19.36665916442871	30.26779556274414	-6.0082221031188965	-12.036821365356445	18.428813934326172	-26.808658599853516	2.582946538925171	48.75537872314453	24.616741180419922	-34.45901870727539	-26.97031021118164	4.799954891204834	70.43172454833984	-50.71035385131836
-51.1768913269043	9.615865707397461	17.930299758911133	20.342498779296875	22.7900447845459	-25.77524757385254	-20.984756469726562	16.587383270263672	-30.428081512451172	9.845011711120605	-19.064449310302734	6.446615695953369	-14.860591888427734	12.923090934753418	25.768503189086914	22.055086135864258
-13.609807014465332	-1.011328101158142	14.484569549560547	4.7958879470825195	4.861419677734375	-9.951919555664062	-20.008981704711914	10.023202896118164	-28.701303482055664	-1.0601260662078857	-4.853303909301758	-0.016261905431747437	-23.949060440063477	24.418672561645508	21.609874725341797	30.572643280029297
6.747833728790283	19.038347244262695	20.888551712036133	-3.649820327758789	27.87937355041504	-3.567852020263672	-36.120235443115234	2.603577136993408	20.382272720336914	21.543256759643555	6.821872234344482	-26.990856170654297	-39.566734313964844	15.998950958251953	12.659955978393555	-16.09760093688965
-8.590933799743652	7.277125358581543	10.567986488342285	22.654863357543945	32.824195861816406	-7.288670539855957	-21.506473541259766	-1.653698205947876	8.221051216125488	30.287641525268555	8.01127815246582	35.54412841796875	-15.654309272766113	-30.986318588256836	0.2069859504699707	-45.34483337402344
-40.199317932128906	-2.1644034385681152	10.052371978759766	23.97159767150879	32.232322692871094	-19.27602767944336	-19.13372230529785	3.5682315826416016	-8.81806755065918	16.74413299560547	-16.195022583007812	32.58396911621094	-15.482677459716797	-1.6441618204116821	9.895429611206055	-3.8600847721099854
-6.652482032775879	-1.5871269702911377	-19.560447692871094	10.832578659057617	49.823787689208984	18.62803077697754	-24.676183700561523	7.500946998596191	10.029057502746582	13.0164155960083	13.56403636932373	11.939255714416504	-16.405534744262695	-18.80337142944336	8.368806838989258	-36.66461181640625
55.28116226196289	-26.898265838623047	-8.938486099243164	-25.18027687072754	-15.346158981323242	19.77747917175293	2.8207931518554688	-12.012803077697754	29.409257888793945	-2.7144947052001953	0.012353777885437012	10.019399642944336	-17.41284942626953	-8.340848922729492	-8.381258010864258	19.506351470947266
-35.27296447753906	11.564385414123535	-12.555630683898926	44.865901947021484	-3.5630390644073486	-26.161035537719727	35.17927169799805	-25.560054779052734	6.320370197296143	52.656761169433594	10.704113006591797	-48.01488494873047	-33.784034729003906	1.0866020917892456	74.19578552246094	-44.06818389892578
4.188994884490967	-22.667957305908203	-24.909961700439453	-11.486087799072266	1.755212664604187	13.045835494995117	-20.98149299621582	-19.049423217773438	-2.8929409980773926	14.687642097473145	34.865478515625	7.066039085388184	-1.5450053215026855	21.392684936523438	42.27439880371094	-18.16088104248047
-17.138668060302734	24.450700759887695	-7.151344299316406	38.67330551147461	37.32406997680664	13.982837677001953	-40.37297821044922	-0.6265832185745239	7.64687442779541	5.0265727043151855	12.386270523071289	4.898032188415527	-23.453201293945312	-13.834273338317871	7.229589462280273	-21.684326171875
-7.271106719970703	9.831686019897461	2.6123433113098145	26.27893829345703	16.899499893188477	-11.567696571350098	-23.975854873657227	-9.03666877746582	9.155229568481445	34.69247817993164	27.382606506347656	18.202180862426758	-20.795005798339844	-9.093321800231934	16.079240798950195	-55.014610290527344
-9.582673072814941	6.628962993621826	17.74472999572754	24.938282012939453	23.746807098388672	-15.184894561767578	-22.143741607666016	-3.9217019081115723	12.230424880981445	32.22705078125	12.738747596740723	10.418211936950684	-32.304786682128906	-4.155941963195801	6.024949073791504	-37.478370666503906
-1.4354722499847412	13.318577766418457	4.100712299346924	26.44089698791504	26.755699157714844	6.089223861694336	-39.18296432495117	1.9822659492492676	19.765771865844727	5.204300880432129	7.761455535888672	-11.326592445373535	-41.56986618041992	12.122243881225586	2.4116578102111816	-9.53209114074707
-9.947839736938477	-24.434701919555664	24.750295639038086	-7.82266092300415	4.169351577758789	-26.73049545288086	-30.220077514648438	14.425164222717285	-11.387184143066406	2.479273557662964	26.702173233032227	-3.4898288249969482	-5.70206880569458	49.196929931640625	11.11832046508789	-2.3021857738494873
-28.622905731201172	-8.292265892028809	8.395017623901367	19.721904754638672	34.16390609741211	-14.342105865478516	-18.861698150634766	-0.790263295173645	-0.8605214357376099	33.42531204223633	2.2784628868103027	30.02174949645996	-20.663288116455078	-10.35915756225586	15.092604637145996	-27.412784576416016
-18.597824096679688	-4.10957145690918	-4.210180282592773	21.142276763916016	19.996475219726562	7.7210001945495605	-12.265661239624023	-17.018619537353516	10.941946029663086	36.415435791015625	41.179935455322266	-22.60741424560547	-35.65879440307617	8.927146911621094	53.9550895690918	-56.334861755371094
15.464323997497559	-58.2346076965332	4.841238498687744	-18.401790618896484	-5.485325813293457	-8.546316146850586	9.071145057678223	23.877883911132812	-7.011225700378418	-14.517843246459961	35.013301849365234	-9.962298393249512	38.98003387451172	-5.075181007385254	-16.066024780273438	11.417488098144531
24.38986587524414	-40.81110763549805	-12.397701263427734	2.3279218673706055	-16.40921974182129	-5.2116193771362305	0.48547935485839844	10.087509155273438	0.4945112466812134	-1.6481595039367676	3.284914016723633	0.8879945278167725	29.312149047851562	-31.951290130615234	-16.616464614868164	38.50645446777344
22.980560302734375	-33.11857986450195	31.144407272338867	-6.969801425933838	-33.72266387939453	13.904115676879883	11.640451431274414	10.378491401672363	4.866621017456055	-18.342571258544922	2.3151450157165527	-17.812410354614258	-6.114218235015869	13.192113876342773	-10.42014217376709	12.663315773010254
-9.621028900146484	-21.98061180114746	42.23154067993164	7.3732171058654785	-25.30575180053711	18.005842208862305	22.13418197631836	27.324134826660156	-10.94656753540039	-8.19295883178711	-16.295658111572266	-23.61857032775879	-4.2529449462890625	-2.1108388900756836	-7.389221668243408	2.733835220336914
8.82585620880127	-33.36948013305664	4.118397235870361	13.861714363098145	-16.958984375	32.690834045410156	28.245153427124023	6.512424468994141	-14.50185775756836	-23.0017032623291	-3.2804040908813477	-2.416900157928467	21.550626754760742	-36.599281311035156	-17.57181739807129	20.718421936035156
12.399425506591797	-25.875944137573242	6.7860612869262695	-15.200725555419922	3.419482707977295	-16.554880142211914	-17.451417922973633	7.550788879394531	18.38532829284668	5.412522792816162	26.56853485107422	-16.318883895874023	4.29572868347168	24.643075942993164	-5.893710136413574	-3.598832607269287
1.8654065132141113	-48.56319046020508	9.357394218444824	-9.935856819152832	20.514129638671875	-12.170697212219238	-35.354949951171875	11.258901596069336	7.067175388336182	10.621878623962402	37.610443115234375	-3.244387149810791	-14.121763229370117	35.43590545654297	16.292400360107422	-9.472236633300781
16.082509994506836	-48.98870849609375	5.511117458343506	-31.789051055908203	12.411646842956543	-8.589193344116211	-20.566089630126953	-0.760407567024231	12.071897506713867	21.447185516357422	25.78937339782715	20.824085235595703	-1.7766928672790527	2.40474271774292	1.2121305465698242	-3.6500022411346436
5.931884288787842	-26.81610107421875	-4.626596927642822	-18.782344818115234	10.582826614379883	0.8850114345550537	-16.51642608642578	8.183255195617676	6.590130805969238	16.717824935913086	27.524192810058594	-15.411622047424316	-6.847209453582764	18.371688842773438	8.20529842376709	-4.617408752441406
-17.188241958618164	-6.675394058227539	33.06172561645508	-3.1726882457733154	2.8218021392822266	-16.268402099609375	-20.38273048400879	23.47414779663086	-38.14910888671875	-8.272571563720703	14.777682304382324	-6.94182825088501	-11.859762191772461	39.993324279785156	12.108708381652832	12.187482833862305
26.71649932861328	-1.1412391662597656	16.644134521484375	-20.658061981201172	-17.34150505065918	-15.80040454864502	-15.823312759399414	-2.583352565765381	5.621541976928711	6.26203727722168	12.811233520507812	-16.863712310791016	-20.71223258972168	38.42237854003906	1.1888114213943481	11.533979415893555
8.417129516601562	-7.371637344360352	29.38871955871582	-12.394659042358398	-1.9321634769439697	-19.15880012512207	-16.90393829345703	7.885076522827148	3.003465175628662	1.2002241611480713	22.37517547607422	-34.668487548828125	-12.348404884338379	42.81376647949219	1.503395676612854	-3.7475991249084473
0.18766164779663086	7.183441162109375	-16.280752182006836	-23.040687561035156	-40.96302795410156	-45.09433364868164	29.233732223510742	-21.0030574798584	-28.162338256835938	58.9813232421875	3.1930887699127197	-3.9224483966827393	14.383095741271973	22.3649845123291	56.84490966796875	-8.300537109375
32.2989501953125	-29.404680252075195	5.096001625061035	-18.713228225708008	-4.306305885314941	3.554375171661377	-8.39236831665039	6.258578300476074	11.591615676879883	-0.9951705932617188	4.403180122375488	-3.945406436920166	-28.68364906311035	23.582120895385742	0.24944496154785156	18.521465301513672
14.062773704528809	-47.02442169189453	3.529493570327759	-9.667861938476562	-36.59236145019531	-39.687530517578125	1.5913853645324707	8.040562629699707	7.014732837677002	18.526737213134766	7.709420204162598	7.216618537902832	50.30903244018555	-13.439993858337402	-10.916253089904785	27.073848724365234
41.179161071777344	-28.07939910888672	-11.974235534667969	-24.535524368286133	-16.77027130126953	8.706242561340332	0.6821722984313965	-3.6349093914031982	27.95035171508789	-2.969968795776367	12.074384689331055	-12.794593811035156	2.3304550647735596	-0.633650541305542	-4.872237682342529	18.271146774291992
38.320045471191406	-9.799659729003906	12.800288200378418	-21.97081184387207	-21.572301864624023	10.353510856628418	-4.791810989379883	0.5858968496322632	14.262335777282715	-2.561528444290161	7.917362213134766	-32.47140884399414	-12.80151081085205	20.865381240844727	-5.459256172180176	10.584619522094727
27.153453826904297	-36.545589447021484	-21.59777069091797	-25.488426208496094	-19.068998336791992	-7.19453239440918	-8.382680892944336	-5.755610466003418	12.262185096740723	5.86948299407959	19.90144157409668	22.667438507080078	11.044221878051758	-7.799966335296631	0.5739616751670837	31.4300594329834
0.43196868896484375	27.606037139892578	-31.125871658325195	24.671478271484375	29.038000106811523	24.564001083374023	-29.724916458129883	7.756214141845703	-7.860158920288086	-23.16085433959961	-4.298128604888916	4.877057075500488	-12.127535820007324	-8.358622550964355	7.9509687423706055	6.98395299911499
-38.72625732421875	2.641072988510132	4.130490303039551	6.306613922119141	17.109886169433594	-29.42838478088379	-17.13752555847168	-3.092240810394287	-14.903105735778809	24.30304718017578	-8.975133895874023	10.542137145996094	-15.847341537475586	25.643898010253906	35.396278381347656	8.867018699645996
-18.043380737304688	3.900912046432495	13.333353042602539	8.3411865234375	24.63038444519043	-7.824874401092529	-28.695119857788086	8.084936141967773	-2.820216417312622	18.18462371826172	-4.394395351409912	-12.596813201904297	-20.8541202545166	6.122376918792725	23.19335174560547	5.574398040771484
-10.089710235595703	9.579556465148926	-15.576157569885254	30.015586853027344	34.06958770751953	27.762548446655273	-26.960758209228516	-3.9211978912353516	9.122841835021973	8.636666297912598	39.31336212158203	-20.738178253173828	-18.535614013671875	-14.708266258239746	18.422494888305664	-40.62845993041992
-12.032005310058594	19.710437774658203	-15.717601776123047	13.16305923461914	27.010709762573242	24.857637405395508	-29.433731079101562	11.52117919921875	-7.302135467529297	-16.75439453125	15.12687873840332	-25.10550308227539	-17.949047088623047	9.56668472290039	7.976259708404541	6.3869309425354
-22.897117614746094	41.81833267211914	-37.9631233215332	10.997076034545898	42.881771087646484	34.10605239868164	-2.301724910736084	33.14533615112305	-51.23867416381836	-35.82740783691406	2.236917734146118	-7.979415416717529	19.975643157958984	-23.035308837890625	-3.068739652633667	8.306417465209961
-5.341792106628418	37.49960708618164	-27.377084732055664	40.23313903808594	42.23779296875	25.32806396484375	-29.143861770629883	6.759159564971924	8.585918426513672	-19.748584747314453	1.6121482849121094	8.503965377807617	-13.290709495544434	-21.497413635253906	-12.702352523803711	-16.735267639160156
3.5720486640930176	29.413036346435547	-21.685306549072266	11.451656341552734	34.851959228515625	22.684955596923828	-21.78973388671875	23.084339141845703	-12.927299499511719	-27.858047485351562	-1.108041763305664	-14.486330032348633	-2.1849136352539062	-1.622941017150879	-7.885334491729736	4.927719593048096
12.176937103271484	11.885018348693848	-15.063789367675781	-6.647979736328125	24.18745231628418	40.09772491455078	9.353487014770508	12.330168724060059	-18.363157272338867	-31.030370712280273	-5.824469566345215	-14.95444393157959	-12.434601783752441	7.374385356903076	-8.796699523925781	8.2451171875
35.515323638916016	-14.89925479888916	-17.59918212890625	-23.34891700744629	0.6006039977073669	22.22450828552246	-14.176763534545898	-10.258164405822754	6.455945014953613	-9.703317642211914	9.332904815673828	-0.6777273416519165	-23.583301544189453	24.39602279663086	2.4619107246398926	27.077682495117188
0.8659071922302246	-2.0017223358154297	-16.14127540588379	12.176323890686035	36.953033447265625	29.325979232788086	-35.42501449584961	7.187535285949707	5.42099666595459	-25.050949096679688	12.66467571258545	-6.317506790161133	-20.91643524169922	17.47116470336914	-7.69150972366333	9.458096504211426
22.083110809326172	12.28036880493164	-12.91079330444336	-7.688813209533691	26.630340576171875	32.630470275878906	-8.72900676727295	17.384380340576172	9.410801887512207	-17.800426483154297	-9.487082481384277	-15.383930206298828	-27.78850746154785	4.7859697341918945	-2.3829846382141113	-4.090938568115234
-1.7880706787109375	19.056167602539062	-34.940025329589844	17.1796875	37.69140625	43.80198287963867	-24.708770751953125	6.401768684387207	-14.999740600585938	-29.344684600830078	20.762723922729492	-7.62802791595459	-9.298680305480957	-6.6461687088012695	-5.320376396179199	7.500644207000732
-2.5765528678894043	6.912988662719727	-48.272369384765625	-2.0477819442749023	31.967180252075195	34.64927673339844	-33.47894287109375	-0.5605636835098267	-21.7797908782959	-22.340532302856445	37.57588195800781	-2.9362409114837646	-2.189093589782715	8.785155296325684	12.026634216308594	17.09516143798828
9.348501205444336	12.15727424621582	-15.73145580291748	5.306765556335449	28.406082153320312	35.05868911743164	-15.284895896911621	7.7139153480529785	-4.822591781616211	-23.237377166748047	25.223308563232422	-38.6855583190918	-20.371891021728516	11.330102920532227	-2.4242920875549316	8.26504135131836
-11.432647705078125	18.338655471801758	-15.03357219696045	-0.3828359842300415	-30.180479049682617	-16.75836753845215	3.558717727661133	-20.854766845703125	-31.42491340637207	22.933034896850586	3.853294849395752	8.005253791809082	1.385135293006897	37.867637634277344	50.824832916259766	-10.4825439453125
-10.163723945617676	-4.997483253479004	-1.6315820217132568	-8.982662200927734	17.679004669189453	-0.13971686363220215	-26.119474411010742	14.887419700622559	-14.80810546875	3.981375217437744	4.173885822296143	-16.093761444091797	-14.028117179870605	21.265010833740234	19.28817367553711	21.85222625732422
-41.789058685302734	25.774452209472656	-3.774871587753296	49.425045013427734	37.936195373535156	14.60330581665039	-40.4338493347168	4.154240608215332	5.78341817855835	7.831439018249512	5.493113994598389	-4.021418571472168	-26.336612701416016	-16.368572235107422	28.480497360229492	-27.916606903076172
8.86602783203125	21.157197952270508	-26.294214248657227	-2.989757537841797	47.8267707824707	42.784202575683594	13.762041091918945	25.578344345092773	-8.298440933227539	-33.18757629394531	0.7916024327278137	-21.226865768432617	-29.505474090576172	3.0530757904052734	-15.384138107299805	-0.5634000301361084
-14.297233581542969	22.05387306213379	-29.69297218322754	33.02699279785156	45.57374572753906	37.62029266357422	-40.17485427856445	12.901313781738281	-10.284170150756836	-23.98701286315918	24.89779281616211	-17.220746994018555	-5.499489784240723	-9.999252319335938	-0.7488970756530762	-5.613053798675537
51.74555969238281	-28.948833465576172	-2.2226834297180176	-41.08284378051758	-17.392135620117188	-18.6397762298584	-14.196795463562012	-4.492623329162598	16.897939682006836	13.1934175491333	15.764201164245605	12.311441421508789	-3.7373881340026855	15.47485637664795	-7.167370796203613	18.5430850982666
-13.525691032409668	-17.924671173095703	2.3783674240112305	2.66617488861084	4.412583827972412	30.591400146484375	23.54545783996582	21.90964698791504	-43.081912994384766	-25.715721130371094	18.143009185791016	-14.555301666259766	11.242843627929688	-15.795890808105469	-0.636141300201416	14.653419494628906
7.9456377029418945	-41.623321533203125	5.727926731109619	-11.127569198608398	-22.361618041992188	-15.729955673217773	8.614349365234375	15.503813743591309	-20.18769645690918	4.056023597717285	2.6217708587646484	1.663130760192871	32.740501403808594	-5.064667701721191	-18.495128631591797	42.690574645996094
-10.345024108886719	-10.96081829071045	28.027936935424805	29.826885223388672	-32.72816467285156	14.221184730529785	18.607608795166016	-1.2603422403335571	-19.001873016357422	-13.65732192993164	-5.699268341064453	-3.7443466186523438	31.71200942993164	-20.933483123779297	-12.94628620147705	1.5724201202392578
-4.36202335357666	29.87813949584961	-23.117115020751953	30.329376220703125	37.53224563598633	25.338998794555664	-37.271671295166016	12.901549339294434	3.961397171020508	-18.576217651367188	7.946033477783203	-13.721435546875	-16.316009521484375	-7.486087322235107	-4.995757579803467	-2.4526476860046387
12.463689804077148	-17.025869369506836	7.345635414123535	-10.779308319091797	-9.039016723632812	-2.0758841037750244	-17.992156982421875	13.679349899291992	-24.371265411376953	-5.168598175048828	24.013843536376953	-19.840505599975586	-1.3565356731414795	23.71114158630371	8.665163040161133	22.6441650390625
3.12058162689209	46.201847076416016	-13.862932205200195	22.315147399902344	38.40247344970703	24.220905303955078	-26.596073150634766	13.430356979370117	-6.918618202209473	-21.478172302246094	-20.555309295654297	7.045962333679199	-15.549714088439941	-15.52084732055664	4.788411617279053	-1.146745204925537
5.495417594909668	13.704228401184082	-11.07893180847168	35.60791778564453	31.551557540893555	16.700786590576172	-40.5321159362793	-0.9168035984039307	12.351985931396484	2.6666622161865234	22.20145034790039	0.13570094108581543	-23.079713821411133	-5.614765167236328	0.2879352569580078	-29.81729507446289
3.1271791458129883	-23.929277420043945	-13.451518058776855	-33.40950393676758	-29.537792205810547	-21.06301498413086	4.25927209854126	-4.02532434463501	-30.598678588867188	26.63628387451172	10.938373565673828	18.493797302246094	27.880098342895508	21.005455017089844	27.728126525878906	10.470785140991211
-28.83327865600586	-11.392492294311523	7.960755825042725	6.940414905548096	22.532428741455078	-17.74036407470703	-19.126955032348633	17.1962833404541	-19.382457733154297	6.904853820800781	-3.5390565395355225	1.7034097909927368	-20.839330673217773	24.383827209472656	11.146135330200195	23.76837730407715
3.515592098236084	1.1357736587524414	17.118732452392578	-7.5385637283325195	-1.9817492961883545	-17.43305778503418	-13.935904502868652	6.620311260223389	-1.0492358207702637	11.723895072937012	8.935685157775879	-26.03898811340332	-24.227373123168945	28.078327178955078	13.172120094299316	8.457985877990723
37.458980560302734	-14.09437370300293	-5.3808698654174805	-30.29972267150879	6.356908798217773	11.178162574768066	-13.760127067565918	-3.8178582191467285	15.212716102600098	6.2145562171936035	-1.1069748401641846	7.244381904602051	-39.73088455200195	25.12251091003418	7.746784210205078	11.089264869689941
0.6959795951843262	0.7516606450080872	23.010671615600586	-20.66389274597168	4.787467002868652	14.327625274658203	13.312641143798828	24.05727195739746	-14.426104545593262	-10.43433952331543	-5.713159084320068	-33.83824157714844	-25.126718521118164	32.42836380004883	8.489385604858398	-0.43010616302490234
-19.950023651123047	-11.08363151550293	-33.029319763183594	7.345486164093018	-23.940107345581055	-38.854854583740234	29.023542404174805	-40.684043884277344	-8.72254467010498	60.42158508300781	16.333450317382812	-19.755849838256836	14.654946327209473	-7.356231212615967	76.14058685302734	3.152066230773926
-10.809142112731934	7.006479263305664	31.84706687927246	-0.1839146614074707	10.150386810302734	-16.14567756652832	-27.844135284423828	12.712099075317383	7.454916000366211	-4.7149858474731445	13.068438529968262	-38.00407409667969	-6.575524806976318	33.07438278198242	3.8319523334503174	-9.901154518127441
4.6550984382629395	-22.73175811767578	30.6289119720459	-9.684615135192871	-18.354324340820312	3.6669559478759766	4.602109909057617	23.000057220458984	-25.498563766479492	-2.8871965408325195	6.7446980476379395	-33.185482025146484	-3.1495728492736816	21.196260452270508	-0.7031680345535278	15.569962501525879
5.950077533721924	-13.362958908081055	18.213253021240234	-12.202418327331543	23.581371307373047	6.399940013885498	-30.309032440185547	9.332025527954102	18.61273765563965	16.659809112548828	-0.19159674644470215	-12.877055168151855	-37.257652282714844	15.526649475097656	10.202604293823242	-0.20588922500610352
24.089933395385742	5.804807186126709	33.252357482910156	-30.686426162719727	-5.386032581329346	-13.306793212890625	-12.418754577636719	8.59715461730957	25.438213348388672	6.785491943359375	5.720461368560791	-42.41999435424805	-11.527227401733398	31.509119033813477	-1.9471901655197144	-17.19986343383789
6.922308921813965	3.147392749786377	31.086429595947266	-6.200546741485596	-32.78559875488281	-23.075084686279297	-11.238523483276367	9.543292999267578	-33.71534729003906	6.159208297729492	6.245508193969727	-16.869396209716797	-5.444886207580566	39.69691848754883	10.021685600280762	18.59838104248047
44.264854431152344	-7.836940765380859	-2.058497428894043	-32.5175666809082	-11.764949798583984	13.226624488830566	-2.422659397125244	-3.0663928985595703	13.326086044311523	-5.094454288482666	8.241595268249512	-13.684194564819336	-31.227710723876953	36.81454849243164	-0.2809656858444214	10.455317497253418
-4.7211809158325195	14.045656204223633	47.06100845336914	-15.459321022033691	3.3504281044006348	-9.14945125579834	-16.33916473388672	20.839588165283203	19.444107055664062	-2.6690409183502197	-9.127156257629395	-39.16593551635742	-19.990781784057617	39.86056900024414	3.5979366302490234	-21.264944076538086
22.115785598754883	23.98984718322754	22.110721588134766	-16.2237548828125	17.73394203186035	-8.255462646484375	-22.05082130432129	-4.114685535430908	44.7461051940918	27.804012298583984	4.480355262756348	-32.688907623291016	-34.1756706237793	25.358810424804688	-2.479979991912842	-49.80445861816406
34.954158782958984	-15.456157684326172	3.0137381553649902	-27.33135223388672	-25.322654724121094	-38.71957778930664	5.850769996643066	0.06853842735290527	21.355134963989258	28.286745071411133	6.320833683013916	-4.732951641082764	30.198055267333984	-9.467430114746094	-16.89401626586914	1.8892946243286133
-4.152868747711182	-14.614055633544922	-34.06562042236328	7.0210723876953125	-28.985427856445312	-11.952659606933594	6.925793170928955	-46.99705123901367	-8.932939529418945	50.44686508178711	37.79270553588867	-12.549409866333008	11.872626304626465	8.036179542541504	81.13818359375	-22.666339874267578
17.426605224609375	-40.7089958190918	-13.420243263244629	-43.06464767456055	-15.504924774169922	-13.288758277893066	5.322730541229248	-1.7318451404571533	-15.77127742767334	32.08481979370117	21.914670944213867	16.801136016845703	17.76492691040039	10.715301513671875	22.7978515625	0.07941645383834839
52.56117630004883	-23.91697120666504	-18.111499786376953	-23.604219436645508	-13.214559555053711	9.399955749511719	-3.309568405151367	-10.726751327514648	24.527135848999023	-2.471663236618042	6.364856243133545	5.761295795440674	-6.147480487823486	-7.581559181213379	-9.843131065368652	25.32232666015625
1.4251092672348022	-60.224544525146484	4.552586078643799	-27.14128303527832	23.635587692260742	-2.284325122833252	-24.199703216552734	18.764507293701172	-5.329203128814697	2.5114190578460693	15.71094799041748	21.788570404052734	-4.289828300476074	23.785419464111328	-3.8464136123657227	10.77731704711914
15.331424713134766	-30.62857437133789	-3.680544137954712	35.199440002441406	-37.73783874511719	11.715431213378906	27.328330993652344	-10.182123184204102	10.00324535369873	-11.815963745117188	-15.883705139160156	7.506801605224609	34.244178771972656	-47.17417526245117	-21.957805633544922	21.533939361572266
19.86196517944336	-35.61656188964844	-19.40924072265625	26.29035186767578	-39.889251708984375	-7.14494514465332	15.111750602722168	1.3142139911651611	1.521662950515747	-3.519956588745117	0.5881671905517578	3.880438804626465	52.16194152832031	-43.070552825927734	-15.630701065063477	26.532405853271484
-0.14461898803710938	-30.42552947998047	6.398420333862305	46.86505126953125	-34.29925537109375	-0.9130997657775879	25.483009338378906	-7.019026279449463	9.203425407409668	-13.813589096069336	-7.730642318725586	4.970637798309326	41.085357666015625	-50.579185485839844	-21.743974685668945	11.84113597869873
50.467796325683594	-29.935455322265625	-6.485069274902344	-28.907726287841797	-5.034450531005859	5.408812522888184	22.390295028686523	-0.719964861869812	72.20354461669922	5.323577880859375	-5.203890323638916	-13.63801383972168	10.928594589233398	-37.546573638916016	-19.630538940429688	-19.24849510192871
-20.194543838500977	-7.4836955070495605	11.985467910766602	45.423065185546875	-28.476972579956055	9.974977493286133	42.832645416259766	-5.009649276733398	25.66659164428711	-22.71671485900879	-14.833578109741211	-10.86136531829834	40.41856002807617	-58.75401306152344	-25.358911514282227	-4.603558540344238
-2.704922676086426	-11.015883445739746	-14.092782974243164	44.884674072265625	-17.779285430908203	18.521472930908203	29.13494300842285	-13.057500839233398	23.028034210205078	-27.134008407592773	-6.129992485046387	-3.9753074645996094	37.77489471435547	-66.72869110107422	-14.918954849243164	8.036565780639648
13.633197784423828	-28.536611557006836	-7.0317912101745605	37.44245910644531	-32.67584228515625	-0.02860879898071289	16.092313766479492	-7.216884136199951	21.323047637939453	-11.486623764038086	1.5363616943359375	-5.539892673492432	43.24348831176758	-48.03749465942383	-21.911575317382812	13.120088577270508
9.71647834777832	0.8024227619171143	58.89019012451172	-8.47970962524414	-49.304420471191406	-19.193002700805664	7.145039081573486	12.575316429138184	-23.17218780517578	4.534702777862549	-3.6147379875183105	-41.40065002441406	5.087846279144287	40.00883483886719	3.1783671379089355	6.994787216186523
-10.581073760986328	-35.346527099609375	-2.5459184646606445	-6.031261444091797	-17.912887573242188	-17.113189697265625	-10.903766632080078	-6.553117275238037	-11.619037628173828	20.859207153320312	32.51176834106445	4.973154067993164	10.512327194213867	34.0129508972168	42.81439971923828	-12.456048965454102
6.475210189819336	-27.517324447631836	-2.3798162937164307	-11.921647071838379	-1.6866880655288696	12.028938293457031	-17.122304916381836	13.68382740020752	-30.407428741455078	-8.400089263916016	17.096540451049805	-0.20813441276550293	-11.846517562866211	22.110567092895508	11.185819625854492	30.946125030517578
-11.241670608520508	-23.824851989746094	29.4832706451416	43.03837203979492	-35.67325973510742	8.718107223510742	14.437596321105957	9.9403076171875	-21.355510711669922	-23.113920211791992	-16.305015563964844	10.900510787963867	31.32788848876953	-24.89664077758789	-27.274988174438477	15.747993469238281
15.618489265441895	-18.184467315673828	12.310044288635254	-15.567781448364258	-12.86880111694336	36.697139739990234	12.724084854125977	4.588328838348389	-18.769428253173828	-22.307727813720703	-1.484606146812439	-3.190220832824707	-18.626171112060547	33.98180389404297	-2.336571216583252	6.059845924377441
-11.855615615844727	-33.073463439941406	35.47996139526367	8.925711631774902	-30.957927703857422	7.8513970375061035	16.457263946533203	22.864482879638672	-34.2308235168457	-14.292537689208984	-9.674432754516602	6.202570915222168	16.006187438964844	-2.6747360229492188	-14.339851379394531	21.531696319580078
-14.933650970458984	-21.178543090820312	31.331722259521484	20.07649040222168	-22.873321533203125	3.892383575439453	6.076355457305908	15.798722267150879	-42.97237777709961	-11.982330322265625	8.52859115600586	-1.1276116371154785	24.005985260009766	-2.5034351348876953	-7.020150184631348	5.054813385009766
-5.354066848754883	-20.727584838867188	19.37628746032715	-6.709873199462891	-7.291734218597412	24.822914123535156	3.279850482940674	22.204835891723633	-44.27831268310547	-18.436649322509766	14.42963981628418	-19.12872886657715	7.670666694641113	12.950214385986328	0.24530673027038574	15.677870750427246
11.322345733642578	11.11962604522705	16.655731201171875	-24.391389846801758	-4.166900634765625	3.766705274581909	-4.1995038986206055	16.540271759033203	-20.43414878845215	-9.444801330566406	25.254398345947266	-42.59905242919922	-27.51020622253418	39.290550231933594	13.14529800415039	7.008969306945801
-13.572633743286133	-18.182872772216797	1.8940961360931396	11.682122230529785	22.549589157104492	9.180313110351562	-40.90828323364258	-2.9707024097442627	1.7849035263061523	-0.300015926361084	27.211362838745117	-0.3906259536743164	-21.633710861206055	19.896846771240234	32.15802764892578	-10.168732643127441
-17.03446388244629	-17.416973114013672	24.930923461914062	22.776660919189453	-18.60485076904297	15.86538314819336	29.52519989013672	8.58041763305664	-3.7080583572387695	-21.09196662902832	-6.191272735595703	-12.328130722045898	18.40158462524414	-27.893924713134766	-9.446958541870117	-0.1606903076171875
-10.584219932556152	-21.23121452331543	28.379892349243164	-5.370979309082031	-12.408076286315918	-22.327062606811523	-10.402682304382324	20.278196334838867	-29.294841766357422	-1.8636932373046875	17.300777435302734	-7.410234451293945	-0.024781465530395508	27.0317325592041	4.745213031768799	16.836538314819336
-12.866137504577637	-63.50484085083008	5.137375831604004	-27.06481170654297	0.5970766544342041	-5.657735824584961	-9.016778945922852	14.650196075439453	-21.363948822021484	10.912446022033691	23.746688842773438	19.414257049560547	15.03026008605957	19.602096557617188	11.21600341796875	10.862504005432129
48.21635437011719	-22.630590438842773	-9.719606399536133	-15.491182327270508	-7.45847225189209	20.734107971191406	14.397366523742676	-16.343814849853516	55.440006256103516	4.590885639190674	1.3773698806762695	-8.471758842468262	-4.724014759063721	-20.577573776245117	-12.271087646484375	-20.223876953125
25.926572799682617	-4.1476216316223145	-10.650619506835938	-9.947853088378906	11.561407089233398	21.542734146118164	-23.71466827392578	-7.372774124145508	-13.38098430633545	-16.047468185424805	23.632503509521484	-15.3984375	-18.62176513671875	30.253822326660156	2.8175268173217773	16.22929573059082
-29.543731689453125	8.949113845825195	4.883134365081787	-9.181846618652344	-1.8879497051239014	-29.712053298950195	0.4553244113922119	-18.066146850585938	-16.468299865722656	40.21543502807617	13.099504470825195	4.060381889343262	-17.932811737060547	33.87107467651367	53.593082427978516	-21.806968688964844
-34.68901443481445	-1.8917012214660645	15.591767311096191	-0.022242307662963867	16.404565811157227	-33.48963165283203	-20.987489700317383	15.0560884475708	-16.83190155029297	23.762203216552734	-12.973308563232422	7.900389194488525	-18.10536766052246	21.384559631347656	25.827720642089844	18.733692169189453
-27.302467346191406	10.928832054138184	17.954402923583984	-2.322899103164673	0.4115011692047119	-37.320621490478516	-21.398975372314453	10.487261772155762	-24.962547302246094	19.391334533691406	-5.621635437011719	-3.288623809814453	-12.0453462600708	28.70337677001953	27.9924373626709	23.343456268310547
-23.983470916748047	-3.39902925491333	26.973173141479492	7.698700904846191	-4.813514232635498	-23.196014404296875	-16.412939071655273	17.754789352416992	-39.017852783203125	-0.25896406173706055	5.031030654907227	-7.8094964027404785	-7.294472694396973	23.557405471801758	21.487743377685547	26.79814910888672
-22.241497039794922	13.892333984375	13.046075820922852	27.655521392822266	33.42609405517578	-13.944242477416992	-15.930252075195312	-1.6697026491165161	2.53218674659729	39.376346588134766	-12.369972229003906	44.952388763427734	-45.60321807861328	-17.64341163635254	27.74972915649414	-45.3145637512207
-26.21267318725586	22.51174545288086	14.759833335876465	23.56179428100586	24.089801788330078	-23.187891006469727	-26.370189666748047	8.741551399230957	8.528544425964355	20.283029556274414	0.23636329174041748	-13.16809368133545	-17.51078224182129	1.3880369663238525	10.831319808959961	-16.580047607421875
-26.16310691833496	15.106632232666016	24.450895309448242	-7.034609317779541	5.787473678588867	-27.484130859375	-24.984622955322266	3.2203075885772705	-8.107198715209961	25.111835479736328	-2.691293478012085	-4.73681116104126	-18.9833984375	29.390396118164062	28.1370906829834	-0.685377836227417
-34.358158111572266	-10.425968170166016	8.857683181762695	2.2095232009887695	28.302820205688477	-19.925363540649414	-26.46859359741211	5.025590419769287	-12.833674430847168	19.326570510864258	-11.412775993347168	20.69783592224121	-22.735490798950195	18.963359832763672	26.729076385498047	12.12442398071289
2.1334290504455566	-37.00439453125	-2.688356876373291	-24.58745765686035	22.661134719848633	1.4787003993988037	-27.82124900817871	2.8615989685058594	-1.491851568222046	19.39613151550293	38.29904556274414	3.136632204055786	-10.225639343261719	18.812450408935547	18.934497833251953	-13.936038970947266
7.968178749084473	8.871049880981445	25.59950065612793	-2.630582332611084	14.513643264770508	-6.637693881988525	-31.510902404785156	-1.5987833738327026	31.03359603881836	5.696389198303223	4.446773529052734	-31.084789276123047	-35.262168884277344	41.38970947265625	-0.5811338424682617	-15.9427490234375
-5.768414497375488	3.6829419136047363	37.63784408569336	-13.056239128112793	10.407291412353516	3.5469212532043457	-10.2741117477417	22.86194610595703	-11.030258178710938	-20.417699813842773	7.629918575286865	-34.746910095214844	-11.874900817871094	39.68744659423828	-2.583986282348633	-6.783348560333252
-32.6082763671875	-34.182579040527344	9.124618530273438	11.01177978515625	41.70454025268555	17.006603240966797	-33.6964225769043	27.777936935424805	9.006122589111328	-7.52475643157959	52.74228286743164	-23.18492317199707	-21.754638671875	12.626173973083496	17.27009391784668	-26.850038528442383
-36.37453842163086	13.557741165161133	2.887779474258423	8.889283180236816	11.093782424926758	-23.03877830505371	-15.434964179992676	-3.0665740966796875	-16.111099243164062	25.646324157714844	-2.6672370433807373	5.55586051940918	-21.99710464477539	28.678226470947266	42.785926818847656	-6.442326068878174
0.38060522079467773	2.615283966064453	6.702580451965332	-17.15979766845703	7.870142936706543	-20.43704605102539	-24.44571304321289	-7.929967880249023	9.004846572875977	32.36546325683594	20.554872512817383	-11.77368450164795	-18.054363250732422	29.228858947753906	21.04241180419922	-12.763402938842773
-11.930747985839844	0.46521782875061035	-28.960908889770508	27.4456729888916	-5.006479740142822	-2.710132598876953	14.196224212646484	-30.171173095703125	-2.8233823776245117	28.86354637145996	12.456109046936035	-7.264495849609375	-7.807848930358887	-3.4949779510498047	61.8426628112793	-32.201324462890625
31.364503860473633	-24.981016159057617	4.504118919372559	-26.419565200805664	-18.939132690429688	39.26701354980469	19.280054092407227	6.326058387756348	-14.751692771911621	-19.892066955566406	-0.8286600708961487	-8.437070846557617	-24.401142120361328	27.082460403442383	0.9499920606613159	21.685626983642578
13.54563045501709	-17.243515014648438	-3.668497085571289	-16.5704288482666	-7.545345783233643	-6.349002838134766	-30.08541488647461	1.3088802099227905	-18.87537384033203	-1.3530149459838867	17.835067749023438	14.979891777038574	-8.719141006469727	31.649072647094727	14.126214027404785	26.82781982421875
6.96722412109375	16.150142669677734	42.22276306152344	-20.62885093688965	7.358080863952637	-0.3641476631164551	-14.906238555908203	17.990272521972656	18.847829818725586	-7.324821949005127	4.8286871910095215	-54.841278076171875	-14.26938247680664	38.06991195678711	-5.233881950378418	-28.976882934570312
0.7182826995849609	6.414477348327637	13.703120231628418	-21.11676788330078	-7.235084533691406	-34.84235382080078	-7.963346481323242	-17.814334869384766	13.292939186096191	51.2308464050293	18.48431968688965	-0.6210064888000488	-1.569777488708496	21.934228897094727	21.394634246826172	-38.245689392089844
4.016297340393066	-64.01367950439453	5.540797710418701	-15.097909927368164	13.281021118164062	-20.523591995239258	-24.789323806762695	19.816492080688477	7.727440357208252	10.913745880126953	47.95664596557617	1.3208441734313965	2.306122303009033	27.95281219482422	15.539351463317871	-15.844782829284668
6.982452869415283	-39.024356842041016	-20.28131866455078	-23.077436447143555	35.397979736328125	17.640390396118164	-15.419861793518066	0.5205906629562378	6.696334362030029	8.13475513458252	35.595760345458984	0.29596877098083496	-1.5592350959777832	-4.3748860359191895	18.754192352294922	-17.310009002685547
23.909297943115234	-16.219629287719727	18.25497055053711	-33.743446350097656	-25.016918182373047	-29.84263038635254	7.992982387542725	9.360688209533691	1.5544337034225464	29.653568267822266	11.895272254943848	-21.888322830200195	7.269864082336426	20.34784507751465	-2.056601047515869	2.9091835021972656
24.838665008544922	7.669576168060303	-17.834697723388672	-3.6970653533935547	24.240345001220703	30.368635177612305	-13.454462051391602	-3.4676780700683594	21.012210845947266	-15.3961181640625	7.196933269500732	-11.829477310180664	-41.82381820678711	16.081741333007812	-1.9716029167175293	3.231666088104248
10.102296829223633	-29.587743759155273	-20.950227737426758	1.0248709917068481	15.357295036315918	14.198265075683594	-16.70651626586914	-15.116543769836426	13.170696258544922	15.12458324432373	29.339107513427734	25.77361488342285	-15.690099716186523	1.5537601709365845	18.6689453125	-29.292694091796875
19.638790130615234	23.15636444091797	-37.891319274902344	-1.6692848205566406	37.47750473022461	37.2620964050293	0.11530160903930664	7.891546249389648	0.9111132621765137	-28.53167152404785	-13.133039474487305	14.008810043334961	-21.76885223388672	-4.445773124694824	-10.648197174072266	2.5846362113952637
13.35802173614502	7.65144681930542	-12.924400329589844	-11.89704704284668	31.523963928222656	47.80461120605469	23.899869918823242	12.921895980834961	2.547295093536377	-38.952308654785156	-1.57285737991333	-22.543750762939453	-23.719226837158203	7.372502326965332	-15.964900016784668	-2.481011152267456
11.799539566040039	21.739398956298828	-26.387380599975586	-5.966987609863281	43.813533782958984	41.50096130371094	7.639507293701172	7.493968963623047	-2.1235270500183105	-30.22007179260254	-8.243948936462402	-7.161076068878174	-20.978635787963867	10.916095733642578	-11.102543830871582	-6.534841537475586
2.555802345275879	-21.665634155273438	10.213019371032715	25.807891845703125	-11.978647232055664	7.036262035369873	18.95598602294922	5.237133502960205	13.484764099121094	-6.455909729003906	-14.85455322265625	-5.687611103057861	18.765161514282227	-40.157432556152344	-21.900218963623047	6.1141157150268555
-19.632585525512695	37.47955322265625	-41.136810302734375	-2.5415496826171875	49.049686431884766	44.3349494934082	20.95030975341797	25.54764175415039	-39.381141662597656	-47.30620193481445	2.3905093669891357	3.6066792011260986	17.574602127075195	-31.156333923339844	-12.31559944152832	10.303703308105469
-10.765491485595703	-18.690994262695312	46.27408218383789	18.102619171142578	-27.462392807006836	7.766952037811279	16.19747543334961	15.264993667602539	-40.75255584716797	-22.624608993530273	-6.039711952209473	0.7734298706054688	17.508535385131836	2.7614259719848633	-13.946571350097656	4.998910903930664
9.870837211608887	38.961341857910156	-43.712398529052734	-1.755807876586914	42.38398742675781	43.905052185058594	16.135555267333984	11.745777130126953	-10.75800895690918	-40.02166748046875	-14.430235862731934	19.098655700683594	2.91501522064209	-23.07335662841797	-19.435163497924805	-8.659286499023438
-2.1182937622070312	60.22797775268555	-22.085350036621094	7.40802001953125	40.182804107666016	17.907350540161133	14.046810150146484	17.220745086669922	3.0908260345458984	-23.50657081604004	-55.08503341674805	30.84372329711914	-13.120015144348145	-24.91240119934082	-10.636741638183594	-10.800830841064453
3.60552978515625	-15.134405136108398	0.30818772315979004	0.8981847763061523	-2.8257503509521484	39.50822830200195	39.49861526489258	9.328471183776855	-18.506044387817383	-36.76469421386719	-1.185755729675293	-8.237215042114258	15.953662872314453	-33.531517028808594	-13.831878662109375	15.679003715515137
42.234230041503906	-11.275545120239258	-10.884395599365234	-25.45779800415039	-25.873672485351562	6.197937965393066	8.742545127868652	-7.57822847366333	8.328563690185547	3.5768496990203857	17.829360961914062	-20.952791213989258	-4.206809043884277	10.286733627319336	-1.773760199546814	17.981830596923828
-11.286765098571777	-12.244787216186523	-0.8434250950813293	25.42565155029297	-7.768725872039795	26.94165802001953	44.65034484863281	-4.6132402420043945	10.172639846801758	-41.48927307128906	-4.499464988708496	-6.360880374908447	37.30897521972656	-66.78713989257812	-18.54741668701172	11.572259902954102
15.837221145629883	-15.444927215576172	-21.437719345092773	8.598136901855469	-19.851009368896484	21.175376892089844	32.48896408081055	-1.2692341804504395	5.58635139465332	-25.622589111328125	7.988813400268555	-3.4857616424560547	40.43708419799805	-58.411895751953125	-12.072011947631836	16.65703582763672
-9.77523136138916	12.598440170288086	-7.593633651733398	-13.83708667755127	9.357767105102539	34.92641067504883	8.37441635131836	29.393192291259766	-48.062889099121094	-29.839754104614258	15.144332885742188	-20.067977905273438	9.908461570739746	0.7822561264038086	-4.152797222137451	17.68807601928711
-21.52349853515625	47.61885452270508	-30.479507446289062	-10.167474746704102	40.44990539550781	36.826663970947266	28.157583236694336	32.35993957519531	-59.728355407714844	-40.376731872558594	-0.7440323829650879	-10.551416397094727	7.322757720947266	-22.914527893066406	2.6854960918426514	11.6368408203125
35.90605163574219	-23.614900588989258	-14.492010116577148	-20.72805404663086	2.0953991413116455	15.717382431030273	8.516681671142578	5.34915018081665	39.78889465332031	-12.375648498535156	13.419681549072266	-33.044395446777344	-4.434836387634277	-6.576510429382324	-8.271092414855957	9.755997657775879
24.684295654296875	-4.450689315795898	-17.937807083129883	-7.158361434936523	22.29187774658203	15.488614082336426	-36.67776107788086	4.891070365905762	11.418956756591797	-7.2081618309021	22.936878204345703	-19.083547592163086	-17.611743927001953	12.512604713439941	11.189769744873047	2.1746959686279297
19.738304138183594	-70.678955078125	16.507705688476562	-4.665414810180664	-40.8861083984375	-45.501197814941406	12.963406562805176	24.496793746948242	-6.265234470367432	12.202534675598145	27.00530433654785	-13.510547637939453	78.31341552734375	-19.584623336791992	-31.83266830444336	18.001890182495117
-16.70125961303711	-24.344711303710938	31.083927154541016	27.363201141357422	-24.750864028930664	9.107325553894043	20.423419952392578	11.746713638305664	-25.303909301757812	-19.784414291381836	-2.880077362060547	-4.7429399490356445	37.161102294921875	-26.123319625854492	-17.046035766601562	8.913141250610352
-32.915977478027344	-15.902498245239258	32.951568603515625	19.83429718017578	-8.614533424377441	16.487483978271484	22.397817611694336	23.932056427001953	-44.9792366027832	-31.337045669555664	-10.709205627441406	5.590904712677002	23.633432388305664	-15.865219116210938	-14.085905075073242	11.456141471862793
12.297399520874023	63.447723388671875	-60.982749938964844	1.9300575256347656	49.54171371459961	35.855350494384766	4.409504413604736	10.180279731750488	1.6388695240020752	-34.609703063964844	-16.952375411987305	40.62803649902344	9.861902236938477	-57.791542053222656	-18.257471084594727	-16.997882843017578
37.90764236450195	-13.290465354919434	-19.02111053466797	-25.065584182739258	18.42386245727539	42.61937713623047	13.68876838684082	4.097772121429443	16.059627532958984	-26.57660484313965	7.054686546325684	-25.166841506958008	-17.619213104248047	3.6873459815979004	-10.799229621887207	12.483783721923828
-2.7693123817443848	64.11343383789062	-38.671443939208984	11.983226776123047	37.23450469970703	16.75484848022461	3.822340965270996	9.019149780273438	-21.693016052246094	-22.33293914794922	-21.350759506225586	40.83738327026367	10.729416847229004	-44.21863555908203	-8.708338737487793	-10.81505012512207
-8.76560115814209	-14.63492488861084	15.609088897705078	52.837890625	-25.049564361572266	26.982975006103516	15.867073059082031	-1.0575249195098877	-5.648499488830566	-40.78758239746094	-16.99534797668457	11.415367126464844	36.49142837524414	-51.909912109375	-31.8070125579834	17.21251678466797
2.828017234802246	-5.9332709312438965	11.689939498901367	-28.35247230529785	6.213654041290283	34.25665283203125	36.91033935546875	33.49773025512695	-21.839643478393555	-25.287555694580078	-3.96842360496521	-32.423892974853516	-0.052976131439208984	-9.179834365844727	0.6267833709716797	7.58195686340332
-6.824703216552734	1.0384840965270996	9.121447563171387	39.9012565612793	-29.199790954589844	9.358420372009277	25.31144905090332	-15.540908813476562	12.941455841064453	-23.18607521057129	-12.306339263916016	2.131359100341797	38.2047119140625	-51.11376190185547	-12.843814849853516	-2.3903045654296875
-7.288204193115234	-22.480453491210938	22.000917434692383	5.469520092010498	-9.868928909301758	28.437271118164062	15.098974227905273	19.349905014038086	-40.93718719482422	-23.70589828491211	2.026200294494629	-6.343804836273193	22.102067947387695	-14.518616676330566	-13.874746322631836	10.910785675048828
14.8407564163208	30.529890060424805	-17.310232162475586	4.60233211517334	26.473901748657227	39.14327621459961	-0.3361959457397461	7.07300329208374	-4.295054912567139	-29.784805297851562	-31.28260612487793	13.319876670837402	-26.29998779296875	4.488386154174805	-10.103858947753906	3.355156660079956
30.854612350463867	-3.4897007942199707	-22.65619468688965	-16.399967193603516	10.82809066772461	29.38104820251465	-20.763370513916016	-2.234034299850464	2.7043356895446777	-15.286917686462402	16.44743537902832	-5.286420822143555	-25.386865615844727	16.511917114257812	8.326525688171387	17.460086822509766
22.098941802978516	-8.181103706359863	18.474658966064453	12.888891220092773	-23.94951820373535	-28.672752380371094	23.833242416381836	-6.271164894104004	73.70453643798828	17.196914672851562	-11.564123153686523	-31.981603622436523	37.33622741699219	-44.0366096496582	-29.218040466308594	-39.33125686645508
24.993818283081055	-19.61859893798828	10.82046127319336	-29.55544662475586	-5.876285552978516	-8.149615287780762	-16.387142181396484	4.138969898223877	27.912866592407227	5.002659320831299	14.061192512512207	-22.36277198791504	-7.752281188964844	27.070959091186523	-0.9063177108764648	2.635683059692383
-4.93544340133667	14.068641662597656	6.482929229736328	13.132241249084473	24.325183868408203	3.827052593231201	-36.227657318115234	8.063530921936035	17.89937973022461	-0.9009201526641846	-5.781411170959473	-12.991491317749023	-32.53105926513672	20.01839256286621	4.830983638763428	-0.6874426603317261
24.19005584716797	-18.947298049926758	-8.067227363586426	-16.559921264648438	6.745328426361084	14.866772651672363	-16.751495361328125	1.3983008861541748	7.727865695953369	-11.953042030334473	6.505810260772705	-2.3104865550994873	-17.67626953125	18.66644859313965	-2.1433422565460205	22.965843200683594
6.612041473388672	-60.193477630615234	11.778433799743652	-0.5338587760925293	-11.034051895141602	-5.933869361877441	10.735183715820312	25.990400314331055	-9.694454193115234	1.5614495277404785	5.685978889465332	-9.716090202331543	29.51528549194336	-16.066967010498047	-17.473495483398438	26.11624526977539
1.938328742980957	-4.159285545349121	-4.22685432434082	-14.773125648498535	15.870842933654785	37.65592575073242	12.650327682495117	32.877323150634766	-26.652931213378906	-19.060646057128906	-4.889969825744629	-19.937458038330078	-5.553443908691406	3.4788551330566406	-3.210192918777466	3.7868142127990723
11.683660507202148	-2.583876848220825	3.570704460144043	-16.90141487121582	3.8516552448272705	15.434033393859863	-9.472002029418945	-0.3271546959877014	-6.932175159454346	-12.234009742736816	1.4935286045074463	-19.195261001586914	-38.10870361328125	41.958526611328125	23.55934715270996	17.998262405395508
4.276836395263672	-15.73306655883789	5.510642051696777	-16.82772445678711	4.870264053344727	42.02499008178711	42.73904037475586	19.920339584350586	-15.804298400878906	-31.612276077270508	-9.483427047729492	-21.248231887817383	-3.334726333618164	-4.332101821899414	-7.835846900939941	8.532094955444336
25.780874252319336	-5.776930332183838	1.5813713073730469	-23.412893295288086	5.315509796142578	26.456201553344727	-6.963420391082764	-0.13228437304496765	10.902833938598633	-15.218232154846191	6.724329948425293	-12.902981758117676	-41.64975357055664	37.75576400756836	0.8173966407775879	8.503887176513672
4.670244216918945	-5.678135395050049	-6.426366806030273	-13.30477523803711	-48.9305419921875	-39.438621520996094	4.495373725891113	-12.090539932250977	-16.600555419921875	30.19920539855957	0.9481949806213379	16.249279022216797	34.692840576171875	17.430652618408203	22.780349731445312	6.559436798095703
-0.8151774406433105	-0.9742403030395508	-12.289094924926758	-11.523246765136719	-46.01870346069336	-44.375587463378906	14.540328025817871	-18.50870704650879	-23.760513305664062	39.4022216796875	-11.178147315979004	26.511333465576172	56.77566146850586	-9.164188385009766	21.83173942565918	5.325804710388184
1.229062557220459	-3.5389626026153564	17.657594680786133	-12.97610855102539	8.370855331420898	-11.082235336303711	-30.259017944335938	23.163576126098633	-10.103910446166992	-9.008519172668457	20.419382095336914	-32.395652770996094	-1.957831859588623	33.71112823486328	5.4354658126831055	6.237419605255127
-5.021428108215332	-38.144222259521484	-10.972585678100586	-29.837020874023438	18.71843147277832	9.090972900390625	-24.2047061920166	-2.0116891860961914	-12.424576759338379	9.00804615020752	20.247095108032227	26.204591751098633	3.005629062652588	19.92868423461914	20.701765060424805	-3.049072265625
15.457974433898926	15.999052047729492	-6.937460899353027	21.90807342529297	31.49332618713379	23.718765258789062	-19.82132339477539	2.2302730083465576	24.261083602905273	4.433479309082031	-16.8225040435791	29.37616729736328	-45.23737716674805	-16.56979751586914	-5.008633613586426	-30.359479904174805
-16.894433975219727	-16.722105026245117	43.64836883544922	26.920299530029297	-25.32088851928711	3.1557164192199707	8.671785354614258	19.04645538330078	-39.96407699584961	-15.435108184814453	-14.753935813903809	1.7332463264465332	25.52353858947754	-7.319636344909668	-22.716028213500977	9.652753829956055
-18.724075317382812	-12.237957000732422	37.75191879272461	6.415665626525879	-17.413959503173828	15.412050247192383	23.528230667114258	13.835705757141113	-38.355682373046875	-17.15807342529297	6.747415542602539	-11.20327091217041	18.534915924072266	-3.6744537353515625	-3.6833066940307617	-1.2636194229125977
8.233478546142578	7.998700141906738	6.975151538848877	20.889694213867188	31.848556518554688	1.303037166595459	-18.912809371948242	2.9651846885681152	25.59490966796875	24.43008041381836	1.7474730014801025	26.594379425048828	-21.039155960083008	-42.167057037353516	-5.575449466705322	-44.64201354980469
1.6878385543823242	-25.558500289916992	7.329625606536865	27.855587005615234	-26.565736770629883	14.611969947814941	16.639068603515625	-0.17718327045440674	1.3603363037109375	-13.424844741821289	-3.4501142501831055	-15.12258529663086	41.445335388183594	-39.64800262451172	-18.176374435424805	15.824694633483887
27.433116912841797	-17.04964828491211	2.4638752937316895	-13.84805965423584	25.1306095123291	-10.698012351989746	7.4214277267456055	-1.8445262908935547	53.096900939941406	39.18104553222656	5.715956687927246	30.719011306762695	-2.0827865600585938	-59.215003967285156	-5.479413032531738	-59.134498596191406
15.01858139038086	0.5703737139701843	0.4617471694946289	-13.188416481018066	1.6619952917099	10.901650428771973	-15.836283683776855	1.166394829750061	-10.407922744750977	-3.4628992080688477	23.385412216186523	-28.680313110351562	-23.68032455444336	29.112762451171875	14.719419479370117	14.955057144165039
19.181957244873047	-39.46234130859375	2.1877496242523193	-18.598079681396484	-34.01778030395508	-32.105342864990234	-3.908862590789795	7.382261753082275	9.081108093261719	16.723770141601562	18.466869354248047	-1.0205799341201782	46.523921966552734	-4.382912635803223	-9.531950950622559	14.074790954589844
20.30508041381836	24.98094940185547	-11.951196670532227	22.59577178955078	24.347444534301758	19.215354919433594	-21.783836364746094	1.1187498569488525	23.181415557861328	-0.09015531092882156	-18.25291633605957	24.35565757751465	-42.52901840209961	-17.833778381347656	-3.3430652618408203	-14.955398559570312
1.979090690612793	2.943572521209717	-21.972793579101562	-12.049399375915527	22.402362823486328	38.34872055053711	5.70191764831543	14.441242218017578	-40.08097457885742	-29.312854766845703	8.931421279907227	-3.133457660675049	-10.243661880493164	11.613018035888672	4.314489364624023	18.672395706176758
21.50971221923828	-20.91799545288086	9.23431396484375	-11.645265579223633	-21.649494171142578	15.773286819458008	10.188777923583984	11.582586288452148	-15.367198944091797	-5.480551719665527	14.57044792175293	-28.56468963623047	9.392436981201172	1.20440673828125	-3.9529342651367188	12.204946517944336
-11.20802116394043	5.484920501708984	52.58189392089844	-10.081121444702148	-12.136693000793457	-12.618001937866211	-4.237410545349121	20.7569522857666	-20.446292877197266	-12.499826431274414	5.818958759307861	-30.807300567626953	5.603687763214111	29.498294830322266	0.8942199945449829	-6.728115081787109
4.877765655517578	-30.774080276489258	26.27446937561035	4.442456245422363	-26.153852462768555	12.85427188873291	10.195547103881836	19.0102481842041	-48.321712493896484	-17.042926788330078	8.067974090576172	-2.9864773750305176	16.91997528076172	5.3877668380737305	-11.046122550964355	23.620492935180664
8.079577445983887	-31.374170303344727	16.385683059692383	9.977310180664062	-28.290945053100586	4.583380222320557	7.230225563049316	14.36572551727295	-37.1956901550293	-7.041095733642578	11.561637878417969	-5.215245723724365	21.833528518676758	-4.449502468109131	-9.723875045776367	18.522903442382812
-0.7157998085021973	-12.01059627532959	39.533992767333984	-7.901391983032227	-17.486215591430664	12.118977546691895	-0.1351006031036377	15.398737907409668	-17.893217086791992	-21.182146072387695	6.73380708694458	-26.341794967651367	6.180540561676025	25.308076858520508	-6.84093713760376	0.39115047454833984
2.997527599334717	-34.528926849365234	-29.701522827148438	-18.271026611328125	-11.701529502868652	17.165647506713867	-16.152860641479492	-29.30069923400879	4.612692356109619	22.9423828125	47.562435150146484	-7.189566612243652	29.702739715576172	4.289583683013916	54.316036224365234	-21.713762283325195
5.431899070739746	14.205181121826172	-6.453586578369141	-17.65121078491211	22.804655075073242	46.42708969116211	22.677139282226562	19.17328643798828	-30.05127716064453	-37.31129455566406	-15.226481437683105	-13.505998611450195	-18.595855712890625	17.87615203857422	-4.343338489532471	8.190370559692383
27.687923431396484	-2.941096305847168	-16.82958984375	-25.364307403564453	18.382247924804688	49.291717529296875	27.571182250976562	12.214983940124512	-0.7276983261108398	-36.121376037597656	-12.598466873168945	-12.968491554260254	-21.896934509277344	9.632604598999023	-10.310546875	11.469549179077148
-9.077619552612305	-1.3429501056671143	1.1082737445831299	-10.314963340759277	-0.9810511469841003	-23.25082778930664	-13.175621032714844	-13.474645614624023	-9.93155574798584	33.93972396850586	14.566529273986816	9.877943992614746	-13.868127822875977	32.77937698364258	37.85380172729492	-17.412033081054688
35.70726013183594	-33.27558898925781	0.8120479583740234	-16.4186954498291	-21.951704025268555	19.88349151611328	8.78298282623291	13.799248695373535	-13.220088958740234	-10.452632904052734	10.50328254699707	-22.95160484313965	8.064122200012207	-1.6375808715820312	-6.966996192932129	29.02402114868164
-5.744131088256836	-16.191781997680664	20.39845085144043	5.519979953765869	-17.95862579345703	17.756851196289062	13.477458000183105	16.01857566833496	-39.052024841308594	-9.419471740722656	1.1086974143981934	-10.184514999389648	10.011283874511719	-9.579239845275879	3.456265926361084	9.227129936218262
17.073928833007812	-18.627042770385742	21.790958404541016	-12.697998046875	-19.664583206176758	2.6517109870910645	-1.3086321353912354	10.057222366333008	-18.384071350097656	-4.795482158660889	19.63861846923828	-21.920015335083008	-4.664629936218262	24.911550521850586	2.481257438659668	5.802531719207764
0.23131275177001953	-33.61078643798828	10.797842979431152	9.744324684143066	-17.541473388671875	16.95981788635254	4.905032157897949	17.14290428161621	-42.71721267700195	-15.562335968017578	17.721742630004883	-0.7431478500366211	18.796287536621094	-5.1378607749938965	-6.009231090545654	19.61481475830078
7.132410049438477	36.09506607055664	-23.706653594970703	13.92611312866211	28.44602394104004	19.368194580078125	-4.484444618225098	8.765617370605469	21.089359283447266	-10.611909866333008	-25.197765350341797	19.09920883178711	-27.67989730834961	-20.681079864501953	-10.232494354248047	-11.06277847290039
22.432373046875	31.020431518554688	-28.792699813842773	10.852930068969727	29.738985061645508	33.9694938659668	-1.8788132667541504	5.126337051391602	10.340757369995117	-25.32070541381836	-26.357206344604492	22.376052856445312	-27.723697662353516	-11.322249412536621	-12.580121040344238	-4.77253532409668
10.730106353759766	12.584785461425781	2.665097236633301	18.903711318969727	31.77481460571289	9.755315780639648	-24.620447158813477	5.17974853515625	32.33727264404297	14.573403358459473	-7.955667972564697	8.588033676147461	-40.345237731933594	-10.605868339538574	-4.482672691345215	-34.29051971435547
-5.871354579925537	-5.45850133895874	-24.472518920898438	36.02415084838867	8.519182205200195	25.405134201049805	-14.774620056152344	-18.069856643676758	1.8568220138549805	7.8448662757873535	19.248489379882812	0.9212270975112915	-19.147733688354492	-0.9642150402069092	43.59395217895508	-35.87717056274414
30.665163040161133	26.618999481201172	15.596664428710938	-24.3851318359375	8.014461517333984	-35.9158821105957	-17.945817947387695	-23.01884651184082	25.439743041992188	45.06437683105469	11.330309867858887	-10.029691696166992	-30.15259552001953	29.95322036743164	13.073671340942383	-32.37420654296875
-8.338029861450195	-20.261327743530273	-52.558536529541016	-4.137221813201904	-25.96501350402832	-23.041730880737305	21.294570922851562	-46.94054412841797	-13.023079872131348	55.755733489990234	25.04086685180664	-11.916516304016113	25.35860824584961	-1.7520673274993896	85.81050109863281	-1.9158241748809814
5.2985453605651855	-8.690056800842285	-3.0339179039001465	-21.24012565612793	17.172231674194336	42.67263412475586	39.203758239746094	24.568506240844727	-18.685962677001953	-34.13893127441406	-6.554172992706299	-13.552411079406738	-8.857705116271973	-5.091503143310547	-8.401984214782715	8.091748237609863
-1.5547351837158203	-33.82890701293945	-1.5348321199417114	-7.422659397125244	1.2815546989440918	-2.2120938301086426	-25.026601791381836	-9.85183334350586	7.167304515838623	7.9590020179748535	41.463356018066406	0.16635245084762573	-1.6250014305114746	21.747085571289062	31.065908432006836	-8.30276107788086
-7.240020751953125	-6.06959342956543	0.5021829009056091	-9.455862998962402	-10.768898010253906	-25.08616828918457	-17.364137649536133	-0.9022709131240845	-26.032211303710938	14.532233238220215	8.536107063293457	10.534333229064941	-6.352399826049805	31.091732025146484	27.79228973388672	22.456510543823242
-3.292654037475586	-16.273609161376953	-4.319456100463867	-8.11485481262207	4.854568004608154	-6.901915073394775	-32.956241607666016	-9.263359069824219	-13.61435604095459	9.090470314025879	10.230812072753906	9.37180233001709	-6.563027381896973	27.515344619750977	33.32016372680664	17.753631591796875
8.050604820251465	-35.8255615234375	-11.8184175491333	-16.09684944152832	-7.81528377532959	-10.684365272521973	-20.412973403930664	-11.14371395111084	4.321709156036377	13.23005485534668	25.921443939208984	17.51990509033203	1.6716570854187012	25.970691680908203	16.859600067138672	9.566441535949707
17.031702041625977	-28.988088607788086	12.835840225219727	12.023290634155273	-31.20895767211914	8.644274711608887	-1.1765716075897217	11.362274169921875	-19.39525604248047	-9.70846939086914	-1.155874252319336	-1.2267460823059082	18.40343475341797	-12.280314445495605	-15.747421264648438	30.102266311645508
9.834821701049805	-9.208406448364258	6.85912561416626	-15.725637435913086	16.98703384399414	-4.358884811401367	-26.577524185180664	2.591620445251465	8.280674934387207	10.643325805664062	13.955265045166016	-9.653582572937012	-31.279010772705078	30.25727653503418	8.37368392944336	2.2992806434631348
-18.928932189941406	-23.525760650634766	8.529476165771484	-10.338884353637695	14.963382720947266	-20.740772247314453	-18.31862449645996	18.59391975402832	-22.968416213989258	9.360634803771973	1.3805792331695557	2.6756043434143066	-13.04134464263916	26.464479446411133	17.33378791809082	30.294994354248047
-7.456768989562988	-29.294822692871094	19.660703659057617	28.854036331176758	-21.87217903137207	22.186433792114258	30.091094970703125	8.631585121154785	-18.518659591674805	-22.411270141601562	-14.123027801513672	-0.06966590881347656	22.549198150634766	-30.38129997253418	-17.072101593017578	11.808087348937988
-11.725686073303223	-11.612096786499023	51.01643753051758	0.14749765396118164	-12.692882537841797	11.948136329650879	21.877317428588867	20.818994522094727	-24.771995544433594	-26.30933952331543	-5.082361221313477	-18.89080238342285	-0.9929294586181641	21.11433219909668	-5.904662132263184	-7.454107284545898
17.635026931762695	-42.7819938659668	-7.61508846282959	-28.20742416381836	5.137549877166748	1.4360684156417847	-5.586151123046875	12.373922348022461	-0.3180251121520996	5.337316513061523	22.43521499633789	-6.743934631347656	-10.924505233764648	15.818347930908203	0.5289392471313477	20.840513229370117
7.71342658996582	-2.270768165588379	0.957700252532959	-9.72128963470459	14.935468673706055	33.87325668334961	-13.676204681396484	10.020427703857422	-11.664846420288086	-27.503089904785156	3.6863372325897217	-14.39022159576416	-21.98981475830078	31.42116355895996	-2.279513120651245	15.568588256835938
3.8369784355163574	-24.92025375366211	13.096007347106934	0.24807405471801758	-29.868820190429688	-21.441362380981445	-7.786243915557861	16.73752784729004	-31.16548728942871	2.3620381355285645	11.94107723236084	-2.2476038932800293	28.934425354003906	7.9083662033081055	-0.9366236329078674	26.836397171020508
-7.350468635559082	-16.272098541259766	3.9155313968658447	62.87016296386719	-28.092510223388672	16.430843353271484	16.68158531188965	-7.936047554016113	3.216235399246216	-32.631385803222656	-17.54543113708496	13.461465835571289	47.7052001953125	-60.164955139160156	-34.24503707885742	19.902973175048828
0.018181800842285156	-14.63913631439209	37.02403259277344	15.105287551879883	-37.63064193725586	7.5017595291137695	11.721478462219238	11.335707664489746	-37.60589599609375	-8.14249038696289	-10.249739646911621	-8.6268892288208	23.718952178955078	-0.2044668197631836	-14.47786808013916	11.846208572387695
-30.38440704345703	-5.732678413391113	32.93289566040039	32.090087890625	-27.113346099853516	18.595417022705078	14.82105827331543	11.7808837890625	-18.434852600097656	-13.786287307739258	-17.09136199951172	-6.251478672027588	23.753448486328125	-25.797449111938477	-3.391411781311035	-1.7959785461425781
-16.545072555541992	2.2610745429992676	54.30595016479492	19.77239990234375	-33.42057418823242	-18.122663497924805	7.7295122146606445	5.916065692901611	-36.290836334228516	-7.632094383239746	-6.489713668823242	-6.885470867156982	20.60674285888672	18.02325439453125	-5.537007808685303	-9.73829460144043
-2.732851505279541	20.254070281982422	-34.147457122802734	-10.066733360290527	-36.29916000366211	7.696646690368652	6.725131511688232	-29.33729362487793	-40.13859939575195	21.466796875	0.7094411849975586	9.864055633544922	13.026735305786133	38.4157600402832	73.51834106445312	-28.18329620361328
-2.64058256149292	-16.356536865234375	26.413585662841797	-8.423526763916016	-5.344791889190674	24.025859832763672	9.33297348022461	20.64722442626953	-43.347347259521484	-23.353660583496094	7.357421875	-13.884336471557617	5.21976375579834	15.46683406829834	-1.098273754119873	5.745466232299805
-2.507627010345459	-24.387367248535156	40.79753112792969	-1.6806001663208008	-31.097576141357422	5.4139933586120605	8.933917999267578	19.77766990661621	-41.804039001464844	-12.30710220336914	-4.962339401245117	-5.929582595825195	9.864738464355469	20.344703674316406	-4.707181930541992	17.51087188720703
-0.3976917266845703	-26.671585083007812	30.83173370361328	-19.433635711669922	-5.545297145843506	24.085533142089844	24.530563354492188	17.127782821655273	-29.420940399169922	-29.66570281982422	8.291719436645508	-15.491018295288086	2.203249931335449	7.321384906768799	2.387105703353882	17.096145629882812
11.82615852355957	-5.9149169921875	-27.451745986938477	1.7119569778442383	53.65239715576172	22.382240295410156	-18.11170196533203	13.65638256072998	31.494915008544922	-2.7709312438964844	21.46621322631836	21.255725860595703	-24.66644287109375	-23.523452758789062	-14.463671684265137	-32.948570251464844
2.538346767425537	18.65907096862793	-14.917707443237305	-4.331734657287598	24.80965232849121	43.16929244995117	3.186272621154785	13.246185302734375	-28.574613571166992	-30.900489807128906	-9.392590522766113	-1.0871070623397827	-28.161277770996094	20.874805450439453	1.243455410003662	11.440237998962402
-9.453705787658691	-6.917771339416504	36.60934829711914	-14.321327209472656	-21.461191177368164	-12.185561180114746	12.117443084716797	23.093647003173828	-36.2660026550293	-2.1244735717773438	12.465932846069336	-27.102468490600586	0.5200166702270508	26.62442398071289	7.016916751861572	6.92110538482666
-5.8756937980651855	13.83952522277832	-19.925579071044922	-16.773040771484375	-49.2352409362793	-22.90174674987793	17.303987503051758	-22.269315719604492	-50.511085510253906	33.81602096557617	-7.776906967163086	15.787420272827148	23.794353485107422	35.52498245239258	57.039825439453125	-3.2335848808288574
15.531076431274414	-23.9969482421875	3.6589765548706055	3.8226966857910156	-38.64417266845703	-22.633895874023438	-7.84012508392334	10.935075759887695	-26.68549156188965	5.774813652038574	10.538263320922852	-0.8741395473480225	26.105243682861328	4.26027774810791	-2.788792371749878	34.105716705322266
3.7334556579589844	14.896299362182617	-17.66342544555664	7.672066688537598	35.3559684753418	25.245277404785156	-22.788270950317383	9.934194564819336	13.160526275634766	-8.126054763793945	-8.481014251708984	-1.2136025428771973	-30.714630126953125	4.046351432800293	-0.9129829406738281	-0.5805083513259888
23.992679595947266	-31.388296127319336	13.382158279418945	-21.213836669921875	-12.799795150756836	-14.42175579071045	1.3555574417114258	10.856928825378418	-0.33975112438201904	23.055408477783203	23.453182220458984	-21.94599151611328	-2.979835033416748	12.835525512695312	0.11742877960205078	2.1631124019622803
17.364452362060547	13.807120323181152	13.760135650634766	2.2509260177612305	12.828311920166016	-8.851573944091797	-24.540346145629883	-17.31113624572754	29.37686538696289	27.94285774230957	20.68299674987793	-31.46116065979004	-24.56664276123047	23.67877197265625	1.5798020362854004	-36.456565856933594
0.6864118576049805	-6.986861705780029	27.08038902282715	-2.9950904846191406	-18.065670013427734	-8.832649230957031	-16.347169876098633	15.047441482543945	-21.232574462890625	-4.7220988273620605	18.735883712768555	-26.59506607055664	0.9855477809906006	28.6003360748291	6.039435386657715	12.104839324951172
23.881267547607422	-26.01338768005371	-14.612007141113281	-22.380990982055664	-0.8035199642181396	1.1480610370635986	-19.640979766845703	-4.026025772094727	10.205708503723145	-1.5208585262298584	20.254030227661133	-0.13495004177093506	-2.167654275894165	11.456003189086914	5.671618938446045	28.345256805419922
4.8684401512146	-59.64137649536133	7.981721878051758	-31.246002197265625	12.667810440063477	-2.7470479011535645	-5.638979911804199	22.87848472595215	-14.07717227935791	17.919523239135742	24.145633697509766	1.4628329277038574	6.669212341308594	11.169291496276855	0.49066412448883057	2.530996322631836
-25.585525512695312	-19.412960052490234	15.533485412597656	-16.634037017822266	8.697361946105957	20.529176712036133	8.853846549987793	34.49944305419922	-55.012054443359375	-28.45596694946289	40.88792419433594	-23.1451473236084	5.9311299324035645	14.474320411682129	3.530848979949951	10.820075988769531
46.95637130737305	-15.458598136901855	-6.1584954261779785	-34.60274124145508	1.7846055030822754	30.08960723876953	1.9533555507659912	-5.169273853302002	30.330387115478516	-9.036844253540039	-3.69329833984375	-9.403412818908691	-31.943675994873047	17.585391998291016	-1.092761754989624	5.927181720733643
33.997581481933594	0.005018353462219238	-10.164891242980957	-13.391079902648926	0.06796562671661377	32.469417572021484	5.052412509918213	-0.7431727647781372	-0.39493393898010254	-21.559144973754883	26.901229858398438	-31.845428466796875	-16.116432189941406	9.295709609985352	-4.172792911529541	5.9319610595703125
-1.96903657913208	1.1736479997634888	-9.189668655395508	-13.199244499206543	26.085346221923828	37.66364669799805	4.424221992492676	15.309493064880371	-33.623172760009766	-29.769758224487305	14.683755874633789	-13.61388874053955	-7.764609336853027	15.260509490966797	4.782073974609375	9.902009963989258
-0.15053701400756836	21.276182174682617	-6.142003059387207	-14.831663131713867	28.36494255065918	32.486759185791016	23.06206703186035	13.63394832611084	-32.833248138427734	-28.862640380859375	-10.443532943725586	-21.842256546020508	-6.748757362365723	15.074953079223633	5.116611480712891	-0.7951087951660156
13.484707832336426	8.531764030456543	7.07818078994751	-14.880566596984863	19.28000259399414	17.812641143798828	-14.361059188842773	13.221893310546875	15.021500587463379	-20.702009201049805	-3.7884464263916016	-27.683488845825195	-21.847488403320312	32.502254486083984	-5.6287946701049805	-3.9329845905303955
13.914775848388672	30.65265464782715	-17.417346954345703	10.50362491607666	23.98556137084961	34.256919860839844	-26.6438045501709	4.372846603393555	7.419649124145508	-17.771438598632812	12.83163070678711	-37.14283752441406	-22.20294189453125	8.961122512817383	-0.8307366371154785	-1.2702628374099731
