3.4036148461699485	-3.4623487158864736	-6.547364884614945	-8.066545240879059	-2.5171471479535104	9.850872106552124	3.5358819122612477	1.2699862590432167	-17.519909371733664	7.48345760256052	7.028219192028046	-9.032578907385469	-9.715169545412063	1.1187756633013486	-2.2794760075211524	6.604227705001831	7.87192082375288	3.786060392856598	2.572869807854295	12.70110808134079	-3.385655509233475	3.7328171688318252	9.258290918469429	1.7039665564894677	-3.972215023934841	-7.748083228468895	4.072849053293466	0.3115465822815895	3.9497395449876787	-1.5428028777241707	-9.518206902742385	-5.118293020129204
6.369402847588062	-1.56781607799232	-1.9616279989480971	-20.584640922546388	-4.242772122547031	-8.32141105890274	9.925508816838265	8.172713539600373	1.2342345702648163	-7.349942181110382	5.641517843306064	4.549495304226875	1.8864708685874938	-2.3639063984155655	6.75527361869812	-3.452871414422989	12.067293591499329	3.4188462156057358	-6.8633290633559225	2.208819947242737	-0.6991796073317528	7.513091168999672	9.568312175273896	5.68909405618906	-5.878629921674729	-6.240575585961341	2.904063611328602	-0.2818351289629936	-7.287965987920761	-6.353782153129577	1.770932685881853	-2.3559203290939332
3.1559258383512496	-7.244495804309845	6.910179681777954	-11.394070029258728	-8.254971122741699	-5.1180571269989015	-1.2006824197620154	8.963267409801484	15.875396541059017	5.337952615618706	-5.590126258134842	-4.921376836299896	-5.79079329252243	7.306172508001327	7.363812770843506	-7.609800291955471	-11.145693997144699	1.3562896332144738	6.080298991799355	6.048531224727631	5.572639376223087	-5.1636549216508865	-6.569862419962883	0.10040974199771881	4.691546635627747	2.368950183838606	3.2085045808553696	10.251424095630647	-2.147411675155163	-8.528427476882934	4.078196202814579	3.3102114844322204
-6.969587989449501	-4.996092033386231	-3.6831810599565507	9.07923719882965	-7.891630155444145	3.91609773427248	-1.4832334837317467	5.15300840139389	-8.18444566130638	0.22162179350852967	4.243386558294296	0.6461429300904274	2.6571624146401884	-11.354231897592545	6.440314716696739	7.034618012905121	-2.540645161271095	6.566788849830627	9.132805268764496	4.251297734081745	-1.5407614514231682	5.544499820768833	-0.5656525866687298	-5.301741895005107	-0.08372573629021644	5.555070843398571	1.3730612616613507	-2.1314505940675734	-9.056134984493255	0.15134453922510147	6.8535066413879395	-7.033804123699665
1.0567410933971404	-5.766557226032019	2.3952007150650023	5.548449880927802	-9.139492394924163	1.5644030892848968	-9.138734970986842	7.08282132178545	1.7483344518393278	5.452423593997955	8.08498994588852	-3.974250196069479	2.2373725706338883	-2.109985006451607	-8.618968470692634	-0.252454092502594	-4.41625528562814	-7.6412089157104495	-1.4595278771221638	3.4940235483646394	-4.7272660303115845	11.923023858070373	-2.2076843383908273	-1.335709689706564	-3.5517799139022825	-0.9131659109890461	4.720666353702545	4.560024818181992	6.733481603562832	1.839294353723526	4.978308710157871	-6.300858974456787
3.7846894317865374	2.5886225193738936	-4.578801376372576	11.376461176872253	-14.014216690063476	-5.063235619068146	8.068315606117249	6.52572114109993	-8.853227342367171	-9.407036353945733	4.558554773926735	-2.9993489833176135	-1.49139691054821	-1.6239470463991166	8.562591857016086	1.6097566103935241	14.54686538875103	7.598576988279819	0.3832040163874626	-6.012104759514332	3.9359735456109046	-3.2455228024721148	6.3491224378347395	-4.951626728922129	3.02636758685112	6.994517500400543	-10.051031053066254	-0.9256268548965454	-5.796136988401413	-7.966268234848976	5.730731167793274	-3.875432558655739
1.4791143916547298	0.7003551425039768	9.421956067681313	-5.830986587405205	-3.6212745246291163	6.792636194527149	-0.9467265769839287	-0.21344962060451508	-9.333025392889976	7.904615999162197	3.4010483588278295	6.23565192103386	-7.973031506538391	4.7849193605035545	2.65861463278532	-10.76770090341568	6.217357770353556	-4.460112545490265	-1.9866345155239105	2.158224428296089	-7.970611610412598	-2.599130934178829	-1.746359997689724	-3.3392409467697144	7.156119035482407	-0.05035744488239288	-2.433023085296154	-9.449079658985138	8.282396637797355	2.572698622941971	1.7178377905488014	-1.7222228449583055
-1.8095686477422714	6.003973966836929	-11.027420201301574	-8.413802862763404	-14.153290820717812	-3.4935793854296207	8.228241788744926	-2.052964143306017	4.568837021887302	4.528537412285805	0.24510648876428603	3.134213078469038	-2.6098968078941107	0.3860010109841824	18.00768208026886	-8.657379145026207	4.173627370595932	9.20516161084175	1.8904393175244332	1.9977819204330445	5.408403951823711	3.3991478025913238	11.362346725463867	-10.60053174674511	-1.5636115300655364	0.5963865171372891	-0.43631377428770063	1.9139589765667915	-9.44767623603344	-3.7236847814917566	1.250204095840454	-3.706853251084685
8.752520662546157	3.4728056694567204	3.338020551204681	-0.7579942977428437	-6.9319323217868805	11.139040131568908	-2.4174421352148054	9.608550966978074	4.324743589758873	-1.7702212780714035	12.966033482551575	-8.160756651759147	-5.441438939869403	-0.6772741904854774	-13.696547250747681	-3.4613985985517504	-9.721910976171493	-1.2451537412405014	-7.880120303630829	9.82310241818428	9.222300682067871	-4.195394957065583	-9.130689409971238	3.1964601719379426	8.625294284820557	-4.2354747691750525	-13.79321310043335	12.1345618891716	-17.51642341375351	16.3704514503479	5.424254250228405	-0.4683259606361389
0.6555933007597923	-1.9996159441769124	-1.1422024393081665	-0.5651140335202217	5.019960836172104	5.004253219217062	0.31646779268980024	12.435823181271553	15.54553787946701	-1.2461195421218871	-1.4299211820960045	-2.2920635628700254	-9.110208544433117	-3.2745746465027334	-13.002216725349426	0.22348784565925597	-3.375040305107832	5.7510757720470425	-14.329170111268759	-4.50315147459507	0.8143394020199776	5.424298941791058	7.480458708405495	-0.7380291123688221	-4.57833622276783	-2.6554841670393943	-6.14590942248702	-1.2939240905642508	-0.48314921244978903	14.280826864242554	4.985479554235935	-3.8537671649456025
-5.3818309063464405	4.196528109014034	-7.484602908790111	3.2514002496004104	-3.2106667175889014	5.583693495094776	10.11490513920784	-1.2350733713805675	-12.141815973520279	-4.111030842363834	8.884797728061676	-7.292855315208435	-2.0793642526865006	3.240538293123245	6.677568109035492	0.7874370623379946	5.517937356233597	14.879668130874634	-1.575677493661642	-14.310868268013001	8.35437690615654	8.30753653779626	6.6261106333136555	-2.0627754352986813	2.270557516813278	-9.481940683722495	-1.6184383604303003	-0.38468027584254744	-8.463596873283386	-5.683324763178826	5.974897317886352	-4.748122874945402
2.0230548667907713	17.639931168556213	-8.595863070487976	2.1751504711806775	-3.5350327154994012	-2.9863786390423774	-0.9015335282683372	4.802860419750214	0.3757451620697975	-6.549661412239074	-3.3460205364227296	-5.5187434250116345	3.5130237516760827	1.092539801299572	6.525467619895935	-5.153379066884518	8.79726317703724	-2.9224964982271193	5.0224545428156855	0.7497824793308974	-8.167765254974364	-1.0661095038056374	-2.36736860871315	-2.8087709149718285	9.212779588103295	0.04588092923164368	-5.79209257543087	-1.1854485088586808	5.9623576956987385	-0.1209464493393898	0.999389653801918	-5.024011659324169
0.7550222909450531	-6.087137589454651	-6.618528204858303	-9.449035927653313	-5.875498502850532	2.391709843277931	-3.0897798028588297	2.4507266050577163	-9.668358657360077	5.446169899404049	0.1694855958223343	-1.8882705022394657	-2.477331943809986	-0.485974055826664	9.456638852879404	6.791285148262977	1.2047437735274433	11.695416693091392	0.9649988219141961	2.704866211414337	-0.6842744588851929	13.427127475738525	9.6687603738904	-6.461464252173901	-11.406600522994996	-5.355683570802212	0.4711685645580292	-4.946140258312226	-0.6431339854001998	-4.91838077262044	9.057010926008225	10.173967989832162
-3.116961830854416	2.683050120770931	10.969269594550132	-3.400782955735922	-1.2263075998425483	6.760069622993469	-3.2332311338186264	-8.580293033123016	5.41720499753952	-0.20227460540831088	-17.227593078613282	-5.105728070735932	0.12798055715858936	8.62620687186718	-10.996160769462586	-3.156143243312836	4.168604054450989	1.6577398300170898	-13.264022154808044	-10.006938539743423	9.778463596105576	17.32967025756836	6.753010958433151	-0.8016941142082215	-9.082101168632507	6.263251949399709	-5.068265883475542	-2.576858440041542	-3.955917274057865	-8.931301357746124	13.41590407371521	14.601160802841186
-0.8146892511844634	10.346203968524932	-8.960522871017456	-1.5937080658972262	-6.811164187192917	-4.995912229418755	2.4200745579600333	2.666565538644791	-1.419513712078333	1.4174143013358116	-3.547535461783409	-1.9276889210939407	-0.2641783846914768	-0.9120313513278961	5.571486355066299	-6.760020368099212	-1.1254981668666004	-7.558180539608002	7.73983342885971	3.6542568677663803	-6.43429811090231	0.1067305912077427	13.76024566411972	0.4313514564186335	8.360189843177796	-2.67667117357254	-2.0233677464723585	2.708547013401985	7.748187175989151	-4.726516003608704	-1.4464381557703019	-2.959100505709648
-6.138680566549301	3.6149204955995082	12.508432078361512	12.653134784698487	-4.486172956228256	4.971468796133995	-16.915115439891814	-0.1049694074690342	-3.8146018782258033	-2.042691920399666	-5.837869703173637	1.8903549283742904	1.532777280509472	-6.317959480285644	0.5389975327253341	0.18897798657417297	-5.913467483520508	6.840121920108795	-5.536001731157302	-0.5375384339690208	2.5262546852231025	-1.8014199590682984	-8.206182177960873	13.349367885589599	-5.66149752497673	10.968749018907546	-14.411625785827637	11.12512187063694	1.236915996670723	-17.65762605667114	15.056842041015624	-0.10025720238685608
-6.6275572836399075	6.828225420713425	0.4018553131818771	8.065104506015778	-21.66031108856201	-7.754232638180256	3.616653004139662	-0.47349940657615663	3.0934757748246193	9.888769953250884	-10.098714663982392	-0.719788174033165	-3.4345115035772324	-7.380245219469071	-14.14342310667038	-8.220226864814759	8.321289232969285	-2.989706025272608	-0.07557851739227772	-7.243216600418091	11.40445608139038	5.738895387649536	-3.8614271551370623	8.226637132167816	-5.729373679161072	3.9802769502997397	3.257824473977089	17.423374071121216	3.9474719834327696	-13.187643480300903	8.730100791454316	5.364066907167435
-5.084104478955269	9.01624490737915	8.327246082425118	-2.664915254674852	-1.5090059423446656	3.4311710634827612	-4.812232578396797	3.0635289983451366	4.29729875266552	2.5027296501398086	8.73556518495083	-3.634842571169138	-6.060908087491989	1.9395159973949194	-7.050368599891662	-6.50825867831707	3.8833504378795625	2.6720746460556986	-8.614214254915714	8.956065366268158	-5.511579629480838	0.586037025153637	-3.5242636407725514	0.18574108399450778	1.9557892084121704	-8.957734973430634	5.43560128569603	0.8588425312191248	-2.715468727760017	-0.24307599991559983	-3.05086498811841	0.07789799213409423
4.513188394308091	-1.327025346159935	2.1419025266170504	-0.9829732990264892	0.7782033568620682	-4.374516447484493	-2.4506065610051153	-4.753429515361786	-8.720815235972404	-2.663465175926685	1.5635589614510537	-4.722886857390404	6.937062729597091	4.239834911227226	6.9808487498760226	-3.0269852697849275	8.206585457324982	1.5886320327222347	4.975351504012942	-4.699787677526474	5.399693756699562	-11.039446876049041	13.032168387770653	1.85282368183136	7.608072649240494	3.510148329138756	-9.51922309935093	-9.969049507975578	-1.7175787235796451	-3.331466007232666	8.927993488609792	-3.9148559832572936
-8.393065046072007	13.550314888954162	-6.0851586911082265	-2.4388215124607084	-3.219234584495425	7.168558062613011	-7.851215204298496	4.012012655138969	0.84627106487751	-1.2722638440132141	2.9060934591293335	7.630794993638992	-4.524600855112076	-6.029183773398399	-0.837359772324562	-4.5232242691516875	3.6039191269874573	6.416699263453483	0.04238720417022705	-8.453789329528808	-1.4591305056214332	7.724079347252846	-6.2651758903265	12.279469256401063	2.8705843323469162	-7.474693407416344	-2.297674012482166	0.25196683645248413	0.3259436798095703	-8.50220417201519	-1.1392504146695137	2.6948759359121324
7.721737596392631	-1.084269409775734	2.877460216879845	-3.922484908401966	2.66744775891304	-3.9010117027163504	9.783859404325485	-0.17734334975481034	2.2230494278669357	-0.11208361089229583	5.950251245498658	-8.907905545830726	3.6664287301898004	-0.6919636461138725	9.99217819929123	-3.90861692070961	-1.949462422132492	-12.455596462488174	-10.011251959204674	2.0970500612258913	-1.8364812263846397	0.000454770028591156	6.37149843543768	0.94789142370224	-7.671135456562042	-0.8549679747223854	4.4290531873703	-3.0101644539088013	-7.764166535139084	-1.416035875082016	12.139512405395507	4.783157129287719
2.6477187299728393	-5.827675195634365	4.3557122254371645	9.119726334810258	-6.354223780855537	1.084794128164649	12.768371615409851	-13.698046048879624	-6.6983334350585935	5.859807386994362	2.449633803665638	-0.9505684788525105	-2.9625281617045403	1.503202626630664	3.457584161758423	-0.22888667128980159	6.280516951084137	-10.523222246170043	-0.4214309024810791	-1.1912359175086022	6.196908056735992	3.2470756179094313	2.042048982977867	-3.413969925045967	-1.5687713968753814	1.37229527592659	1.0693285053968429	-2.8713362681865693	4.411504512429238	2.057222297042608	-6.558198535442353	4.439647884368896
-9.998783082962037	10.000643354654311	-1.3097770923376084	0.1860600620508194	0.6467503017932177	-2.7820909044146536	-6.447758087515831	3.9815948739647866	8.937519110441208	3.652379658073187	1.0130033802986145	0.05129478693008423	-11.557233929634094	-3.9731092274188997	-0.8723929262161255	-8.500833456516267	12.839713864326477	-0.9839498764276504	1.453026619851589	-6.164609056413173	-4.103443954586982	7.905847004801035	-6.985007281303406	4.8674962645769115	6.098629427850247	-6.624005158543587	-2.0107403069734575	-2.2427434852719306	7.517666676640511	-3.864232521653175	-0.5082119859755039	-0.29525127649307253
-9.985284067690372	-4.7265154212713245	-8.169919481277466	-2.1182437270879744	-7.0573046031594275	-12.801891579627991	-0.44722184613347055	-4.178001305162907	-8.273633300065994	3.7281985476613047	-7.99660999417305	-8.760322794616222	4.3807675510644914	0.10606643140316009	10.082087275981904	3.7778929460793735	10.661055586338044	7.747130519151687	13.546115972995757	3.929386548995972	4.6840395167469975	-8.315552442967892	17.766545906066895	1.9921095161139966	8.243085325956345	-8.375542622506618	2.1362906140089035	-11.478169479370116	-0.7633349443972111	9.378950068056584	6.358389465212822	-8.03431724846363
2.7040725183486938	1.8398947137594224	-7.781637570858002	3.9048648178577423	-9.519326165914535	4.203691160082817	7.423132935762405	-4.5556131672859195	-8.840164684951306	-4.38919027864933	-1.7208170147612691	-1.151793874502182	-10.393527283668519	-0.2216711351275444	10.37807945728302	-3.913157774209976	8.820738217681646	-5.626246646381914	1.7320457577705384	-0.0357713620364666	4.154050060510635	10.048607200086117	-6.118061841726303	-1.1999933214485645	-0.10825235486030578	0.9958569514751434	-2.878881193995476	-4.124476097524166	12.861238453388214	5.7207728707790375	-5.035564403533936	15.05680187702179
-2.220956820473075	1.1032556618750096	-7.3345331543684	-3.934990199804306	10.843677690029145	-0.3783018484711647	-0.6769008944928646	-1.7686649405956267	9.912181002795696	5.028043256998062	-10.11687695145607	16.277936081886292	-8.698849657326937	-1.9547144158929586	5.3280273252725605	-6.670259442329407	1.161906394958496	-6.151661838181317	-0.27424033999443054	0.739135330915451	-8.4439222407341	2.8600569017231465	-5.452111501097679	-6.91924978017807	4.669062648713589	-3.665205608457327	3.8753311419487	-4.934889263734221	-2.0553094041347504	2.5359802781045437	0.10798695087432861	3.6362408822774888
0.692178850248456	1.0518036657571792	6.302429844141006	1.4601961809396744	-2.758591062426567	-2.9002230618149043	-7.542462052106857	-4.937299156188965	-2.320685829222202	-10.041439219713212	6.166297582387924	2.067624311745167	6.2836284255981445	9.293547667264939	6.493128820061684	1.1477566468715668	6.376271695047617	-4.6388822129368785	13.262549764811993	-9.02406941652298	2.8696760433912276	-3.0609387296438215	7.097642186880112	-6.898908549547196	2.309120941162109	4.1598401901125905	-9.054630725383758	-8.541630568504333	-3.840939483642578	5.239394167661667	6.966229355335235	-10.096231239438056
-1.3153385549783707	-19.75593105316162	-5.915644521713257	5.250383949875832	-4.50389300942421	15.161438388824463	3.223712711930275	0.6324403673410416	-5.218051729798317	-8.463011178970337	-3.76002002812922	-1.1641291150450706	-11.974298257827758	7.748972997069359	6.956993670463562	12.709429593086243	2.090564597249031	0.0172413370013237	9.928041808605194	1.789897667095065	10.621055389046669	-0.8246005403995514	-12.614342846870422	-0.16267868340015412	7.793448530435562	2.902807438969612	-14.014178261756896	-0.03734762005507946	8.612426369190215	-2.6111803710460664	1.6318393260240556	6.644081498682499
0.29519921004772187	-4.086447412073612	-7.231492089033127	-1.5354048296809197	-3.6219797575473787	-4.374325385391712	-1.479191391170025	1.9346570801734924	8.363247739076614	0.490215008854866	5.906521146297455	0.24566074326634407	5.7751620715856555	4.900566210150719	-5.50106346398592	1.476579018831253	-5.7844504594802855	7.185996974110603	3.8409942340105774	5.310608007311821	9.844493613243102	4.404132840335369	6.2972143810987475	-8.435911337733268	3.0878569442033768	0.5590033605694771	5.625602509379387	-2.546375848352909	-9.951600567102432	-6.59685606688261	-8.773896595835685	7.205994219183922
1.784534021615982	10.237832779288292	11.391023390293121	-3.338590427786112	-7.7922176122665405	0.5499987542629242	1.1477602723240852	-6.450032776594162	2.2221127551794053	2.035484310388565	-4.980862272083759	-5.548203015327454	-0.5517562934756279	5.879389727711677	-2.022193751782179	-0.16273037880659103	6.053162692636252	-3.2744244796037676	-3.830719001293182	9.789930832386016	1.848174316883087	-7.880178554058075	-5.29105869948864	-11.217379472255708	4.315551550090313	-3.1768783289194107	-0.507966262102127	5.70468275308609	6.008884726166725	-0.482978880405426	-0.34803294360637665	7.098534060716629
4.125965550243855	2.6793656216561796	-7.8255330163240435	-3.2734177994728086	9.29987200975418	4.936924408078194	-2.7335770171880722	1.0802096498012543	3.1062990000844	5.204904080480337	0.9001122345030308	-2.9441854017972946	5.325959689170122	0.7084212730824947	9.68181764125824	-13.537231259942054	-3.2450902253389358	-1.0915597729384898	10.747275824546813	-8.994794144630433	5.135588651895523	5.529321060329676	-3.2444440650939943	-3.383505280017853	-8.041543070077896	-0.22757383823394775	-2.679864089488983	3.385012832134962	-5.276310243606567	6.767917516827583	-1.6192288208007812	-0.8469761967658996
9.170911045968532	-0.7396628093719483	-1.4773995035141707	-1.3843179794028402	-5.813411250114441	5.361628094911575	3.2827857349812986	-0.6198000344634056	6.983744246959686	10.992275531291961	15.759186339378356	-10.296378075480462	6.28565470777452	5.46336120903492	6.282215986251831	-4.687699174582958	-3.256875575631857	-8.704936490058898	-1.893203304708004	8.291972136497497	-0.4992393738031387	-10.409194395542144	-0.705125688612461	-2.363340913653374	-9.760307691693306	-6.232190840244293	-0.5111884182691574	8.32788855612278	-12.890277254581452	-4.06509040415287	7.189814764112234	-1.2896897603571416
-11.086116211414337	8.443725778907538	5.261462681889534	-3.9847948029637337	7.098473045229912	-4.2063400359451775	7.635957243442536	-2.1964156180620193	4.884452106654644	5.282178225517273	3.544840712249279	-1.0937628358602525	6.0631383004784585	-1.4053788734972477	-6.728020811378956	8.318464527130127	7.226137589514256	2.0849779485166073	-3.974844495952129	9.492656109929085	-3.1589958003163336	4.096655052602291	-6.789895471334457	-10.509232062101365	-9.482973045110702	-14.56677318572998	7.359300327301026	-3.3493515160679816	-13.627319493293761	6.104328199923039	-3.886048457622528	0.8385712911188602
-0.6862646308541298	-7.907069528102875	-1.8283803620934487	5.0993667459487915	2.4245128262043	-1.2848390972614288	3.360826415270567	-3.359729642868042	-2.714687069952488	-4.312478257119656	0.10631506294012069	10.724022459685802	-3.038921410739422	4.702898845076561	8.544257075786591	-2.553011961579323	-8.1925809250772	4.707889074385166	3.4212039533257483	-5.889526778459549	9.593590731620788	4.146024787276983	2.908489178419113	-7.7957114273309704	-1.3738975489139558	-0.8246612280979753	0.6878247483074665	0.18005376122891903	-15.068725566864014	5.952986814975739	6.804339483678341	-0.9316681343317031
-1.472080104649067	9.892331631183625	11.053017792701722	-7.402737084031105	-3.676674599647522	6.967526260614395	-5.722921583205461	-7.243274807929993	3.8110855033993722	-3.839664957523346	-1.1230724062025548	-11.297100467681885	0.25358913660049437	6.618380395770073	-4.921065746545792	7.576342628002167	-1.1894460095465182	-4.258156707882881	7.495489668548107	8.05708291888237	-0.06679930657148361	-7.464158239364624	-2.8107140520215035	-11.975233170986176	9.525578649044038	-4.2587089985609055	-3.178514209985733	11.615497648715973	5.658266651630401	-6.902827386856079	2.6449957770109176	5.697464878410101
-1.1977075225114822	-0.2716260109841824	3.7416207075119017	9.003332724571228	-1.0626212832331658	0.6571180212497711	-10.35308863580227	0.8530130198970437	10.165762241482735	1.9312757725268603	-11.0930868768692	5.430161404907704	-1.6550709253549576	-8.900518881976604	1.611004512757063	1.4820467728376387	-7.306672842055559	0.46985737144947054	-13.010074706077576	4.730238845348358	-2.005914505124092	-8.65640588760376	9.554721497297287	10.656719779372215	-7.032235565185547	6.310119924545288	-11.719277662038802	14.002998488545417	-3.77749475762248	-7.079627687335014	14.7422980260849	-1.4135559689998627
7.101080837249756	-1.080102728009224	11.018963105082513	-5.720357067584992	-8.03673333823681	-5.32151711165905	-8.70726392030716	10.609352495670318	-7.058237448036671	5.318343772292137	-10.35705812752247	2.991663748025894	0.9620410168170929	0.8183887785673142	3.6874963569641115	-2.8841112947463987	6.901091421842575	-6.809900722503662	5.315710994005204	-0.1976845782995224	-11.324552898406983	-3.280278170108795	0.25451496452093125	6.237618567943573	4.263900820612907	-3.5835965317487717	10.030827910900117	2.563078747689724	8.391753152012825	-7.639149901270867	-0.2291407236456871	-8.306669232845307
-5.754137355685234	5.514341373443603	-9.701413887441158	-3.623736905157566	5.242517787218094	-3.9169771155714987	1.5743299221992493	6.159948803782463	13.49811043575406	6.1936221385002135	-7.741235555112362	4.639431386440992	-12.249748155474663	-6.176254643201828	1.54340460896492	-4.980620005130768	9.807694256305695	-8.627888796925545	4.922936762720346	-3.1972301425412297	0.2144427105784416	8.74444946527481	-5.93232978284359	-0.24296342350542546	7.081182213425636	-4.600227238237858	-1.5271020822227002	-6.491779146790504	5.366849411129952	-4.425547829121351	0.358030386865139	-2.7024663102626802
-8.109144215583802	5.681323770284653	3.3838072764873504	-0.11343373641371728	7.953884063363075	9.729169228076934	0.8813404494524002	-2.7817769157886505	2.112140892744064	0.2075017774105072	-9.10122768819332	-1.055949410200119	-4.916688637137413	-4.1763701978325845	9.843031905293465	13.654640511274337	-6.176967191100121	-1.7251761782169341	-11.60516848564148	0.15238814786076546	-0.44736856654286383	-3.016804194152355	6.921405296325684	6.849895198345184	-9.83087050318718	4.8037215021252635	-1.3668389244377612	9.874006602168084	-12.699448194503784	-7.1476488935947415	10.63673578262329	-0.34463399231433867
-5.920696971416473	10.548359789848327	-3.187578997015953	2.573392350524664	-9.238487614393234	5.126229839026928	9.845807082653046	-1.5504358857870102	-3.4900319147109986	1.435599377453327	1.8361793974041938	-2.482856570482254	-10.335389482975007	-2.8450047212839125	17.10705461025238	-0.5691985374689102	0.28411455601453783	4.860284119844437	-10.221873590946197	-10.771712874472142	10.750186914205552	-5.139689664542675	8.618021793365479	4.056814671456814	5.791092242002487	-1.5822199440002442	-4.888732129335404	3.427414008080959	-12.148633685112	-6.134707139730454	9.99149432092905	-1.042145279198885
-5.223206012845039	-17.736725435256957	2.703404236882925	9.249197808206082	-3.9980848103761675	8.282724241018295	-2.904489980638027	1.8091302275657655	-3.8961221799254417	-3.4452987263351678	5.018738451600075	-9.48719388961792	-8.829367990493774	8.442320169508458	5.003541872501374	6.329783376455307	-2.0713913790881633	-2.119311435073614	6.923162397444248	-0.8373502337932587	3.602039604485035	-0.010567971169948578	-10.182084331512451	6.061578904390335	5.111914277076721	6.38314829826355	-16.87136827468872	6.7870144999027255	3.848454398363829	-1.8663331598043442	7.444029026925564	7.418521991968155
0.6100924172997475	0.4817304068803787	-2.4226309734582903	3.3018383663892745	-2.162524554729462	7.8850250089168545	6.677995651960373	-10.51312728881836	-3.683839288651943	-7.70835444688797	-3.488022567033768	1.7909627750515937	-3.751198791861534	7.942894797325135	2.90312320291996	4.009688224568963	2.5837652826309205	-2.927966974377632	5.413958791792393	0.34818137884140016	-0.256874173283577	-0.255589462518692	-1.4060519009828567	-4.984123201370239	0.9414351379871368	-2.137256621718407	-7.880353336930275	7.832737622261047	10.664610857367515	-4.982524907588958	0.02878795802593231	3.2891262671351433
8.892459399700165	2.746868470609188	-2.626721811592579	5.908061505556106	1.1895346612483264	-9.05879629611969	-8.05611968755722	-0.3292239770293236	5.366160483658314	-6.028310002684593	-0.5230779974162578	-5.116310651302338	6.777868396043777	3.9548662427067756	-3.405973668694496	-3.6685410851240157	3.1404592418670654	-3.6790068146586417	1.1474212872236966	7.552819429636002	3.8691943541169165	-8.024989421367644	6.094561634659767	3.9970332461595537	-1.751427481919527	5.641127945184707	2.731448881328106	-5.559274666905403	-2.3625808022916317	-7.725727424025536	4.242094078510999	-1.2964946880936623
5.292836378589272	5.417077706754208	3.1910069406032564	6.029948414564132	-2.763538397178054	0.8623719143867493	3.1185723268985748	14.316727538108825	-7.935973241329193	2.498418838381767	1.1527339482307435	-9.811012992858887	6.4863603401184085	-0.3296558520197868	0.7780442355573177	-0.17272702276706695	6.804554464221001	8.152324986457824	4.2087106484174726	-8.848972756266594	-8.999431821703912	-0.08525106430053711	3.7767765363305807	13.096579669117927	-8.241512707471848	-3.133542630970478	-5.1086845309287305	-1.114112879410386	-3.793193212747574	-12.734862914085388	-10.552220037579536	2.7130022460222243
-2.8906431651115416	-3.0757151609659195	-12.733382380008697	7.1190170526504515	-7.927169357538223	9.3912288916111	9.732969000935555	-7.192639992237091	-6.12347064614296	-0.8398700761795044	-2.25819327801466	-3.6916671818494797	-6.2371099352836605	-1.5311709421873092	9.176302208900452	2.138681829273701	4.935253609418869	-1.9519079372286796	0.36910002797842023	-1.5213294452428818	0.3296819344162941	7.231372338533402	-5.252361360192299	5.758295990228653	-2.3165803682804107	6.663213205337525	-13.64238920211792	-2.044564491212368	14.331375017166138	6.38093852519989	5.557256157994271	7.24059262752533
8.020988446474075	2.0454685880243777	8.802158385515213	-3.104437225461006	-4.5047385787963865	3.0636781811714173	-2.183835896998644	-11.556347717046737	-1.4271255978941917	-5.0153410025686025	-4.241457775235176	-2.4282947316765786	-2.758311166316271	6.2118984347581865	5.215073045194149	-1.5446787774562836	8.270493862628937	-7.120157994031906	-4.177196591123939	4.834186899214983	2.5529903296381233	8.423019150495529	-9.565969634056092	-12.055875525474548	6.895214158296585	5.640449954867363	5.852569941878318	-3.1866421315073965	0.5746098327636718	-7.756011102199555	-2.642836742401123	17.90726945698261
6.771434045433998	-3.9051687043905257	5.4347715818881985	5.045850629806519	2.456962870657444	-13.247887830734253	-3.3223872447013854	8.212891706228255	10.134234517216683	-6.997626104950905	7.629434189200401	-3.3914600412547586	-5.6850559878349305	3.1707602139562368	2.2991918687522412	-2.0272270527482035	-2.0410818012058733	-10.684885777235031	2.3143912467360495	-6.903825681209565	1.9944952604174615	-5.095504528880119	7.335210241675377	2.754791376590729	4.560458447039127	3.730052245259285	2.9350943040847777	7.87646009683609	-7.907642111182213	-4.992946582436562	-1.4338012003898621	-3.2984499230980875
-4.644288122951984	0.9493274521827698	-4.999617931246758	1.9560982927680015	-0.4736725559085608	-9.039433364868165	-4.376397725641727	-19.153018245697023	-2.27116066634655	5.1190203887224195	-13.692288193702698	2.002128601372242	-6.685534305870533	6.531036177873611	-7.829077466726303	-7.226374748945236	-3.800655949115753	-0.04824337840080261	-4.840472568869591	-11.316403375864029	4.54882655620575	5.483823781013489	4.0767314016819	3.043497957512736	0.8387129073590041	10.83339914560318	8.560469690561295	10.982290942668914	9.91305281817913	9.72092787027359	1.2587796646356582	5.51861567735672
-5.622536251544952	-21.62204963684082	-3.1114422202110292	4.163937034346163	-2.1614036321640016	14.034361124038696	0.3853883725404739	-1.057346630692482	-3.9660266995429994	-7.276658127307892	-1.6650915231183172	-3.46749468266964	-14.395433349609375	8.240634210109711	6.806324177980423	15.62976254940033	1.308142517954111	0.453192894756794	13.318154230117798	1.9614359390735627	10.421992897987366	-1.2025026407837869	-10.583590638637542	1.850245742201805	8.665679759979248	1.7325637158751488	-15.812396411895753	1.8437071746587754	5.9996304759383206	-4.357322252988816	4.269433551430702	5.089188690185547
0.5801599469780921	8.671167761087418	1.07820749014616	9.217851283550262	-9.98225466609001	-3.2969233947992325	-2.6607157123088836	5.688298708796501	0.6794336751103401	-2.436830573230982	4.58399270966649	-9.014002468585968	-0.8520039333403111	1.642794273123145	8.15618831306696	1.6385771250724792	3.056733925640583	-5.910890347212553	10.195229999572039	-7.737105735838413	-3.7526195257902146	0.49687701135873796	1.639687978029251	-7.6988336279988285	3.9475795888900755	2.0893418157100676	-6.303941371440888	-1.2794233691692352	1.0178761874139308	6.026082875132561	-0.36482371866703034	-7.173825205564499
2.0339966974407435	-5.115345603227615	6.254248366355896	-1.3791092750430107	3.672057979404926	-13.265239152908325	5.340918299555779	11.985865004062653	2.8973671144992115	-9.063725724220276	5.296811505556106	1.8909091532230378	-1.2498664665222168	8.003187429308891	1.2703825378417968	-3.5225746881961824	5.310820038318634	-8.658837208747864	-2.715797646641731	-4.198029011487961	8.753167691230773	1.657785456702113	12.554877655506134	-4.445354902371764	-9.606491594910622	7.584178329408169	1.7564362002909184	7.180284278392792	-13.956917641162873	-2.4240706827118994	-2.049416781961918	-3.4444533744454384
5.309676142930985	-0.9480183237791061	3.708235393166542	-1.1752441871166228	-7.575436482429504	-1.59522176630795	8.704835501909256	-8.119979369640351	-4.1389750123023985	5.497380329966545	0.23847890719771386	3.4512748169898986	-0.0881326887011528	-0.6159088936448097	-2.5325544327497482	12.618099122047424	5.754236279129982	-11.823616540431976	4.481660078465938	4.781710806488991	7.209575103521347	-7.319652676582336	2.648461276292801	-6.4372417229413985	3.4238749304413796	-7.431057353019714	2.5525315767526626	-3.416611843407154	9.93696798324585	-3.29137176990509	-8.140762345790863	1.8580723115801812
4.735342670679092	6.118211952745915	-0.29157847471535203	6.336532788574695	-7.8477081435918805	-8.2645963460207	-5.053769991993904	6.7031395518779755	-3.3732284712791443	-3.413028629720211	4.346469700336456	-13.071001591682434	-2.4811153203248977	3.945895391702652	10.22415724515915	10.98504756450653	7.5937943562865255	3.110421667844057	2.2293385426700114	-3.7466038282215597	-6.155284115970135	-1.4315947538614273	-6.754341247677803	-1.6182110592722894	3.493449306190014	2.9877854703366755	-9.423892221450807	4.74302974820137	1.8556729026138783	1.2602874776721	-0.18790446132421493	-3.616428551077843
-8.190800748467446	5.000313615947962	4.951911826133728	6.188532263040543	3.831847376823425	-5.371094834208488	-13.898163921833039	-4.526906943321228	-1.49052994761616	5.7121904584765435	-4.320381357371807	-7.489924401044846	-10.511284351348877	7.280502460598946	4.719974668323994	-10.61329509973526	3.11033066034317	1.142514581680298	3.243791481256485	-4.765235869586467	-7.4885047772526745	2.0806764858961104	-3.148117346316576	2.226966229081154	8.906605926156043	-2.5409515219926835	0.2513123421370983	-3.5207312594354154	9.870157153606415	-1.958796996474266	2.956682865023613	11.736852660179139
5.055853923112154	-2.3555888172984125	-2.3364571923017503	-16.952679386138914	-4.10531381547451	-7.2349537345767025	10.216205303668977	12.245006973743438	3.5007009959220885	-7.046914929151535	8.28554825514555	2.9686110121011735	1.6601626920700072	2.4541686883568765	6.14733560860157	-2.6185870480537417	11.204657742232085	-0.3371298840641975	-5.696211199760437	0.44111340284347533	2.6192689633369444	2.1912531697750093	10.523158617019654	2.27071146607399	-9.765360810756682	-4.469865695387125	1.29722757935524	0.8226453638076783	-8.773708326816559	-8.359417867064476	2.1068868282437325	-1.6610691630840302
6.370393109321594	3.3841457391530274	11.933446702957154	-2.654070543795824	-1.5830712506175042	-8.725403380393981	-7.270297915935516	-5.803740351200104	9.257592996954918	8.181672636270523	0.06663195997476577	0.5536081947386264	3.4108480226993563	-3.581010640859604	-5.274131098985672	9.685678420066834	4.044768967032432	-7.213635702133178	-3.320159645974636	5.089408257603646	2.0878645715117456	-7.107363283634186	-0.5295300576090812	-5.331061472892761	3.2746934440732	-6.95250211417675	2.808226943127811	-1.5103320864588021	4.6274071007967	1.308627655506134	-6.356526000499725	4.971928592324257
7.599958019256592	1.0822905042767526	-7.5348923766613005	8.911732606887817	-11.079922552704812	-5.994564626216889	-7.680282154679299	6.723741987943649	7.221391417086124	-4.112473911643028	2.5011825120449065	-16.478494591712952	-7.438620623350143	0.45438547372817994	9.8827362793684	5.85999610722065	-2.083234413564205	2.1064574964344502	3.4842441288381814	-3.0704383736848833	-7.7385898492485286	2.7990108409523966	-1.5917982038855554	4.110211596786976	8.572425564527512	7.189347176551819	-2.177444180250168	11.322850415110588	-3.4359264159202576	-2.1166994690895082	3.7790461450815203	-4.308236530572176
-7.4786034989356995	10.606581888198853	2.6971626448631287	-0.2386827838420868	-0.3283154752850532	8.634369409680367	-9.57392934679985	4.95892392873764	7.652931027412414	-8.160536355376244	-4.6732844313979145	10.224796524494886	-3.0509936299175022	-12.494561982154845	3.5497948575019835	-4.396730842590332	3.979929897785187	0.32812573432922365	5.659217345714569	-5.874113165140152	1.6913464963436127	10.610442098379135	-11.50762535572052	5.751974608302117	0.7020071023702621	0.5082494252920151	-3.2066327694058416	-0.9207942809164524	-9.254503516554832	-3.072706952095032	5.3332184511423115	-6.197602186203003
0.6232386457920075	-7.026462032794952	8.77681655704975	-5.4984073269367215	4.3453471067547795	-6.451627950668335	10.760396620035172	3.54559293448925	0.6354767547175288	-7.566833879947662	3.959938085079193	6.050080999135971	0.9913354760408402	5.9751039299368855	13.759093914031983	0.09087934255599976	-0.7034528625011444	-12.299131544828414	0.804914998319	-3.1716109305620193	-4.570316858291626	5.7079149433970455	6.437245190143585	-11.048885450363159	-8.652055871486663	4.047983604967595	1.4234209677577019	3.306352781355381	-11.74632792711258	4.076291867494583	5.904925876855851	-5.269690280556679
6.986611399650574	-0.6389301763474942	14.169708795547486	-2.689288347661495	1.408486442938447	-5.006027765274048	-6.3791004472970965	-0.9125161745771766	6.757798998951912	4.661146816313266	0.26675662249326704	-0.8653455600142479	0.1313888782262802	4.2726746490597725	-9.67187961757183	11.325128133296966	2.504329708814621	-13.313010277748107	-2.6961839554458855	3.812230198979378	5.089444856643677	-9.558925995826721	-3.6687881392240524	-9.709228773117065	4.834479356408119	-5.654447255134582	3.0180995056033133	2.286408606171608	4.699366109520197	-0.7156109994649887	0.06037171125411987	2.7451741087436674
12.289127733707428	3.0016516596078873	-6.041095003262162	8.31087136387825	-4.742101634144783	-10.583915864229203	-6.468191959857941	4.363392679095268	1.6439878860116004	-8.805030699968338	13.895842536091804	-9.755711279511452	-1.068643900156021	-0.6690927412360906	1.9140105018019675	9.373664799928665	1.7342291963100434	-2.0828242874890566	2.9685517767816783	-6.335223038196563	-3.752797003686428	3.841474054157734	-0.5480545517802239	0.314100484251976	5.545666369795799	4.645927633047104	0.6718019568920135	7.716157231330872	-6.948610759973526	-8.083482593894004	-0.5816300429403782	-2.9681975361704827
1.5806257477402688	-6.566929617524147	-3.184502633213997	-3.9578133368492128	5.014742468595505	-0.3443108308315277	-9.883183393478394	-10.928354959487915	2.325791517198086	9.793228774070739	-5.4649156036973	1.7379432317614556	-7.172923533916474	2.680620729625225	7.517866739034653	-1.297527340054512	7.9204555916786195	5.350467844754458	0.3243582848459482	0.594312977194786	-6.992776138186454	-6.499082436263561	-2.9669293975830078	4.905618366003036	2.792268461585045	-9.447621912956238	8.055778064131736	-2.183823312520981	4.839004272371531	9.645576072335244	0.6759539358317852	0.933602685034275
11.996674173474311	-5.460026483386755	-7.061836698055267	3.111962951272726	1.2913687932491302	-0.21344399079680443	0.31092296436429023	3.4306688582897187	0.5861670978367328	9.159636195898056	-3.038832280933857	1.3809844399243594	-1.9229993063211441	-9.642968493998051	2.0572762286663053	-9.397532710433007	-1.8483618952706455	-1.2854053221642971	2.6530396205186846	-0.44048034846782685	3.1890024140477182	5.857364145219326	5.44557646125555	-5.021525764465332	-4.844683175683022	-5.027897480130195	-5.258203271627426	4.221702773869038	-5.402259815335274	4.8040618288517	10.48532729268074	0.28271374374628067
-3.7470385348796844	2.3811419089883565	-6.081212728917599	-9.28175509929657	2.329123363494873	2.4244892218708993	-8.644075709879399	-3.980596776306629	-6.936041867733001	7.4489849662780765	2.8270347982645037	-0.9061750689148903	-3.377939064502716	5.072775716483593	-0.661287477016449	4.729593715667725	-6.314376554489136	-0.12162630409002304	5.541902329623699	7.99406868815422	2.0744841934740545	-1.984054834395647	7.527013358175754	1.025814684778452	-5.339837128520012	-6.207970098257065	5.873653263300657	-10.517833786383271	7.331267274618149	8.195554568767548	0.7316498112678528	3.3199785493314264
0.4833830606937408	-8.43098539546132	4.064071210622788	-3.388988833129406	4.098000404238701	4.085762556791305	-0.8224168352782726	-1.8167139399051666	7.002405207008123	-2.5508344495296478	-1.808730388879776	7.277782503217459	-5.6074584174901245	9.154337879419327	3.670428701341152	-0.15616742372512818	-8.58429276317358	1.5499396589025856	1.8121892088651657	-8.825555226802827	9.355648555159569	4.862657703198493	4.204973922967911	-8.589649595022202	-8.79913786649704	0.3291542913764715	2.7275527918338778	0.5447376048564911	-17.78117138385773	8.622042838335037	10.485908564925193	-0.5396358455717564
13.563959164619446	-7.921913374811411	-5.344842996895313	-10.182550476193429	2.371799566745758	-2.997834662795067	-4.714772490411997	7.2117917984724045	6.563968195319176	1.5969357144832612	-1.0797715747356416	-1.316850900799036	6.545645973607898	-0.4125458496809006	6.924646640717984	-6.942085399329662	2.483546776175499	8.643359811604023	5.186448567807674	5.234237080812454	0.42583798468112943	11.172440993785859	-1.1715997922420502	-0.8876831585168838	-8.71076746493578	-2.754371479153633	2.865644275546074	2.7472220066189768	-3.402895008176565	-8.968569759130478	-8.724677295684815	1.4741674640774727
-6.381393245458603	0.005824226886034012	10.935309405326842	11.545033893585206	-11.558828117847442	-4.3643324476480485	12.188313724994659	10.36494523525238	-7.07254016816616	2.9566949236392976	-10.106025977134705	2.6416231128573417	0.1442229424417019	-5.251601404547691	6.0250600720942025	3.40796283274889	3.4366897177696227	1.2038419717550277	7.469887766838074	6.347568190693855	5.71715315759182	-6.538722106218338	5.985570433139801	10.472027196884156	-4.215379232168198	-8.440900874137878	-2.5319294586777685	10.22432733029127	-19.522130126953126	-12.050864351391793	-12.387459433078766	-1.2586603638529779
4.070229046344757	4.101114344298839	-4.740958091020584	-5.189366183280945	-5.581033591330051	8.109202416539192	2.5196718788146972	2.964117334485054	-0.7235926717519761	-0.013860000967979432	9.878505383729935	3.112078427374363	-5.8828853493928905	5.7206832620501515	-6.8951050984859465	-1.4153662958741189	-2.0685723190009595	-3.33476113319397	-12.511433654129505	10.082152109146119	1.4818953761458398	9.072232494354248	5.430867483466864	0.9091645514965058	0.8437467223405838	-4.685661337077618	-8.154133565276862	-5.6459132888913155	-0.2714174534007907	6.396474231481552	-3.004760172069073	-1.5601354824006557
1.9878168231248856	8.564190149307251	-3.0197589352726935	9.871138926744461	-5.5829898965358735	1.8272143471240998	-5.020699959397316	-2.120880406498909	-5.622568139433861	-9.802337923049926	7.203624665141105	-3.384641300141811	-3.150533550083637	0.23808306217193603	-1.2416098622977734	-0.4883752489089966	5.529787747859955	-4.752222564518451	10.958974440097808	-9.581352343261242	6.788712394684553	3.18335943043232	4.033645515441894	-10.084076156616211	6.148285244703293	-0.5989605554938316	-0.5975808246433735	0.06807972460985184	-8.033284748010338	10.878596251606941	1.2625157790631056	-1.4847497065365314
11.516702513098716	-1.0289155392348766	-2.7576888063549996	-1.4399939562380313	9.371592705845833	12.904037573337554	-2.2351949405670166	11.813012241125106	5.311545796692371	6.89361135840416	-7.248127806186676	-11.94469430565834	-5.648922609686852	-6.146112371981144	-2.8055236637592316	-3.501958717107773	-3.961600707769394	-2.432907346189022	2.554572093561292	-0.2730096417665482	5.662963869273662	8.27064065337181	-7.36863272935152	-5.338916827440261	-0.6702405661344528	-1.013533318042755	-7.780467846393585	5.307356343567371	-1.2967826801538467	5.909298905134201	0.83990081012249	-4.847260642051697
3.0413198858499526	-3.5295085643231867	-1.9679469561576843	5.423008466959	-10.080684994459153	-8.60302024424076	6.865724735409021	5.52539332345128	9.668238028585911	-3.808987717628479	9.038789162635803	0.31885237880051137	5.99014567732811	-0.19575026750564575	2.2418139259517194	2.62564915060997	0.16424616187810898	4.609392563700676	4.878231451436878	-6.404287571907044	2.722674021422863	-1.5964682659506797	5.525256876572967	-7.69808837711811	-0.6038652566075325	4.7964870381355285	-0.1498921422660351	1.7071024851500989	-14.252944995760918	-5.3660400462150575	-0.5275334940850734	-0.9283029529452324
4.310701673328876	2.67503957554698	-6.235598446726799	-0.03205581024289131	-3.449669921770692	2.7177443721145393	-8.379815393090247	9.012479252815247	5.268489758968354	1.0045108944177628	1.0587772580981254	0.407869745194912	-1.0570266038179397	-17.47432152748108	-12.224726981520654	6.816022967025638	-7.753821144104004	5.96195676445961	1.3567185470461844	13.558293400406837	-7.8642295318841935	9.786640249490738	11.85475236415863	0.582345942556858	4.266023370623588	0.4955427545309067	1.8113606172427534	6.312596399188042	-7.931339690685272	-8.669674753546715	0.568447999060154	-10.879115645885468
7.5726901441812515	5.838346500396728	-0.3443284460902214	4.0125859868526454	-7.8118928277492525	-12.206993156671524	-5.065550676584244	5.261123114079237	-0.7627782798279077	-4.457252165675163	8.31179955869913	-8.846275495290756	-4.423553273677826	3.9152408158779144	8.521840853691101	2.9814688467979433	0.41649946451187136	0.4859906433522701	2.637579021751881	-0.5186422456800938	-2.8175201312452556	-0.2714186242222786	-8.14051442205906	-1.969646356701851	4.876375633776188	7.21158909380436	-5.332672256231308	6.8047561824321745	-4.787677026987076	-1.7991363506019116	3.294181265681982	2.9592235764861106
0.16294783003628255	2.36779361307621	-1.0432088828086854	-6.625819246172905	4.978097349256277	-10.004698505401612	2.0525972443819045	14.847625694274903	-2.878583609163761	-10.572599716186524	3.532387115955353	5.406821973919868	-3.2497709608078003	3.9710313767194747	-3.7174446618556978	-4.022996679842472	10.402654063701629	-5.43615199804306	-5.583980832099915	4.417855269908905	11.956224191188813	-2.454312962964177	14.040322217941284	-0.6598925374448299	-6.3744002938270565	2.5316877743601798	5.300664666891098	2.8541132667660714	-6.671523551344872	-2.7509044127166273	-7.959511818885804	-2.167216573357582
-3.6207882868498564	-2.285829624980688	-1.2751857060194016	-6.825359332561493	-1.1906298843026162	7.562331166267395	-6.013340564966202	8.082624094635248	-4.44289382070303	6.506372189521789	1.8486350247263907	4.874309735447168	-6.249855826497078	6.394843244552613	1.116862735748291	-6.869996908307075	-6.074654166400433	-3.1424867207184435	2.558508529663086	-2.169403230547905	-1.1036834161728621	5.369395399987698	3.473111460506916	0.1315013824403286	-2.1653368598222733	-7.058445903658867	-2.382380156815052	-7.988587153553962	14.827546782493592	4.210685770809651	-2.8055041402578356	5.959686934053898
0.04663404822349548	2.31670364394784	11.350950745344162	2.853474486656487	4.961702654361725	-6.291947816610336	-8.793264367580413	-7.891225385665893	9.381059058904647	0.5709860640764236	2.689173872470856	2.410578384399414	6.809674310684204	-7.940730091333389	-0.4395526975393295	9.360994281768798	6.556313444375991	-8.034922464489936	-3.363069778084755	-3.388916149288416	-4.79846416413784	3.840052807331085	3.3469927701354028	-1.8606826881319285	-1.8035090041160584	3.4648805183172224	-1.5781080114841461	2.8295383685827256	1.034401262179017	1.9154998135566712	-4.296091395318508	-1.6521090823411941
-15.541351861953736	1.6703476695716382	-2.4891361600905655	-4.024504387974739	-0.2254360730946064	2.7920117023587228	0.6218213719129563	0.4918516692519188	3.1895826461911203	7.102981637716294	-0.7785819125175476	0.8110142639279365	-10.757005934417247	-3.313040343821049	-4.285154663771391	0.008066156581044197	-1.1184269247949123	-5.1734548899531365	6.207590573206544	14.608497887849808	0.35987621210515497	5.038645156919956	-1.491429220959544	0.2929941461235285	4.178230317234993	-16.598601100444792	8.671893580555915	-0.7941482344269752	-5.668089596666396	-0.5853789728879929	1.589528851211071	8.336728498935699
6.780218220949173	8.473678566813469	-12.142187461853027	9.180195460319519	2.324996129274368	-1.190736874639988	-8.461746881008148	13.276386818885804	1.5538895225524902	-7.181313624382019	-6.061469188034534	-8.502052992582321	-0.20074118435382843	2.7307417672872543	-2.0953780272603035	0.9785355353355407	1.060648273229599	1.7056507106870413	-4.647962661385536	-11.362927403450012	6.971298278570175	-4.9063985714316365	8.138986815214157	-15.0207576328516	8.408202700614929	-1.6813324062526227	-4.254071073532105	-1.6264827847480774	3.100877594202757	8.03695302426815	2.2131980579346417	8.473521166443824
-3.533974076509476	7.3459977981448175	3.3357489465177057	0.7259352505207062	6.573571991920471	-7.439886794090271	-9.510103189945221	-5.220430755019188	9.324455614089965	-3.6422057887911796	2.088914320766926	5.949213505089283	8.32635733127594	-10.299915897846223	0.29079444289207457	9.257872247695923	4.669872084259987	-2.5019685742259026	-2.8739210784435274	-3.3710408926010134	-5.977110860347747	4.630193510651589	3.4804676669836043	-3.0585571640729903	-1.6426821672916412	2.8138660165667533	1.3370357692241668	1.8639509093761444	4.499580922424793	-2.266796035170555	-3.445927964448929	-1.104370347559452
-8.513332213163375	8.7749875330925	-4.962114868462086	2.372460409104824	-12.987335357666016	-2.756109275817871	0.6289437341690064	0.44505713433027266	3.907778409719467	7.612014706134796	-2.8970571640133858	-5.5052321523427965	-5.783026781082153	-11.321637687683106	-2.6250640934705736	-7.984601681232452	11.901772614717483	-4.9918395337462425	5.2059472805261615	0.7404969164729118	6.136093624830246	12.006306575536728	-6.896154735684394	13.035042103528976	6.654154261033982	-4.93842837780714	0.24296409785747528	0.14743141129612922	0.3391184765100479	-4.150481663942337	-0.20377400308847426	2.0932635724544526
-7.2084539574384685	1.5692184892296792	0.6960004962980747	-2.761122288554907	-13.302292366027832	-1.464939177632332	-6.060568897128105	5.312423070669174	2.6541390676796435	-3.0455284374952316	2.1230209296941758	15.454650783538819	7.168173248171806	3.568114148080349	-7.406434655189514	-6.373808304071426	-5.897004289627075	-5.625970853194595	-1.4294546192884445	8.673316398262978	-1.9792317724227906	7.510073220133782	2.3030338791012763	10.821511521339417	5.615821348130703	-6.7588846026360985	0.20127884935587645	2.4003504893928764	-11.128197044096886	7.888736752271652	4.149010630398989	-6.961950297951699
-1.8642115074396133	2.80098722666502	5.715358536243439	-6.168884198814631	-4.30958445429802	4.997777425870299	2.689648991525173	-7.363543494641781	-4.226545965075493	13.328661251068116	6.987597596645355	-3.5827575461566448	-1.1600794523954392	5.292815039455891	-5.317683010995388	-5.557920856773853	1.1590765111148358	-0.3726570627093315	0.37281197279691697	8.884016534090042	-3.9356840577721597	-5.610396698117256	-1.8770660905539989	3.140507175773382	-2.7549001669883726	-0.0631799864768982	2.110764301419258	-3.7327364239096643	0.6508652138710022	8.50549752831459	-1.6654548379778862	-1.0384456646442413
2.6727150028944013	-2.237733705639839	0.6045513641834259	-10.562775467634202	-8.033156836032868	4.125403291136027	-7.728206507861614	2.3440189215540888	2.098700266778469	1.8310873186588288	-0.6287241604924202	-2.0759754917025566	3.6408187107741834	-12.410364820957184	8.70675618648529	7.239414995014667	6.581462663412094	6.884722176641226	-0.11406712047755718	6.7063710480928425	-5.824463973343373	5.289702719151974	8.8166513133049	3.3656250539422037	-9.419218786954879	-6.202024187743664	8.900374834537507	9.934971656799316	-7.406412725448608	-7.943027601838112	4.448814871609211	-2.09326176315546
-5.906658581495285	7.578628992438317	2.900211802199483	-0.2272424191236496	6.707964822053909	-6.893473770618439	-10.860043344497681	-2.967440081834793	8.851530165672303	-5.108385447859764	1.50886470541358	6.844371259212494	8.689332299232483	-9.462212624549865	1.760713323354721	9.524708795547486	2.692140957117081	-1.0047377723455428	-1.5498503185808659	-4.516278064250946	-5.705075019598008	4.506358151435852	2.652366239577532	-2.4992429661750792	-2.5029989475011827	4.3814331275224685	2.5629401910305023	2.779784623384476	5.368836750388145	-4.084473595619202	-2.804049208164215	-1.6667833226919173
-4.706120612025261	0.3899426956474781	-0.8263051539659501	-9.863554619550705	4.1392010617256165	-7.807129225134849	-5.316137989908457	8.703846452236176	10.667756671905517	6.379566695690155	-7.628649983108044	16.143544569015503	-5.914910111054778	1.1789405339956283	3.0360782036185263	-8.849482159614563	5.401742245554924	-4.842504034340382	3.444898955076933	9.785859169960021	-6.151271565854549	-3.444370069205761	-8.941785988807679	-8.011206567287445	8.290149974226951	-7.061777518987656	5.086308493576944	-4.295575895905495	-7.926553072929383	7.295582832098007	-1.2864186185598374	-0.9086573857069016
15.223099137544631	-3.6113608089089393	0.9712746393680572	-3.80450282484293	-2.874079415872693	4.9991394713521	1.8487930524349212	6.813838392496109	3.4984757724404334	6.615568702816963	-2.5201941998302937	-6.262287527620792	4.0088057816028595	0.5387454989552498	-6.220512779951096	-3.968411372303963	-5.407412784695626	4.1768154464662075	-2.6043251689523457	8.183278509378432	-7.347249343395233	3.50404500246048	-4.01956091761589	3.698467639386654	-0.040102436542510986	2.698400602787733	-3.9953010123968125	10.116259313225747	-0.5131569315493106	-6.399540944099426	-10.937604421377182	-0.10723078325390815
6.387763686180115	2.074703842550516	-5.248767700791359	3.881341438293457	-0.6796757709980011	6.963800336122513	-10.050928518772125	-2.1254346597194673	-2.88405654579401	-0.932923946082592	-2.717087696380913	2.978943147659302	8.391468734741212	0.07773968517780304	-1.2272024741768837	-8.54989179134369	0.7967093212902546	-0.5176603126525879	6.713049066066742	-4.460268164165318	2.536848064288497	0.2967372044920921	-11.576811542510987	-6.879617725610733	14.10012613773346	10.665990228652953	-9.621714630126952	7.16033353805542	-5.104098669625818	9.323888075351714	1.3388370491564274	-0.8063567501306533
7.07527015209198	4.840071628987789	-5.993839707970619	-13.161662014126778	-7.575164342224598	-0.23053091049194335	1.6965931598842143	1.2553642511367797	8.800979430377483	4.959798101261258	1.8708463868498801	0.8682036226987839	1.5439017170667648	-5.4315974187850955	10.955319005250931	-0.16445452898740767	4.203186073750257	7.2514986741542815	6.576088909506797	9.42304646730423	-7.723657121658325	2.3776094350218773	13.851896455287934	-9.423425636291505	-11.53116729736328	-7.3824636033177375	7.026797236800194	15.786302496194839	-7.638818126022816	-9.607150093317031	-9.778624604940415	-8.000766265541316
-3.083079783022404	-5.161055322885513	10.668994691371918	10.354552392959596	-1.8955181103944778	0.6919554265588522	1.9255522885918617	-8.772002526074647	2.3449325017631053	6.331407981812954	-0.3068491481989622	-6.622393372654915	1.5654582508467139	-2.6888888826966286	5.613715796470642	2.7684432247281077	7.4753759092092515	-6.82895266354084	1.288059307783842	2.2260444846749308	-4.406848958134651	-0.4593099436163902	-3.64108618080616	1.7502770949155093	4.49642621666193	1.959508872628212	-5.229199130535125	0.38754448674619196	-2.526696267426014	9.228206718564033	-6.75329475402832	2.5157300198078154
-1.3110986652970313	3.378272509276867	13.602677202224731	5.724888484477997	2.7507875702530145	6.24962729126215	-7.598440406024456	-4.165055961012841	7.753179686069489	-4.6279976630210875	12.795720400810241	-2.394202666208148	-7.183596484214068	-7.501935284137726	-5.492959569692612	-3.9460595577955244	-2.4046035158634185	1.89265900593251	-5.515661574602127	-2.9720209777355193	-0.09578862607479095	12.228019461631774	-2.877400723695755	-1.0659409815073013	4.73116454988718	-8.648844633102417	3.8872577038407328	-5.757591062784195	-5.511885684132576	-1.3191571645438671	6.933387184292078	-7.203094437122345
-6.352910776138305	3.8326238989830017	-3.8086304094642403	1.9176341816782951	-6.525391355231404	7.675324465334415	6.496405265331268	-3.2709054213762285	-8.922588703930378	-0.39708715319633486	8.77145164489746	-6.001573057174682	-8.354455978274345	3.086162188947201	9.809994315505028	6.099878325462341	2.9586974832415582	8.891061139702797	-3.9184239369630816	-7.300225024819374	8.05304432272911	2.340685388743877	-1.1714608282595873	0.8531553795933724	6.6586221408843995	-2.7071977457404137	0.8159523778781295	-3.020791852399707	-10.870879210233689	-5.188540282547474	2.5564225800335407	1.9404352876543998
-1.9657270896434784	8.482023336887359	8.948282308578491	-7.1163799870014195	-2.6786912617087366	-3.6015123438835146	0.8567056074738503	3.655554693937302	0.8798266315460205	4.797390423938632	-3.4352929851412775	12.05147681310773	-1.6437218502163886	3.447318965494633	1.681260916441679	-11.806062126159668	2.720285658687353	-4.511920453310013	-5.281005382239819	3.997632490992546	-11.600341391563415	-7.268163423538208	-2.8983965146541597	-2.990836289227009	5.6884814655780795	-4.410855628848076	5.430236973315477	-3.7882079327106477	-0.7812099227309227	6.682945955991745	1.9467052698135376	-6.4660166519880296
2.3388847351819275	-1.6048523390293121	5.590911260843277	-7.7523843815922735	6.886812710091472	4.794346705302596	11.266076117753983	7.272670005001128	-3.00330101788044	-9.370515447854995	1.352126826941967	-3.159437879472971	-2.145124211907387	-2.409063094556332	13.645613231658935	-0.5280026634782553	-0.6703373885154724	-10.408144249916077	-6.15228810608387	2.0722887867689135	-2.7237312710285186	4.3038232678174975	1.7898067039251329	-3.365881199836731	-3.8161265301704406	4.568498896956444	-0.5413368195295334	-3.182245130240917	-4.850953177213669	2.943985590934753	6.492499409914017	-3.9879139471054077
-6.5615701192617415	1.009518648982048	-5.431049511134624	-7.829299848079682	-4.6912948095798495	-0.9274272760748863	-7.3935217624902725	-12.475281121730804	-0.6812092959880829	2.9306696555018426	2.8292583015561106	7.850107643306256	-3.4042754216492175	4.612908248901367	-1.445419515967369	17.792973123788833	-2.3995945233106615	-1.3458811610937118	6.718476799726486	5.988993941545487	-5.42395021289587	2.2546409855782987	9.959073734283447	-10.439546312093734	-8.469106570482253	-8.011708965301514	5.408797832727433	-5.854476440548897	1.2441776697337628	15.754556994438172	0.622443060874939	6.439907263070345
9.200732878744603	14.937577629089356	-7.206821428537369	-1.0710269021987915	-0.4879792457818985	-8.338561260700226	2.4684671860933305	-7.4630002236366275	-4.143291460424662	-3.065715595781803	1.3824682211875916	3.6583644157648085	2.136858176961541	2.7562417437881233	-0.24581853359937667	4.1904374563694	2.489591056853533	-4.009958189129829	1.7377732077986001	2.5725834447517992	-8.223632508516312	-4.133104915618897	-7.03470205783844	-1.3579914586246014	2.1117845393717287	9.13184124469757	-0.9637776732444763	7.610054032802582	3.1980473137274386	4.575347558259964	-2.4713936731219293	-11.346481929421424
9.55261513710022	11.296672332286835	-3.8438587495684624	14.420308213233948	2.4881647592782974	-8.312435863018036	-8.417262202501297	3.017959976196289	-7.302780611515045	-7.30193204164505	1.4299630871415139	-6.182518835067749	6.431171511411667	-2.594828596711159	6.944014581143856	9.703119261264801	13.677137455940247	12.877271666526795	-2.538784221857786	-3.6390525959059596	-1.3674749049544335	-4.541893064379692	-1.4270134514570236	-1.234229017496109	-0.8488290290534496	-1.6837196710705757	-12.547612047195434	-5.414818404912949	-2.217411665171385	-8.550906695127487	-2.958903751373291	4.2238444745540615
-6.032175595164299	3.7791172212362287	-9.317210025787354	-5.408415741324425	2.6382050759345295	-6.557544122338295	6.070387338995934	5.823863031566143	4.424614312052727	-5.738577901721	-1.6434005588293075	4.3788137841224675	-5.69288291990757	-9.82914235651493	5.090557689070701	5.178945932388306	-0.3409868821501732	10.29349277973175	3.4188342612981795	-5.3898529341816905	-2.4659419804811478	-10.421811451911926	1.1976388692855835	10.007433977127075	5.1427341401577	0.590286276936531	10.530774017721415	-8.987255401611328	10.92352722108364	-4.338059949278832	-3.6354386523365974	9.275526797771454
-1.2311927899718285	6.773950553834438	0.05839201718568802	-6.071512637734413	-8.543664527535439	7.257903615236282	-9.373434031009674	10.113187294006348	-8.180555272698403	3.6085623210668563	10.561939687132835	10.62679272055626	-1.4536532098986208	-11.009710947275162	-6.430073299407959	4.148527334630489	-6.970577891469002	11.778987646102905	-3.022531300894916	-4.474613717794418	6.193598951995373	-5.150426156967878	6.785192086994648	10.931592078208924	-3.0369186183810233	-17.616081085205078	4.833306594192981	-1.3693338420242072	-5.74725483044982	-9.35317082285881	1.9196320834755898	9.504941799640655
-4.589246155023575	9.118644975423813	3.7049268674850464	-3.589580745100975	-5.599329780042171	-1.5068732598423957	-1.464337969198823	-7.088469622135162	-2.2990355840325356	5.950411212444306	-2.001771264821291	7.348244143128395	6.066859682798386	6.27118544280529	-1.9521015061438083	-11.50393775731325	-2.01036853864789	-2.6783613300323488	2.673842100277543	8.094312059879304	-4.079812488853931	-6.997559958100319	1.6452714684791863	7.856676892638206	3.9983614176511764	-3.2934606957435606	1.0550459873676301	3.7890175458788873	-9.126517407894134	4.492393218874931	-3.663868968486786	-0.4677001830935478
-2.5925079479813578	-3.084582403451204	3.3157209453731777	-5.005419448614121	6.772725749909878	-2.41120314180851	-1.651838634312153	12.57737194120884	6.1124276709556575	4.557506331503391	-9.536202447414398	9.022803241461515	0.11389654099941254	-12.064239873886109	0.5777490162849426	-3.3458046945929527	4.198543143570423	-11.170596282482148	12.113579595088959	8.587676201611757	1.111539525091648	2.52414281129837	-10.721408936977387	-2.6090825420618056	2.0006756219267845	-11.258943235874176	10.82279249638319	-8.3268953871727	-7.854420946836472	-2.6595760482549666	-1.4245837804675103	4.606783169806004
5.666271343231201	-0.7616853302717209	1.4616571050882339	4.977790362238884	0.5125764837861061	2.000258312523365	3.948065597116947	-5.648173089623452	-5.490429087877273	2.8300119633972645	-2.5348501701653006	-5.4236207044124605	-8.464872666597365	-0.7748798906803132	13.068560123443604	-9.408510842323302	11.590058012008667	-6.965056431293488	-0.24376823216676713	1.8290033005177975	1.0090810933709145	7.518120099306106	-10.864610738754273	-7.56259082108736	5.733615819215775	1.8386903965473176	4.286120239496231	-5.217959992289543	0.27496838331222534	2.1975137884914875	-3.8381665259599687	13.14580801963806
-7.158576638698578	6.322562018185854	-1.8703648884594442	5.56913296341896	-17.617715772390365	-10.453987820148468	4.913644631356001	-8.04173041164875	3.7256561052799224	12.033530597686768	-9.597569091320038	-1.0535985481739045	-3.4811534267663955	-4.911177960038185	-14.021625895500183	-8.989925233125687	6.255859487652779	-3.020968684703112	-3.073486001342535	-7.812164954990148	9.92040185570717	8.352596231698989	-0.23934147087857127	4.9837208935618404	-4.38230424772948	6.677298373281956	4.871276873350143	16.447260065078737	8.01674782693386	-8.760927376747132	6.793126991987228	5.390703113079071
-9.684869701862334	-0.29637555330991744	3.857777239382267	10.20594217479229	-0.7675398916006089	-2.097439635396004	-0.907921028137207	7.561181932091713	-2.0404854050278662	5.877758815288543	-6.1750926947593685	2.263093127310276	-2.998895176574588	-5.146798231005668	1.3040230602025986	-4.854293534755707	2.6203346437215806	-3.7770176911354065	12.35433384001255	7.640990525484085	-4.875024309828877	-4.504242394864559	-4.12847212985158	9.274336090907454	8.697428730726243	-14.864634618759155	3.258035176843405	-0.6010027575492859	-9.467451815605164	-3.2057509341835977	-4.942947164773941	6.784346929043531
0.4269537678360939	-1.052597145140171	-11.660965822935104	-0.6260335183143616	12.291837811470032	-6.980140209794045	0.9722361318022013	-8.517649317979812	4.003453210890293	8.70970516204834	-14.464164613485336	8.520380547344685	-8.409653671979903	-0.4773234251886606	0.18445117235183717	-3.3094938683509825	-4.485521032214165	2.0801561869680882	3.6114939039945604	5.392941366136074	-0.3537150978296995	6.630003221035004	-5.388792505264282	-9.242147535085678	0.908344200849533	-0.3501764544844627	8.34497344866395	-7.5223237913846965	-5.746799545884133	7.520711441934108	-3.05465716779232	10.198556978702545
-2.32846292167902	-2.73893117710948	-0.34287927724421025	-6.207115348577499	-4.686702672839164	-11.055984930992127	-9.101344325542449	10.656317013502122	0.18552774250507353	7.708518580794334	-8.377959175705909	11.648357548713683	-3.9011546783149242	0.9941658100485802	-2.1132449263334276	-6.5780519972741605	-1.987707549482584	-8.186000809669494	11.53062420129776	15.23243579864502	3.705245288014412	-5.763140612095595	-3.9915887942910193	-3.16588762357831	6.722521588187664	-6.925689053535462	16.269590392112733	-3.447565833926201	-5.0378486877679824	2.9583723959326744	-0.8044610071182251	0.06312047362327576
4.318512392938137	-13.791781234741212	-2.9819744604825975	4.158222807645798	-6.171008230447769	11.964249510765075	0.619984669983387	0.422477730512619	-4.136692313551903	-11.350167236328126	-5.025916043370962	2.3066889253258704	-8.882657747268677	9.503170431852341	2.846644342392683	6.734432405233383	6.937903887033462	-6.468065742254257	0.38139254972338676	0.5349131798744202	11.708986485004425	7.079050265848637	-10.7271988260746	-1.5345688006281852	7.790550768375397	-0.4838895148038864	-3.1555175894498824	-5.490267830491066	5.015814464688301	-0.12905520498752593	-4.041186815500259	14.911795778274536
-7.450848115682602	6.817888346910476	0.1899912340939045	6.880846263170242	-21.1892165851593	-9.882020697593688	5.66699096262455	-4.252833505272865	5.182272791266441	11.352605085372925	-9.35347136259079	-1.770716938972473	-3.9819803631305692	-7.415615548491478	-15.01610948085785	-9.505084307193757	8.239373588562012	-3.737080425620079	-1.1548988576233388	-8.267310158014297	12.379003682136535	8.47353809595108	-2.7427785691618918	7.743473517894745	-5.520747137069702	5.212467946112156	3.877348303794861	18.728509311676024	6.269047225117683	-12.187623360157012	9.046212579011916	3.613190230727196
6.911067750453949	1.8286145941913128	8.619123363643885	1.8419647598266602	-8.299778389930726	-3.848022137880325	4.058503739088774	-2.8688522878289224	0.48573754489421844	4.117135064899921	-1.6903682658076287	-2.2640799893438817	-4.79289462685585	1.2358460441231727	-0.2231234948337078	4.035938447117806	9.128626565933228	-5.431685302257538	1.0090970906615258	7.9268388068675995	3.5547526931762694	-9.089410395622254	-5.495213385224343	-8.553737089633941	4.19597127944231	-7.973253223896027	3.2926664727926256	-1.9933813554048538	8.604652442932128	0.589273505806923	-7.591706976890564	7.711217465400696
5.886766507029534	9.854557058811189	8.389478538036347	-2.1997773803770544	-6.728168221712113	-1.3009742075204849	4.096255107223987	-5.266676050424576	0.4578824329376221	-1.1110721715539693	-5.5206985342502595	-1.9548576341569424	-3.945116837620735	2.46963944286108	-2.127918283641338	-0.610311433672905	6.493336687982082	-1.0332319808006287	-2.6445055076479913	7.361974426060915	-0.315099126175046	-4.1548795473575595	-5.922410540580749	-10.093049426078796	2.4880881318449974	-3.5402610617876054	4.472124402523041	0.35425738982856275	9.963395986557007	2.888155813217163	-5.181987655758857	8.540711500644683
-7.700220656394959	3.1644038107991217	-7.3478392702341075	-8.03636926844716	3.2147049510478976	-1.5595724558830262	-6.330153583288193	3.4164204531908036	4.263371247798204	5.500764937996864	6.1196487632393834	1.8564368280768395	-7.2067974600195885	3.549813493192196	-10.702524445056916	-2.181824590563774	0.6151635845005512	8.3671101218462	-1.9394740691781045	12.388078162670135	0.4367942237854004	2.7785902331769465	-7.333857306241989	-0.3052218230813742	-3.2279825213551523	-10.98589273929596	9.249963357448578	0.940666025057435	-5.864459191560745	3.406738296598196	-3.3665385240316392	8.569302738904954
7.813013564944267	-6.896223334670067	-0.5912786415219307	2.515176250934601	-3.9321375632286073	-6.347648666501045	-2.8478919020295144	-13.587074790000916	0.3900965157151222	2.229995381012559	-6.24489940404892	6.706137185692787	12.638237884044647	3.067961693406105	4.6038240578770635	-4.985822679996491	3.766203670501709	-4.157677323073148	-5.413511023819447	-2.2197019374370575	-2.0714188537001608	-8.613240540027618	14.352056193351746	5.105288877487182	0.4880228751897812	2.2167439609766006	0.2618146152794361	-10.944804663062095	-6.501785425841808	5.356917716264725	9.924247794151306	5.1932158076763155
-2.107846421003342	0.8216127435863018	-3.2055355554074048	2.4604660773277285	-9.951963577270508	-5.024875627756119	19.703317213058472	-5.2348096919059754	-2.805586329996586	4.495624529123306	0.10040581524372101	2.344332315325737	-4.478064191937446	-3.485030002295971	3.5085437828302384	4.236691678762436	3.1441016817092895	-1.8660302859544755	8.213069429397583	-4.343856053352356	3.604613141193986	-9.858408885002136	3.8618884998559952	8.524385027885437	-4.167903790920973	-1.2340502071380615	4.368917188048362	-7.579914069771767	11.574407258033752	8.392987884134055	-13.646499652862548	0.940152952671051
-0.5169476082921028	11.60820046722889	2.5972751027345655	-4.0743483990430835	-7.469826693534851	5.999371372163296	11.464608467221261	-9.027317051887513	-2.71820137873292	-3.4656256729364396	-4.525014234781265	-4.050067864358425	-2.597644547522068	4.050217332243919	1.4873926508426667	0.8359631392359733	8.413799038827419	-0.10175247132778167	9.68971509218216	5.288704929947853	-3.184178324714303	-7.1036705613136295	-4.801921649873257	-11.183783422708512	4.58208504140377	-6.595534182786942	-1.3963530480861663	7.012663496732712	10.915811309814453	-4.084321644306183	-3.993038038611412	6.763784599751234
-9.88372908592224	9.77634137392044	-6.401015042960644	-2.518646089583635	3.8919090139865875	8.526740597262979	-1.4195648214221002	-1.6198018249869346	3.619738570153713	0.765607834160328	5.831844280660152	3.7259569704532622	-2.739795144200325	-3.222372482419014	-1.8058624747395515	-5.638287824392319	9.92537215232849	4.519381170272827	-4.655260315537452	0.11273307807743549	-7.608933604359627	8.265271130800247	-6.6943181240558625	5.365333293229342	0.7371224933862686	-15.091506481170654	2.377519468516111	0.8890990785509348	-4.233999885320664	-6.4698719637095925	-2.8634449243545532	8.719894254803657
-3.224340071082115	-6.4448222327232365	3.244047695994377	-2.8868840466439725	-11.189664115905762	-6.626625310480595	-5.949135122299194	15.75024158000946	-2.525940115749836	-0.08291704565286637	-12.667781324982643	5.779599622040987	6.844866601079702	-10.274033067822456	5.265556977391243	6.2988903802633285	5.240537057518959	-13.504152707904577	13.639218854904176	7.021314142420888	-3.203570145070553	-7.156870881915093	5.741263920664787	1.5360776904225348	-1.9136128985881806	-1.2543551769852639	17.75813078403473	-3.420151199102402	-3.976059555262327	4.719089873731137	0.4693901926279068	-1.272163535952568
-3.78319143474102	10.40082880973816	-9.648746951520444	9.784580845236778	-10.277965369224548	2.462254333794117	14.741579794883728	-2.7579910013079645	-2.9318227046728134	0.7401201473921537	1.8587449193000793	-3.008738900870085	-4.693134178817272	-3.204370245039463	12.343315644264221	-9.477656137049198	4.824693254232407	6.303566372990608	-10.672940955609084	-3.191852568387985	13.389816591739654	-1.6174538558721543	14.61770028591156	-0.6118983814120292	-0.42616657555103304	1.2073290345072747	-13.223452297449112	-0.21300554603338243	-13.587038850784301	-8.689211157560349	10.504092821776867	2.102753191292286
-10.655978865623474	11.813517112731933	-7.665081661939621	-0.2870518156886101	-5.818496305570006	-2.5130166060477497	-11.59376093864441	-3.8322171798348426	5.458136122822761	3.8182471960783007	-2.6518842816352843	4.868589688539505	-7.385505538582802	-5.763293872475624	0.34337547451257705	-3.2195820248126985	2.7251576846837997	-2.541380034685135	3.9699069257080555	-8.92618769109249	1.5415176865458489	7.950995026826859	-2.8481954607367514	7.743521156683564	4.895455619096756	-1.3340180304646492	-2.5936378444731236	5.943173130825162	7.912114647030831	-5.482122275829315	1.709431727528572	3.156328758597374
-4.303163304924965	-4.4329087151587006	-5.817102152705193	-3.2854791659116747	7.300876647233963	3.9111101740598677	2.9239829121530057	0.9084622412919998	7.437871636152267	1.849691819474101	-8.23373750269413	-1.1709123384952544	1.1659858136624097	4.868340204954148	4.821059627532959	-12.68604525923729	2.9762041184306143	4.560327979177236	6.933463959097862	-11.60440598487854	8.199012225866317	-0.13152792617678644	3.217834543585777	-2.360144382119179	-3.228793271780014	2.3114629808068274	3.1515872244536878	0.48561209093779323	-14.500262696743011	11.03050853729248	-0.670851631462574	3.3092879489064218
-6.356108476221562	4.492069898247719	4.848279112577439	6.921215863227844	4.750754687786102	-3.9897587922215463	6.35004275560379	-13.593404445648194	-0.697228352278471	5.09360501408577	2.3907868069410325	-5.447906196117401	5.556277145147323	-9.204664947092533	9.401290447711945	2.3347918877005576	5.958881072998047	-4.5049660110473635	4.8032881081104275	-6.103708744049072	-2.6250793427973984	-2.177444489002228	-0.22722849681973456	4.6062808173894885	-6.507145767211914	8.980794117450714	1.0027709287405013	-3.303990345597267	7.127358986139297	6.9524746078252795	-4.465055490136146	-4.81112955480814
-1.1606181862950324	7.019197336882353	4.4718673864006995	0.6707583218812943	-4.67205459356308	6.704694943726063	4.8834646344184875	-10.749900079369546	-1.2417692694161087	-3.9768357945233586	-2.8107732090353967	-5.2984446120262145	-2.584635961353779	5.748241195380688	0.8434863176941871	4.008459851145744	7.70178994178772	-3.892819213271141	10.309079538583756	6.27554498553276	-3.452780650854111	-7.718263103365898	-4.772537945508957	-12.946049246788025	7.682671122550964	-6.304001131057739	-3.6421320956945418	9.28863749474287	9.029907047748566	-4.637045896053314	-1.6895542795956136	5.148244535103441
-4.818000313639641	6.771743793338537	1.9576966041326522	-5.222437378168106	10.317812976241111	0.33792274683713913	0.973150044977665	3.6152174411714078	7.260162074565887	3.9386187943816187	-0.5257091531157494	5.553284447789192	-6.568379999399185	0.8521452856063843	-3.1953709560632704	-9.394234313964844	14.387246609926224	3.683719631433487	-10.00453766644001	-0.12603121519088745	-10.654595824480056	4.587179372906685	-6.600049261450767	-7.095955003499984	-1.5396212930977344	-10.07170163154602	7.351526485681534	-3.1442327642440797	0.09728164911270142	1.3621307829022407	-5.184109926223755	1.3322952198982239
-3.6411803835630416	-7.468215260505676	-7.84323955655098	0.08440097093582154	-8.349601812362671	-11.270514283180237	-2.6736440686136485	0.6228761672973633	-9.764652156829834	7.974021364450454	-20.81302053451538	-6.591007854342461	5.359868109226227	-4.921739841401577	12.955137453079224	8.714126461148261	3.9011879736185073	5.198630405962467	13.040895721912385	-3.5826520171016454	9.0962331199646	-7.684344909191132	15.106442575454713	0.20325210824608803	12.05301545381546	-1.0225088304281236	5.242368115186691	-1.7426995635032654	7.822493462562561	3.528575097471476	1.6677434647083282	-23.382692756652833
-10.224609780311585	8.566718503236771	-7.020513073205948	4.66095353513956	-11.007463734149933	-8.500681561231612	-0.9372191774845123	-4.1707784831523895	5.731500628590584	8.909614844322205	-1.8062178352475167	-2.7607943569123745	-8.885246813297272	-7.426799795776605	-5.558060805797577	-9.919427993297576	9.352495719194412	-4.524544893950224	3.232285671085119	-6.980128432586789	5.4974674563109875	11.563109200000763	-4.416030593216419	10.8279909324646	7.450467577576637	2.0077055215835573	1.164930335879326	3.0010034937411545	10.74672504901886	-0.9531907814741135	1.2842595268785955	-4.525228578448296
0.4071755945682526	7.7880300259590145	-11.768609275817871	-5.974271443486214	7.299294304251671	0.9425306200981141	-5.616027071177959	-5.910941393226385	-2.8420518086105586	6.056087731793522	-0.7054850772023201	-9.30905672609806	5.119241921305656	2.437129408940673	13.620628156661986	-1.4819225886464118	-4.186674260497093	12.66699925661087	8.117214953899383	1.8197848510742187	0.6342878556251526	8.462880773544311	-3.5023527085781097	-1.061223851442337	-11.731214241981506	-4.1439115178585055	-7.060274666547775	2.746177571415901	7.869892358779907	1.919569747596979	-0.37063406854867936	-3.009428813904524
7.739630079865456	0.021318781822919845	-8.53951730132103	-4.973719279170036	-0.05621892519295216	-7.03540869474411	-4.2473789678514	0.595690400339663	4.075061037987471	3.328829413056374	1.5792829722166062	3.903409832715988	5.587031084671617	5.850064387321472	-1.6822059029340743	-2.667995908856392	-3.140173491537571	8.347900547385215	7.210982248783112	3.1478793954849245	4.626110901832581	9.694664010703564	3.926697450876236	-8.62931662261486	-0.18170157849788665	1.020078451782465	3.4185081419348715	0.8760092980787157	-9.553350957632064	-5.396418021321296	-12.52664863139391	2.4504800375178455
8.53394387125969	6.475539431422948	-8.747256834506988	1.8025519517064095	-5.286173801124096	0.19822379261255263	11.01809594631195	-10.32170022368431	-11.581402997970581	-3.2226643806695936	-1.9855738978087902	2.3450481045246123	-9.567000503540038	-3.016416764855385	12.868664922714233	-6.692249975204468	7.283421783447266	-4.189488591551781	3.0717478477954865	-4.969824740290642	0.7885098903626203	12.192133042216302	-7.123970041275024	-3.628670872449875	-1.84595518887043	4.981632103323936	5.454656447172165	-8.722253787517548	12.175882542133332	5.173654296398163	-7.568921205401421	14.806647262573243
-0.4437417680025101	-2.2370273739099504	-12.0259920668602	-9.874678607583046	-2.063410046994686	5.435613617300987	8.73216730237007	1.914254352748394	3.1175124255567788	-1.1242996880412102	-10.470188215970992	0.21196129873394967	-11.307511491179467	-8.43724259018898	-2.137213931977749	-5.81690172702074	8.676555375158786	4.324805620312691	6.761525926589965	-0.7437754827737808	1.5558857157081365	1.3818483790755272	16.77586846590042	-10.472073838710784	8.62509166955948	-3.7105947586894037	5.732767155766487	7.998105661869049	-8.718037889003753	11.110703356266022	-2.5347454868257047	3.481566107869148
14.386038602590562	7.26520689919591	-10.469182977676391	-9.371175439357758	-8.027080640792846	-2.1835525444149972	21.784946727752686	-0.2185139337182045	-11.56892795085907	-6.566842864751816	-4.003255207538604	5.074618628025055	-11.455810704231261	-8.496008548736572	1.3971844124794006	5.733000040948391	1.673985630273819	4.1628318613767625	9.894984865188599	-9.159522831439972	6.582005215510726	-1.33564917948097	-5.502050596177578	7.929051783084869	-1.5164872980117798	-1.4890693241357804	8.32405259370804	-11.535078744888306	14.283334293365478	4.351964711099863	-11.28701328277588	12.077822918891906
-2.723467252030969	-5.118528214246035	-3.784363635182381	7.832982541322708	-12.984612293243408	-0.08486915446817875	3.5334559743106366	9.733179520070554	-2.131302721351385	10.331030132174492	6.497334618866444	2.6092609360814096	4.014733621701598	-9.558109438419342	5.106114124059677	2.8939095681905744	-4.419748251438141	2.6003015366196633	10.89045965194702	3.4770440489053724	2.0941486874222757	-3.1200221401453017	1.6499788785167038	-10.980780347585679	-0.7936385652422905	-2.53759346306324	-4.237959602177143	-3.8584762281179428	-4.569240080565214	-1.5891951581835746	10.158374735116958	-5.239660953879357
-1.8923784548044205	3.317934205364436	9.479831380844116	-0.3955200928449631	-4.081834539175033	2.6355423444509505	-5.398053035736084	-7.173587992787361	1.9178342229127885	-3.5980057664215566	-0.3239083769917488	-6.095901033878326	-3.284606966227293	9.834058742523194	-2.369926551580429	9.693102007508278	6.064338009357453	-2.5341707769036295	10.944718036875129	4.845664744377136	1.8255134787410499	-9.872865052223206	-3.1111403000354767	-13.157237992286682	11.046275897026062	-9.506182332038879	-6.017338985204697	12.002013243436814	1.65978124961257	-6.889637178182602	-0.7208477586507798	3.1443007771670817
-1.5493288326263428	0.6608646774291992	4.3851079580187795	-13.635435683727264	-15.056892842650413	-10.277872705459595	5.296755672693252	4.2663411152362825	3.918927454948425	-4.0189830791950225	5.63297423005104	6.09080912232399	7.642326956391335	-7.963514379858971	-8.64565372467041e-06	0.029565120041370394	3.4299745351076125	-0.9673740601539612	0.3277339324913919	-1.6616186809539795	-8.585663186311722	12.627484338581562	5.973296935558319	5.680862878262997	-0.5392086517065764	-8.31121461391449	10.663169162273407	2.8424634793400765	-7.916543620228768	7.503457412719727	5.696528765931726	-9.903128107786179
10.167552347183227	-3.3757655990123747	1.2251906818151475	-3.294721871614456	-1.4102957221865653	7.712775813937188	-1.4238908889889716	-1.975639632344246	0.2013023792952299	-5.774672895669937	-10.776098272800446	3.13394122004509	0.24723301589488983	7.462247208356858	0.46213977962732317	-0.05046365231275558	1.901155720949173	-1.7070715716481208	1.0207906122319401	6.936011944413185	-7.100752873420715	-0.27291038155555725	-4.691237562298775	8.928884258270264	6.694071334302425	6.198701251745224	-2.929868490099907	-5.097354166507721	8.550578474998474	-4.397377542257309	-5.54500552713871	-3.6333000266551974
-2.3903228291869163	-3.291573889553547	-7.729643271267414	4.504630443453789	-1.839225907921791	-2.2292453408241273	-7.735793004631996	-0.5977391958236694	-4.796117267757654	4.024180283248424	3.559786849021912	-0.12590919069945813	-1.0879181265830993	-11.220439674854278	-0.04967769518494606	1.1625792449712753	-5.736614303290844	2.0083535784482955	4.299317186921835	4.214445511996746	10.545661879777908	2.321375750936568	3.8131564059853553	-1.3961713898181916	-2.685989937931299	-5.297625450491905	3.380549514591694	5.507488600611687	1.3246918047964573	-0.8657827192544937	9.212456611990929	-1.1091722509264945
3.9416107460856438	-8.011147771924733	2.512186558842659	4.240593439042568	-10.112085909843445	9.491860226392745	-9.011979866027833	-9.802678198367357	-3.5875620394945145	-4.119013580679893	2.119924609065056	-15.082129740715027	-10.414119696617126	5.782932406961918	-1.6870869387686254	14.412990441322327	-2.8738621558621524	2.6255461901426314	14.195293354988099	4.740054299235344	13.452845610678196	-0.5333576136827469	-2.653113347440958	-0.401033524274826	3.6828600680828094	-5.567945238351822	-4.996647163033486	12.035452086925506	-0.8797963890433311	-9.933945149183273	1.0877844022214413	7.651903451681137
5.87992750108242	-1.2430613139271736	0.26551625221967695	3.65565938949585	-0.13800775974988938	-13.01677050113678	3.1311218336224558	-5.7927292957901955	6.776188106238842	-1.4699676129221917	-4.883580195605755	-4.710096747726202	-3.494637365937233	4.472362282276154	-3.1499487977474927	1.890784182548523	8.496701513528825	0.3734662353992462	-2.1165075537562372	6.587491472661495	3.8102048307657244	-4.371403502523899	3.907627789080143	6.234042419344187	-5.0372712469100955	8.493770141601562	3.009282021075487	-5.022861723899841	-4.83200579598546	3.1119511491060257	5.143353765010834	-17.896935806274413
-3.235870246216655	-3.892611844986677	-10.459172348976136	4.686801550090313	-1.7837115141749382	6.069221019744873	8.463783822655678	3.8844722402095795	0.8185853251069785	-4.621652298569679	3.783678049147129	-3.7167615123093127	0.16375962026417257	1.7800868135690688	-0.625380919277668	-0.48375508837401865	-5.55484489262104	7.567909268885851	-0.042781119719147685	-2.164107089936733	7.8691404622793195	3.394412707835436	1.8872882279753684	-4.9120181228220465	6.773220872879028	-0.19937699884176255	1.542382125854492	1.8214882129430772	-6.83022705256939	2.6021061186492442	-5.520637539923191	1.42940423309803
-1.253518183529377	5.790845627188682	2.362117214798927	4.0046036028862	-2.2996675941348075	7.858350277543068	4.7035494694113735	12.875988891124726	-4.8132050806283955	-1.0168380543589592	3.9426129698753356	5.943259199857712	-0.5407797799259424	-0.7105869928002357	-14.602303066253661	-5.67096711575985	-11.133598325252533	16.04772283554077	0.2395033110678196	-7.55746240735054	6.38222632586956	-5.270169354230165	-0.4259344719350338	14.023184993267058	-11.227452127933502	-9.546164643764495	-3.970836458802223	1.4792605224251747	-6.458174058794976	-8.092725665420295	1.5578292632102966	7.22378971517086
9.14856614470482	-1.9956835046410561	-10.187135636806488	-4.246466470956802	0.9319619762897492	-7.388851721286773	22.544092502593994	6.07097402215004	-15.338584337234497	-10.510297651290893	-5.786238172054291	5.459404418766499	-9.672664473056793	3.1781385654211043	-6.313389631509781	11.94827296257019	-1.2228471767902374	-2.795394647717476	6.45128499686718	-12.238478870391846	12.998979771137238	-6.776326248049736	4.873053153753281	9.960307468175888	7.902930830717087	4.20174056828022	5.469266972541809	-16.288478384017946	16.015545663833617	-3.947752074897289	-6.455264632701874	-0.21564339399337767
5.54670983672142	-5.71350984454155	3.6927339065074922	5.985910336524248	-7.416483208537102	-9.436840105056763	-5.526200396120548	11.269704036712646	12.72026262715459	-5.472339011728764	7.74733878493309	-14.963806228637695	-0.760279421210289	7.539720013141632	4.737175638079643	0.6001332211494446	4.463308102488518	-5.435750321298838	0.9747812858223915	-6.840301922857761	4.158164693713188	-2.812359044551849	8.03399581849575	1.9342117255926132	-1.2409988144040107	7.348772391676903	-2.839324698448181	5.973272879123687	-10.824442068338394	-8.68489981174469	4.22692853808403	-2.074499744474888
-2.3983204326033594	6.519266682267189	0.7611076709628105	-1.7292959973216058	-8.934103398323058	3.7025053524971008	2.518871113061905	-9.48291097253561	-0.26633296221494673	-5.273741508722305	-0.7602468983083963	-10.017253809571265	-8.05602045059204	2.4630030073970555	1.6380409897118806	4.785840211808681	2.3225373795628546	-2.454267440587282	15.68847955942154	4.491270438432694	-1.0603470009565354	-2.2973693805932998	-1.4949618227779866	-6.25352941095829	6.951655238866806	-5.523157776594162	-3.3858736741542814	9.332192300856114	6.713905354738236	-3.4938564601540567	-0.22708639323711396	9.818807762861251
5.738067983388901	1.7698817026615143	1.7729157489538192	6.371518617868423	-2.260835602283478	-2.369199952185154	-0.45787507891654966	8.422415242493152	-2.479208845347166	-2.0429384285211563	-14.203926973342895	-11.856803874969483	-3.658329291343689	8.58691764831543	17.13764713048935	-2.383379195332527	-0.6059270751476288	-0.42264135256409646	3.1248394732922318	-9.237768650054932	5.897501663565635	-7.926958895921707	9.165651905536652	3.316035422682762	4.198187655210495	1.775340389609337	-5.274279382228851	-4.177073127031326	0.8867229968309402	-3.7562761020660402	9.016687739491463	-14.935089943408967
-2.447018587887287	12.294652724266053	-6.5761574193835255	-4.2686351019144055	-4.03194317728281	10.747221621274948	-4.680614632517099	-0.4783783793449402	-2.707310839891434	1.2705052125453948	2.3436569473147393	6.066699655354023	-0.04135446846485138	-5.352660661935806	-5.032685649693012	0.1827188514918089	-0.4665490084886551	6.618644186556339	-11.979346091747283	-3.574110403060913	4.0613339093327525	5.647186379730702	1.308841704428196	8.486154831647873	-5.039535408914089	-12.617810826301575	5.7015355637669565	0.45961293160915373	-4.839625037312508	-8.697971221283078	1.626828826367855	11.332214941978455
-2.3833026078343393	-5.926470638513565	11.990599694252014	-0.8465626615285874	-2.509660217165947	7.8689554405212405	-4.49777107745409	5.461083104908466	-5.918498201966286	9.62701581954956	-1.5653462332487107	-0.9941623178124428	-1.9123491349816322	2.274240884184837	-1.7213992440700532	-9.85175204694271	7.954279594421386	-6.842508568763733	2.081970042288303	-1.7699637633562089	-12.66654409646988	2.9593387138843537	-6.545865326821804	10.11057463645935	11.352449297904968	-2.1603333133459093	-4.933374344706535	6.346135734319687	11.754666500687598	-5.514548101425171	-4.384534370899201	-4.216706559062004
-2.038178581595421	-1.9464364928007125	-11.679191557168961	6.5108450520038605	-7.242337558269501	9.114322285652161	9.645911720395087	-8.783363370895385	-5.938594847917557	-0.3884767800569534	-3.3842594534158708	-3.321748145222664	-5.971653563976288	-2.685074977874756	9.995558576583862	3.6972931534051896	4.707546481341123	-2.296321594119072	-0.15800221741199494	-1.693857009485364	0.9064366599917412	6.38606347322464	-4.309690913558006	4.108303654789925	-2.825694968700409	7.745097999572754	-13.947808103561401	-1.2060000263899564	13.830181593894958	5.488710216283798	5.64721051454544	6.397638442516327
4.565455931425094	-10.030384229421616	2.7975854539871214	0.9284590482711792	7.445781162977219	-9.633205800056457	1.3406149345636367	-10.702334513664246	9.503091447353363	-0.7357653933763504	-3.0412139040231705	-6.195366845130921	-6.058028804063797	6.6924011901021005	-4.530391010344029	11.034729342460633	11.162349081039428	0.5563301247358322	2.2805962817370893	-1.6673652923107147	-1.7388728338479995	1.1273681493103505	0.4190269923210144	1.3239991424232722	-3.0782295137643816	6.439539931863546	5.577577623128891	-9.422933047413826	-7.620939826518297	8.00094289302826	9.457115399837495	-15.322596171498299
-3.6956375351548196	-5.72066423535347	4.570430645942688	6.810718142986298	-9.062279036045075	1.5574610540270806	-6.940302121043206	12.339912183880806	-6.5837020385265355	9.86054286956787	0.5706440690159797	-12.185133273005485	-0.8048839578032494	4.982255394756794	-2.4261910665035247	-13.10294331073761	17.30009052991867	7.184217830598354	0.2616489066183567	-9.513872337341308	-3.7591871548444034	3.800559006333351	-15.345956301689148	15.75760684967041	8.549695284664631	-6.66925507619977	-4.703295755386352	10.668475506305695	5.728373059630394	-9.651903730332851	-4.45512600839138	4.386043518483639
14.310904986262322	7.5224612987041475	-9.552685598134994	-10.294350666999817	-7.894277665615082	-2.013890956044197	20.86233541727066	1.0955039782822131	-11.136723754405976	-6.156657876372337	-3.6146251446008684	1.8178110620379448	-11.31380211830139	-8.803766963481904	1.16818006336689	6.882303795814514	1.2635031418502332	4.675785654783249	10.062737163305282	-7.914988272190094	6.132346487790346	-4.096553610116243	-5.216132601797581	9.184438554048539	-0.29935848236083984	-0.9534207445383072	8.07849223613739	-11.234998774528503	14.46806212425232	2.8247694589197634	-10.820845856666566	11.69065719127655
-0.08003662802278995	-7.024811760485172	-1.9012130099534987	6.064331708550453	-6.8662290340662	-6.2466079306602476	5.7178414499759675	1.859003877490759	7.919529623389244	-6.450208894312381	8.603949854671955	-1.6275543761253357	4.410278809666633	5.034062787890434	2.260532146692276	2.986672561764717	-3.4885106736421587	1.1002142530679704	1.3045085789263249	-7.28921676337719	4.7003480073809625	-1.187090539485216	4.922242795825005	-2.52433190792799	2.5675795975327493	4.593567925989628	0.2517202961444855	5.078188721239567	-12.663829963803291	-2.194294605106115	-2.447595308125019	1.6417862397432328
-2.590179815888405	10.136763300299645	1.1884858104586602	8.58196150302887	-6.805407959222793	3.51861798517406	10.973116340637207	0.4186084643006325	-0.7793089285492897	3.989063869714737	-7.118631196022034	-1.2464255277812482	-1.2044107200205325	-6.549284029975533	2.5012415745854377	-7.292490041553974	-0.6270084454119206	7.528187032938003	-8.819733202457428	10.836523264050484	0.6964352240413427	-1.7039610366523266	10.883812158703805	7.24603574693203	-9.622662625312806	3.6804560267925264	-13.269424195289611	0.24265953689813613	-13.659515179395676	-10.473760812282562	8.669061505198478	0.44285935536026955
-8.038279604911803	-2.7495328509807586	6.370918444395065	5.557846224308014	0.2687870019674301	-0.912702377140522	11.666625628471374	5.921927332878113	7.2390788352489475	3.9074654746055604	-11.848746891021728	-1.9753252702951432	-2.283718590289354	-10.847991572916508	2.3434523797035216	-2.210941313803196	14.88737284898758	-10.174537714719772	10.765520104169845	5.554982434026897	0.8132247890532017	2.271769493818283	-8.408713685274124	2.3829969180747868	-0.769480784535408	-13.156438598632812	3.4023612062633037	5.170948241949081	-12.980647872686387	-0.7245726622641087	-3.5723278814554216	1.396085372567177
-8.599364071488381	2.1441575019061565	-5.755445666313172	4.848172524124384	4.301012672781944	6.619938747882843	-2.944822986125946	-3.4043053194880484	-5.024626642763614	0.7003384809941053	2.2147300615906715	-4.25762494802475	-4.450674998760223	-6.387972451448441	10.656655352115632	12.172805778980255	-9.471153556108474	5.672556554377079	-3.781929714381695	2.03762544490397	7.310560308396816	-4.713108046650887	6.2968221175670624	3.7414807334542273	-5.294460157752037	0.06131547212600708	3.191646217405796	0.8853032946586609	-4.956969107985497	-3.6509149092435838	3.4424984073638916	4.846781863570214
12.206650710105896	6.258552681803703	-3.003194545134902	-10.60141175508499	-3.4264121609926224	-0.4858007895946503	-3.5426024857163427	2.848892727792263	-1.7101149982213975	3.499902860224247	5.910164037942886	13.179505519866943	-2.988177537918091	7.66000261425972	5.440581514835357	-5.822148399353027	-7.047070518732071	-1.1660977309942246	-2.615503959208727	9.785274986624717	10.32846983075142	1.2671310426294804	-6.687381847500801	-7.5788428544998165	-5.499473489820957	0.9772627539932728	-8.260358989834785	2.057835468798876	-6.634309746026993	4.610956476628781	-3.7554670271277426	-3.610099645555019
7.6427303826808926	6.961016471385956	-15.309999794960023	13.99326029419899	-2.6032217317819595	-1.7774540835618973	4.08309019446373	12.085713502466678	-4.36560599938035	-5.765851221084595	-6.241566598564386	-8.282879223227502	6.616991977691651	3.187447525560856	-0.48588421911001206	1.9043852454423904	-6.132009654045105	2.254872359037399	0.2844975519180298	-7.874389742016792	2.5052534797787667	-1.0301206360757351	8.58708969116211	-9.271919679641723	0.7006601935625076	4.547779663801193	-5.860008697509766	-7.830120228528976	3.688416831493378	-2.358735970854759	2.5872551026940345	5.957673583626747
5.893941839933396	4.967930760383606	12.053685894012451	-4.57000649958849	-2.92704126060009	-8.047659153938293	-8.113764822483063	-6.365396513044834	9.428930097818375	8.72321024172008	-0.2978733442723751	0.5509914554655552	2.0431188432872296	-4.2057284954190255	-3.1968591441214085	9.742935588359833	3.329692820608616	-6.626082335710525	-2.7810794934630394	6.903956650495529	2.728710861504078	-7.586743988990784	-1.5324260050058365	-7.165032730102539	3.8918269526958467	-7.2917556631565095	3.4720077885687353	-1.507415579855442	3.6567011581361295	1.5452171224355697	-5.68841300368309	6.997312726676464
-6.0723581808805465	-1.5646051248908044	10.59552131742239	13.417471647262573	-8.193262541890144	-8.21538909316063	13.808441910743714	11.597672052383423	-5.944771756529808	0.5356586411595344	-11.161902353167534	3.215059787929058	2.3212061198055745	-5.212967330813408	7.369782246351242	8.623681478202343	7.069277499318122	1.3709221678972243	6.224322277009487	6.215880802869797	3.796059612631798	-9.425087234973908	7.997679150700569	5.205055010914802	-8.776536553502083	-6.756108059883117	-1.5460756786167622	13.315768570899964	-20.459213886260986	-11.159750965833664	-13.687429735660553	-2.966645390689373
8.839878849983215	-2.537936286628246	0.6294684091210365	2.45278722345829	-6.643464722782373	-8.512417806982993	-4.825599662661553	9.738502810001373	14.449167017936707	-8.02570270895958	7.551404314041138	-16.170775446891785	0.8275313079357147	-1.7396368647366762	9.291251056194305	-8.616335861682892	8.285415687859059	-0.3547022894024849	4.350396277606487	-5.218007232546807	6.132254886329174	0.5411405903100968	13.491335415244102	7.435341881513596	-8.103374724388123	5.064348846822977	2.4895718097686768	8.145423588752747	-11.326963301897049	-9.461257934570312	-4.738016135692597	0.118002909719944
7.910681856274604	-1.748249750584364	-6.705067355632782	-2.820883156657219	9.541015000343323	1.4087859532237053	1.2822722646594047	-5.818582899570465	5.6700795179605485	-1.7128154137730598	-10.577936930060387	-4.58928576529026	-9.403311820030213	6.149085405245423	-0.17139307424426078	1.3025872907042504	10.77466736316681	0.4349265062808991	3.7990989787876606	11.200035710334777	-1.763450993001461	-1.0084408235549926	-12.055492753982543	7.3074302172660826	4.867715470790863	5.811233978271485	-0.15012092396616936	-0.48443077504634857	6.1686342597007755	-0.2875665909051895	-6.111174477338791	-14.734964385032654
-2.033535539805889	5.113785800635815	-15.961066126823425	-7.576597326993943	3.1139488869905474	9.972072060704232	5.400302698016167	-5.3631381106376645	-7.732082298099995	-12.575522648990153	-2.6160167801380156	-2.44461561113596	12.02777850151062	5.866841187700629	1.6692550534009933	-4.6037019473314285	-2.7913404262065886	7.766631370782852	2.6402860399335624	-18.569064621925353	12.076538910865784	5.648490817844868	13.84111398935318	-12.458573470115661	4.730292955636978	-10.662099699676038	-10.59194056034088	-1.7261017811298371	2.369823963046074	0.5429986572265625	21.226523368358613	5.308294123560191
-1.2340159234404564	-2.677937962859869	0.279531364440918	-1.3393744006752968	5.255846987366676	-11.406364343166352	-3.942377296090126	8.865431350469589	0.9024446849524975	-7.629747081398964	4.263623735308647	8.865001351237296	-4.574162210226059	4.146931811496615	-11.012111124992371	1.4077660876512528	7.212314071655274	-3.906184719204903	-0.21365843757987021	2.4780499178171156	11.85052285194397	-9.56145508825779	10.928270456790925	0.4795965759456158	-0.21899184867739677	-0.7294161859154701	1.4841051185131073	9.445772702693938	-3.769100731611252	-0.883530533015728	-7.21483060657978	0.555500608086586
-1.281283434331417	6.127725736629218	18.64979311943054	-9.730431704819203	2.614850125312805	0.029869657754898072	-19.830737936496735	-3.566369327008724	10.335375344753265	3.3300293478369714	-3.130115931630135	-7.576914026141167	5.0649912130832675	9.53032666862011	-8.823216658234596	7.954506876468659	-1.314067839384079	-11.041385354995727	-6.480628976821899	11.459299788475036	11.144787769317627	-8.379363998174668	-0.13346389949321746	-14.608050498962402	9.105049051046372	-4.562932593375445	-6.0703920596838	14.186711782887578	-1.3512876740097999	-6.305560399889946	7.989943811893463	4.108994895219803
3.860751340687275	-2.6081729358434678	-2.9526429742574694	0.8126295697689057	5.378744027018547	1.0850125774741173	6.881699350178241	3.038238229751587	-4.0540690881758925	-2.8365201613307	6.255747225880623	6.157421061098575	4.744206711053848	-0.7511039248108864	-8.589962019324302	-0.3517933779209852	-5.765665994435548	3.456461428403854	3.3633174993097783	0.2358227950334549	4.469437710940838	-13.296581536829471	2.079846984297037	0.06671075493097306	0.6445778822898864	1.0305239298939706	-2.2096127085387707	9.542195422649383	-1.0992518146336079	2.746238510608673	-8.047947056293488	-4.585301344841719
7.62220878303051	1.8026333028078079	-5.6515902778506275	2.292603323161602	-11.747618759870528	-3.058536502495408	-1.5218119558691978	9.992412359118461	4.187502356022597	-0.04419711232185364	-1.3785024275258184	-6.202089859843254	1.4844669872522354	7.335264131426811	9.18001516699791	1.449354531764984	7.7373106944561005	10.95769999191165	1.7387118182331323	-3.2529628705978393	-9.33007057070732	3.5335315987467766	-0.8381939166784287	-8.239512130320072	8.985247869491577	4.691410515904426	-9.795436531901359	-2.36602113366127	2.22253631234169	-10.894686748981476	-3.1728076526522635	-2.8623166304826735
4.751053530573845	-4.24925410091877	-1.4444492149353028	0.0400858211517334	1.7266295364499091	-8.126393039226532	-8.999041521549225	-14.164397537708282	-7.173169521093368	7.574833756387234	-3.570013322532177	5.659366584420204	-2.736941567212343	-2.3419008706510067	10.723847364634276	-5.21879566848278	2.639110654592514	4.345999622344971	7.390423737764358	4.4651083117723465	-3.1198059955239295	-10.246432612538337	-1.5719103326648474	6.954424827694893	8.991585179567338	-4.713683615922928	3.519458603262901	0.2927197719365358	-1.159504811912775	7.181772307753563	-3.690658994317055	2.7421143662184475
-4.085009003579617	1.0929971277713775	7.216377771794796	7.465480743050575	-0.11699569657444954	4.612480361461639	-5.916961118578911	-0.7288371866941452	14.392907450199127	-3.7425212851166725	-11.545853435993195	-1.789076806306839	-7.092944844216109	4.390274828672409	-9.311435615420342	1.4596289253234864	-7.19853412002325	11.075033602714539	-14.375000987052918	-3.880611982494593	-3.5411683639883993	-4.583678377866745	6.212059627175331	-4.361638507992029	-6.8176943308115	0.03026257611811161	-5.007713831663132	5.072536788582802	3.4189546141028404	4.733644760549068	10.812064070701599	8.686037782430649
-4.2234139481186865	8.389191002845765	-0.37048379957675937	-1.3495947405695916	2.7117444759607316	7.5399254703521725	-4.558051390647888	-9.96411014854908	-5.149803102463483	-5.203718958497047	-0.5206213647127151	-11.441373047828675	2.367179415524006	5.137510880529881	13.4448606133461	4.452834465503693	-8.510804508924485	14.171636505126953	6.5725387376546855	-12.259550884962081	9.241552102565766	1.3691137680411338	5.626757869720459	-2.430766127705574	4.5818443262577055	-4.834961085319519	-11.6841250705719	-4.302504353523254	-2.708623813688755	-2.0051324224472045	14.092203926444054	-1.5970090544223785
